{"isize": 650, "layers": [10, 2], "weights": [[0.06622148756114747, 0.010202411513104423, 0.005441926177931636, 0.004436530496064246, 0.0034522432300319733, -0.011784575060862116, 0.0009965998321392715, -8.179889633749163e-05, -0.0008917155352268685, -0.006846244639745795, -0.0015510769242484152, -0.012682910950044306, -0.0005112303351725819, 0.0015932819333980884, -0.005494520506131317, -0.0027592863117700244, 0.002727422015013167, 0.007358353126306462, -0.005711508889037107, 0.006895602780817496, 0.004911108467602498, 0.00835098573151408, -0.003182965958511224, 0.0015737464267361375, 0.003515010395514717, 0.01871295768269456, 0.0047106750108594315, 0.008615138014133581, 0.007741422860136747, -0.005573913346351548, -0.006025394959727652, 0.00529443404831408, -0.000618438075194028, -0.0012571303322740284, -0.003858814750103912, -0.0033475754995746163, 0.0014384697867995705, 0.005360604507740982, -0.010031290246087421, 0.0008881069350385723, -1.3539147984848478e-05, 0.009124510878208045, 0.0011333132748498477, 0.029053706613754053, 0.008195916434991523, 0.0012503844438474922, 0.005699627762225982, 0.004020712373969874, 0.0026667205434577164, 0.002124273883239897, 0.004294570349659728, 0.002064088564170031, 0.0037484134474555083, 0.022152455740335614, -0.003992876499544348, -0.005173283023774434, 0.007939006789032466, 0.013410566538835914, 0.008193391341377636, -0.003872047883206029, 0.006147868819312793, 0.013046482274847308, 0.005943736033190268, -0.0035085004229556144, -0.0005506521756316526, -9.496091822446639e-05, 0.005248195316509023, 0.008681242100474884, -0.004810810257422905, 0.006088830877590636, -0.0015222395273269608, 0.008020586996112772, 0.0017865992201451803, 0.007129521166782636, 0.0005274391073106022, 0.003475381347511553, 0.004955276738574919, 0.007926237595174008, -0.0006991398210902607, 0.0036614570769649426, 0.005119158794245175, 0.008243208552999577, 0.013530392530599046, 0.007426413100484234, 0.01662581393289329, -0.005957900684105846, 0.0039310723055431705, 0.004301252794123709, -0.003679075451412964, -0.006933436468790597, -0.0010356253939299478, 0.004301058340516479, 0.00291715320149759, 0.0008986987532673717, 0.0014382625152031907, 0.0021395725066898894, 0.0071493966055050494, 2.2680810662496546e-05, 0.004320078467768154, 0.0034436308114123566, -0.0027798159078428358, 0.0033998347631959106, 0.00666034152557604, 0.0026252690705506885, 0.00028369022401538265, -0.00125249772914025, 0.009118488661904693, 0.028245288944536776, -0.00012224355498763746, -0.007478592565573658, 0.0010496975394959146, -0.0021877595221458904, 0.003275299864931065, 0.004044235099244298, -0.0035107179262188234, 0.0057800692961812224, 0.00796676365818687, 0.008991909467924032, 0.010938828556988736, 0.004307466969460068, -0.0005449613214344406, 0.007833549156576693, -0.0024978976574735016, 0.009134360953367846, 0.0004397735639575439, 0.006549323573595701, 0.005409091644867999, 0.001118953594886798, 0.008161060604673143, 0.003018232596533926, -0.0010003719072067254, 0.007571831164951563, 0.011853409506087405, -0.012991645524792931, 0.003431210613761711, -0.006543892994844301, -0.006867376981773284, 0.0056676042633630914, 0.003453972528963524, 0.0028811110208650254, 0.0014220816417846213, 0.008689327881097962, 0.00945471299690423, 0.013335180576878167, 0.004954370329218279, 0.0011822160862469116, 0.004091663420508433, 0.010769476245362862, 0.009395439710948767, 0.0061925455763619805, 0.005439147744761736, 0.003708397577954821, 0.0059605068992227145, -0.008851833172120165, 0.0010648126628456463, 0.001455361455723763, 0.01148103904149616, 0.019844740854898915, 0.0012821801613808069, -0.00874040387311707, 0.006010258235198732, -0.005786601105347043, 0.0002645124106108689, 0.0013346758237965056, 0.010749106424086203, -0.00293030621911813, 0.0008793768612942439, 0.0071504079274581364, -0.0034689231987913077, 0.0058763766275842875, -0.00046132672113356646, 0.0077888344072687314, 0.005985408694029978, 0.0018589559263741905, 0.0019056011356716773, 0.01437222080771443, 0.004318298136854756, 0.0031931654947656885, 0.006132875901899931, -0.0037540109674871723, -0.003906350227285872, 0.011190404051288256, 0.016251313505387728, 0.0020900494670433633, 0.000502618565946476, 0.0061020101164149625, 0.013272049547908742, 0.009196315256125244, -0.0011088599871632353, 0.006395747696159694, 0.001358662424463847, 0.0051922125860087345, -0.0003238148505179583, -0.005654519877935385, 0.008763042622000592, -0.001811820224836805, 0.004197732076529364, -0.00272149946586592, 0.00455465696420172, 0.0004058873685013334, -0.011076059210534188, 0.008327980800413073, 0.007053731440515786, 0.007990272408856663, 0.006579850364605998, 0.0008585573264037027, 0.005507993202167261, 0.008203195332168572, -0.01464777055297151, 0.01622054506082584, 0.002746401493402007, 0.0008737395966037846, 0.005941472227292454, 0.005331751727716646, -0.007544388862501346, 0.0013103814381343747, 0.00856389877937896, 0.00367870646998098, 0.02200985212256542, 0.0036197331698055316, 0.006764756936035037, 0.00829970855141018, -0.0016162128124892216, 0.004074657435436519, 0.00576419709323373, 0.009725878747923598, 0.004774766680630993, 0.005348611842548019, 0.005309794434073985, 0.003267301434567461, -0.008694569850959195, 0.0026956709624001516, -0.0001297914165901093, 0.005693262745411392, -0.004285194401422718, 0.011603123972826616, 0.01032553138518056, 0.003262198133612511, 0.0034489817097226026, 0.001071050125051363, 0.0017454575504059432, 0.00901936482523574, -0.00025153860231502326, -0.0010162917959447954, 0.0033681286849651746, 0.003784585136801167, 0.007410185123415674, 0.01547780131640243, 0.009351244230545182, 0.004047700744946591, 0.00821005611896626, 0.006240004035547314, 0.0046909211597315065, 0.006485246839075413, 0.007814048980464575, -0.002524202645867392, 0.006648757659059654, 0.015384569330131851, 0.0017372805268990822, -0.00971277131418724, 0.00977166279796776, 0.004191006055627056, -0.0013449655847205212, 0.002436472237293748, -0.013229658466867094, -0.0005885402820562751, 0.007335567515970674, 0.0037670613296688607, -0.004559655202330509, 0.004612763098229389, 0.007818224811377351, 0.009173173957535863, 0.002091111393001048, 0.006293149084651616, 0.0040525774835355995, 1.4876673628585477e-05, 0.008463661758219554, 0.008396530832973181, 0.0025268818643619908, 0.0017869860015694368, -0.0036565166280214377, 0.008007145303794325, 0.020428909525858397, -0.004408998415235756, 0.008548131609779132, 0.011388014852635542, 0.000848348441932865, 0.0033202259722735854, -0.0008412880534868035, -0.0028991839049903726, -0.0046255243517431596, 0.010310863074691742, 0.00419364002719437, 0.0005462669153956163, 0.0030726612105790507, 0.008324630171759493, 0.0010332364704354014, 0.003926738229140301, 0.001017059184861581, 0.002738264530637527, 0.004179401073442676, 0.007384616022918535, 0.0013513723919566587, 0.00728009781789066, -0.0004844119281011603, -0.008227149963359846, -0.0016601767976140742, 0.011969116646122501, -0.012538871802767654, 8.556777001352322e-05, 0.00586696366050068, -0.0008777125568168049, 0.009035444265745006, 0.009029617332770785, 0.007865911704262553, 0.005100101766158716, 0.007465942249795078, 0.00786751680245298, 0.003701066487878762, 0.00815890707843696, 0.005189194496751505, 0.007284179137448647, 0.007983939837577196, 0.004308815677295624, 0.007772016776821005, 0.0027193150227252647, 0.008129716105586802, 0.002738637989725705, 0.011500370610590607, -0.009581624863439293, 0.00633850374519945, 0.008529155128536213, 0.02065562040143597, 0.012928715692038604, -0.00887130217122707, 0.0005783735465118872, 7.649595981105788e-05, 0.0010106808450982196, 0.0012117513099912168, 0.0021268822307614252, 0.0038273517868402983, 0.0008615066499609205, 0.009117406210538961, -0.006578739766193594, 0.008295566030433752, 0.0037585941602704433, 0.0011068414307049675, 0.004941201726985509, 0.004679121666253105, 0.00718665877020141, 0.0130011510056804, 0.0102075481598925, 0.0030514525544465205, -0.003109307751670568, -0.0012289609909946924, -0.009296524109535974, 0.005652927889283564, 0.014473393644971097, -0.012927881977863926, -0.0035022397304807734, 0.009827552262334767, 0.0074508199704699605, -0.0035921968475914586, -0.0006560870040462591, 0.005197654595605338, 0.0068499596685715316, 0.002304962147525564, 0.004736151455320894, 8.567346695906623e-05, 0.009393712938028372, 0.010237503685261275, 0.003662528151524204, 0.008519068011801325, 0.0033132376462319197, 0.00637994488688276, 0.01376122655505791, 0.00506956230781605, 0.003405555234095229, 0.0011734560336255691, 0.0047286314800508685, -0.0185815324833915, 0.003065987769601503, 0.008863519990830154, 0.0012189087062852103, 0.006205130806908739, -0.005274308693918886, 0.00539381201320182, -0.0037380029736422617, -0.0024556581035425234, 0.005680460711403292, 0.0025840175904123896, 0.0019423195593856715, -0.0014105432808191845, 0.01569050229153334, 0.0011489628622867929, 0.003036732451179663, 0.006925063272626563, -0.007217846549023207, 0.006111302220868065, 0.0030416747916876302, 0.007359264022530718, 0.006944272307521345, 0.001170131052900441, 0.016966133580548774, -0.00021280436014486378, -0.007346166225216494, -0.003986909445117041, 0.012896546986890214, -0.0011323044986283246, -0.007029464159847762, 0.005592149720260411, 0.012987775415081781, 0.0023635649497914207, 0.005009564506105537, -0.0034022406145345625, 0.0025563159637088145, 0.001998108190448575, 0.006399965272759688, 0.005128548450487866, 0.001772068375702472, 0.004586689088100844, 0.001080167354216447, 0.010271823286773927, 0.002763225215369122, 0.005091851319941804, 0.008585132537827953, 0.005082039468641655, 0.00042270483040516193, -0.005689497750696869, 0.011277807473520626, 0.002179466489566467, 0.00045677074996470254, 0.018574986481904875, -0.0014180123741618297, -0.01080171260900735, 0.011460232987306125, 0.002856330495157461, 0.0019489833736270094, -0.00044919772882728127, -0.006607098654227344, 0.0023379999108532642, 0.002257578130524827, 0.002073007665624913, 0.0009193702617467155, 0.006010003543828231, 0.003638489284394675, 0.003198729723017302, 0.011411054224398028, 0.006573210761505418, 0.0092233424378466, 0.006946332870124892, 0.007970515303798591, 0.002301930819476489, 0.011801802032673876, 0.0048613357003996485, -0.0031058126937661577, 0.004128190690082253, 0.014738141501405172, 0.0042851030816695645, -0.013811206414390811, 0.0018290179241156675, -0.006286309359538652, 0.008544958720688627, 0.0035075706466940492, -0.010574788250809456, 0.0005506253359179508, 0.002622160116266894, 0.004770432725313085, 0.008901308604463308, 0.00901863168274653, 0.005188849926055916, 0.005459071838297035, 0.004306459258314609, 0.004999505245356197, 0.006586221897621615, 0.004111232207368749, 0.0008251841450276503, 0.002426226044134393, 0.008004611567925497, 0.006807705024114893, 0.01621232377712768, 0.006367659100202105, 0.020311444515555836, -0.005574140913834519, 0.0029236995107515193, -0.005249241274457907, -0.010023106339619657, 0.00038348529223015867, 0.007329133020409629, 0.005096509129056621, 0.00799914626080769, 0.005139975423033885, 0.0005689496047472197, -0.004757292237740817, 0.006152588271641854, 0.002534144756422051, 0.008376791580675998, -0.003211988939258935, 0.0012121985540964036, 0.005370369139708063, 0.017674605027571094, 0.008382589460105375, 0.00686854685768031, 0.003360905268474678, -0.001012124955233507, -0.012379386235213927, 0.0033323885385141217, 0.025127942995620052, -0.009320902568972878, -0.007218648895758047, 0.0051786746125031015, 0.008373386275538366, 0.007419300411289004, -0.0022431838894162045, -0.011595200042177577, -0.001125108795063463, 0.0007992643297736496, 0.0026013034355299707, 0.005112013359810825, 0.00822085891361794, 0.0022253711100269167, 0.003066488019108796, 0.004243934257483031, 0.006591728376914986, 0.006687812682455328, 0.015880362812522527, 0.010399603205457963, 0.0022873675209161776, -0.006366819881981185, 0.00012984571607937599, -0.0033621684600926025, 0.00829976103733062, 0.012658579585482081, 0.001135440277984921, 0.004119721959252321, 0.004208648384517088, 0.006370026477990514, 0.008324032540652043, 0.009454301622550716, -0.003510939729484492, -0.0020363373070995173, 0.006683276596778662, 0.008236153385759386, 0.001272804512938682, 0.003460013354883568, 0.0011226879677958008, 0.005832555200757079, 0.007078201586761188, 0.000571593159414572, 2.0773352779831087e-05, -0.0035948941138754568, 0.002652793519795148, 0.007165935271739903, 0.00864564433057143, -4.0119137552551326e-05, 0.006559389128925738, 0.005623206994712469, 0.0101353624006411, -0.0008119566222626046, -0.0013061230495199623, 0.003735057220769229, 0.005766798985155003, 0.002509721749927816, 0.001065752866508249, -0.007272963925249877, 0.002323005452273739, 0.004601529972240717, 0.004044228125370973, -0.005922411996826238, 0.0039402200903426365, 0.0016510353661913341, 0.008585186803891635, 0.005500672115008676, 0.002749561971142255, 0.008136393117931174, 0.004521551945019436, 0.0013999863353037218, 0.005767170315151561, 0.009780100540686324, 0.002764359609072543, 0.012377981946598135, 0.00530700269424106, 0.00793606600337852, -0.0062853135389112115, -0.007495443210790772, 0.014784940342431758, 0.009830159735486243, 0.005288594188812753, -0.005218537878693356, -0.004758308422146555, 0.006199047333506471, 0.0007144529490218766, -0.002245807067154571, 0.005316704451623119, 0.00018735951055576103, 0.004547333261477425, 0.005805123673645214, -0.005233797509769565, 0.0026728918177579327, 0.0075561792006565804, 0.014154512841152187, 0.004124386479803899, 0.0056277139995766865, -0.004539002810531846, -0.0040220291516221965, 0.003315968834202846, 0.005028002793856106, 0.010317739471093554, -0.006787889131778548, 0.005080181274157446, 0.010353669820713321, 0.0020018360314601243, 0.00013410627582677518, 0.001450996935515876, -1.1800226203750616e-05, -0.005118708324629744, 0.0013826864455026705, 0.0022088688306402438, 0.006662473355298337, 0.0011355356005377571, 0.006815058148987161, 0.0072217894897613506, 0.00498371783897826, 0.00047207522484975093, 0.0022433532955946655, 0.005428990201444223, 0.008711369956976633, 0.00125294256719156, 0.0036438408036434345, 0.007651760173399203, 0.000722653196819475, 0.0007290807715629191, 0.0001783286645950856, 0.009183630298256558, 0.002576653933151561, 0.0066038656893135875, 0.004467097040468307, 0.005655674671783577, 0.005536321332758784, 0.005812249016264555, 0.005191531596622435, 0.0023546648798963834, 0.006690429114984374, 0.004860790491968875, 0.005906527885271996, 0.0020767495315886543, 0.00365578077694349, 0.006212422025626713, 0.004648162148247075, 0.0042954554404101, 0.3243597852397556, 0.031603873088224384, 0.004046632606922247, -0.002965369471083091, -0.008932528378055882, -0.08148100019464828, 0.00598883803186281, -0.005707308636911604, -0.015126632909557245, -0.06423325940598863, -0.025915125820813994, -0.08417650273245235, -0.012131326962594047, 0.0018262965797807007, -0.03907379777864806, -0.03214055206336081, 0.002798814977158029, 0.0011436558570773721, -0.08200806694779703, 0.000919253249019377, 0.0006346599551617862, 0.00317972771184147, -0.017189840091905068, -0.018215221308682965, 0.004570741857802706, 0.0680346199441512, 0.008083602990323638, 0.006474462456704315, 0.02901420789586561, -0.0231693367652111, -0.0392778989283751, 0.004200325464800346, -0.0224400455085702, -0.030866500309152466, -0.049916994352346734, -0.05431178630177192, -0.022492051746057482, 0.0022247364428392294, -0.052962005690485654, -0.03980148240485974, -0.007841153460291135, 0.00799457409594606, 0.009106090200582517, 0.10973172435003724, 0.007404786745382445, 0.003665869689884202, 0.0008557626249352737, -0.009162735754684922, 0.0070067824947099, 0.007935434476401762, -0.008808811110226624, 0.007185301743070666, -0.022958830876851126, 0.06832786250628763, -0.02909387980355793, -0.04926828071923013, 0.00452867891216698, 0.06682653961270893, 0.023131044259331754, -0.03699669690562144, 0.0004642555509741633, 0.061623480130011746, -0.01477356812670536, -0.03299163840861142, -0.008740676256948273, -0.04755584685504401, 0.008657995083724345, 0.0034680652510156477, -0.056363866937679946, 0.003861284737941041, -0.002662100261187847, 0.004209361568064601, -0.01642871407013389, 0.0087474926050455, 0.005885759352631078, 0.004397753834239501, 0.005833456396319554, 0.004645772819985715, -0.04556181184098634, -0.0076482982342846095, -0.01525255038701077, 0.0038812992893515756, 0.07180768304561834, -0.004375712648640136, 0.07176332388961901, -0.036668172424213684, 0.019924329841023467, 0.0008789110676581947, -0.03879325581375503, -0.04986913901570963, -0.03518900404956012, 0.0038501079983390106, -0.005304011459073219, -0.023623102509311794, 0.004297567508754511, 0.0006252325349139344, 0.009363048263763319, -0.027300644588150593, 0.007775672378978035, 0.007478912424124685, -0.02274726928812435, 0.008303916206822602, 0.008461617852063804, -0.01803514733830811, -0.006776475363883903, -0.016103998235024963, 0.002158674689192349, 0.12419752743767891, -0.00045524969809073666, -0.09069506146894851, -0.032766445566556036, -0.026561667994221584, 0.007736557696069502, 0.0005192293361899504, -0.05692119586328959, 0.0043437777248865215, 0.003937306888098229, 0.0063779544206398, 0.028788854299622885, 0.004220936981691351, -0.005660235868854059, 0.008076508615277556, -0.01938319999470252, 0.006382189551289788, 0.007368112975950711, 0.01221979237204028, 0.004872083098322781, 0.007670359058797305, 0.0052568289738008315, -0.02786554027979608, -0.014711363819523447, 0.0035018208106704653, 0.04687947143274073, -0.07487699052479375, 0.003688719856983698, -0.03612984034579702, -0.08488140664446012, 0.0010610168152855879, -0.016207244144640566, -0.007430955480759173, -0.007893112109440397, 0.007385006901020826, 0.0012740591830432788, 0.035520782064429914, 0.0005548035678780109, 0.003001459187863064, 0.006559335200258039, 0.026985790107144737, 0.0058396247219720905, 0.0017631047343359789, 0.018122102307782346, 0.007944071251368747, 0.003332487530463015, -0.06077034067451305, 0.003947996415490212, -0.028159424864077486, 0.017998366308924485, 0.06649501024312765, -0.009070697619017869, -0.059997749015693935, 0.003765350748705005, -0.023775605660788426, 4.862552371862948e-05, 0.002011974411113535, 0.03876453962389787, -0.04098075424787885, 0.007867995098012613, 0.002449805031076481, -0.04718533036615193, 0.007796713366739946, -0.008126253610795761, 8.268981267307065e-05, 0.0032821439309080394, 0.005665212036485996, 0.007669943165505001, 0.0393536998034875, 0.0038883464007147643, 0.008450278461780694, 0.014925822690468472, -0.04382938176534827, -0.06255934759034838, 0.018990611383271707, 0.07782850648786978, 0.009400990074450801, -0.03181383848548212, -0.0007073853388660104, 0.025712321212055515, 0.008177975358407542, -0.011508133515810684, -0.00929162992823286, -0.03245764154721905, 0.0008427555350644962, -0.006341340019537802, -0.06109310549622891, 0.004050589622811901, -0.009333492540963923, 0.0010953521344718112, -0.042129353377515014, 0.001986468496088287, 0.001951293812311155, -0.05899639044449034, 0.013909598989043327, 0.009259687076118132, 0.01269477182680137, -0.0036334497244538562, -0.03538059325019026, 0.0003593279083196667, 0.03337568232379166, -0.07364963603543055, 0.04437084288701176, -0.026845772601841476, 0.00922734475635338, 0.008542562281452754, -0.0063543930952787864, -0.073412737510362, 0.009065618447337867, 0.0023106606683043714, 0.007705328137344449, 0.06702725552799639, 0.005660510748741479, 0.00024733401831274546, 0.0009001012513563308, -0.024993015141246366, 0.0002026631100227548, 0.00568615509289741, 0.04378123165061375, 0.0033480789921693575, 0.003017599706935631, -0.012290813440716534, -0.008758056371231988, -0.08261713809426531, 0.002777853611631943, -0.041251393879974965, -0.0059357464147306825, -0.06517595745065008, 0.0550435518494449, 0.050620770834817745, 0.009381700396938083, 0.009515562520191806, -0.03217212923132313, 0.003979137014757898, 0.006480737414008158, -0.01982256649463367, -0.028983390377572787, 0.0051103200212480465, -0.02000439893777404, 0.002334136877519505, 0.04235463352837942, 0.002418913765710141, 0.003459719707434982, 0.0340480859251911, 0.016890321779559448, 0.0016128282877496637, 0.02306470080320321, 0.0014260795410963945, -0.019285466407927904, 0.007925256042219326, 0.0434353715267563, -0.023202656716041416, -0.054443700412259086, 0.029302130117414966, 0.011143858191505254, -0.0012346428553691503, -0.016989823810387657, -0.07147064485591878, -0.004880336073528883, 0.001322608013836667, -0.006556165155848596, -0.06440773421400642, 0.0015627966174554147, -0.000317691779231458, 0.0007325445823437814, -0.007327619185971479, 0.0012296009566170585, 0.00670257699925343, -0.02611170441437909, 0.001831313853115402, 0.005739299750822546, 0.015849690281286112, -0.025943750545058042, -0.05191607791466488, 0.0011166386798953265, 0.09368367319164414, -0.024825069656987817, 0.021238948686472397, 0.0315091005179399, -0.027150951822609983, 0.00578357213169301, -0.0272924554399526, -0.046228736393461305, -0.04234929372877096, 0.01683676170890634, 0.0013688340319401929, -0.003774877505527275, 0.0033881845942641147, -0.0017570062118444705, 0.009492306165073083, -0.026183703408410138, 0.004953974448712656, 0.0007177759536775313, 0.005548775234345148, 0.004924664438827655, 0.00737124157966604, 0.003790464204825425, -0.014756935893684401, -0.055860870516834395, -0.023391933748401823, 0.05935665129972039, -0.078946840174295, -0.006004167383398388, 0.0004435500201919401, -0.04797603062138557, 0.005995459019283846, 0.00915796710338226, 0.0251538596915145, 0.0037040780754288723, 3.3964616229785355e-05, 0.0067667225439423054, -0.02621544936306688, 0.007850500791585427, 0.002473776046157558, 0.004995562602260273, 0.016822918110399657, 0.006734791003192453, 0.006926939342085698, -0.029247898898404016, 0.002558478777595377, 0.005247970099890061, 0.033190424327916974, -0.04550926698233794, 0.02708071511960862, 0.0070280977804320025, 0.08907512223324043, 0.04499840889144711, -0.08472550117292019, -0.03406956877456507, -0.02698592612474106, 0.0011073962803593135, 0.009078253837948516, -0.0304879899656961, -0.012311901914898189, 0.0018658176320557275, 0.008101700410776446, -0.04805207112679312, 0.005039875907447935, -0.0020047791103365055, 0.005512086236148677, -0.01758451806737511, 0.0010213875532865538, 0.002571544907352404, 0.03632655367282264, 0.02049712214045001, 0.005676494287586801, -0.055039292001069835, -0.04337674444619408, -0.053801950581613564, 0.01936364385908175, 0.06989242588656035, -0.07039448656748326, -0.05052964356284631, 0.036219304349606345, 0.027068470974012552, -0.023005875855152406, -0.0002963807432441693, -0.0127895882598398, 0.0008865710635532552, 6.339653239445751e-05, -0.005592969802285474, -0.02986011255254589, 0.0074248944845490775, 0.00962991693659947, 0.004355853147390935, 0.024853728715848178, 0.008042267090784894, 0.0015475405832061182, 0.04866995847712654, 0.010289082477457948, 0.0003873959729293931, -0.012798476046161229, -0.011635551902204446, -0.10778526253341138, 0.008380661988152682, 0.04691034035096608, 0.00670482258384889, 0.0013236110840385857, -0.02774246815545641, -0.009655715511298268, -0.011604432518948694, -0.01713985183016366, 0.029463103398605847, -0.027537176762533144, 0.006963770691008872, -0.00870239724730931, 0.034081531788877045, 0.007006380415264241, -0.001229715292783855, 0.008801905210310794, -0.045156063731849154, 0.00798162413859823, 0.002921769345061578, -0.005096155483741151, 0.001709354754050117, -0.018345570885035058, 0.05851543759375421, -0.004057676696984127, -0.07279280659294096, -0.020045179269339884, 0.06705306385122017, -0.03763948097970231, -0.04863554280405095, 0.003916725985234468, 0.024272414500406608, 0.0014441762379049268, -0.01382821973452588, -0.025502817160848807, -0.03259270220447951, 0.005593063624608819, -0.013534236602707816, 0.009653470892193407, 0.007379664260470911, 0.005629936997382627, 0.0017626594838989536, 0.015390955782658278, 0.008369989171480274, 0.0008244256754245716, 0.038194298471784106, -0.00034544669212839194, 0.0025861405875613063, -0.053459665940394155, 0.013983023538740393, 0.010177405886214805, 0.006005795085619959, 0.06910456037746764, -0.03158462083548383, -0.06320768999966399, 0.022458181008365365, -0.03573659908532754, 0.0035295656427836307, -0.010739713745133786, -0.03147718030570399, -0.03413944366127901, 0.0057691761171840775, 0.00540514665507491, -0.02828903700473663, 0.004152286421446506, -0.007083059744736715, 0.003716149590377221, 0.01767722872516195, 0.0005424815159791586, 0.006313648250695982, 0.006807148246359508, 0.009800879756266834, -0.013018200759065962, 0.05020713143601406, -0.0009272700151327404, -0.03596215176846665, 0.008551183120638406, 0.05098418538469152, 0.006376057054622003, -0.07181522829839078, 0.0020965452930445157, -0.04593211966755144, 0.008254768783260353, -0.00805297577828271, -0.051485041657187945, -0.019425364253149138, 0.0030164596238955385, 0.008321631777464375, 0.007190874920279006, 0.004604432190291817, 0.008769598574863464, -0.016193536804727657, 0.009681416515990339, 0.003655777116586141, 0.00041790821701844676, 0.017882600786108996, 0.0021299956869332316, 0.004017121540112614, 0.016867950883382415, -0.006435042542089942, 0.037147477951293334, 0.01426526707254491, 0.0676789525956429, -0.050942864979572865, -0.02358915260412816, -0.06867405610673732, -0.06414561853569202, 0.004225652174120608, 0.005949387810082941, -0.008602218593434633, 0.000686403374223836, 0.0025901505294685556, 0.00881513256249478, -0.05294965290007347, 0.008160076358370306, 0.009229742662600054, 0.004151868169378434, -0.008592324595797214, 0.0026100406129232275, 0.0027952059393437974, 0.0544541269307344, 0.01042349321786373, 0.006266102268937054, 0.012367500288135283, -0.025126814324799907, -0.06100452923857074, 0.003107828000130328, 0.12770298657347398, -0.04922269543302475, -0.04862762036899216, -0.008240662845908646, 0.011527413949867015, 0.00836919203305577, -0.01571427771000511, -0.09845917538949199, -0.008960983478158354, 0.003928018995258083, 0.003071579794081076, -0.0035923674929927503, 0.007686288472939429, 0.003735796729254666, 0.008539441804802043, -0.016721921218772567, 0.0008720882163476302, 0.008605723086068653, 0.04872633125002211, 0.010576312154409984, 0.008476093846627649, -0.041277757886968705, -0.012296476482922461, -0.056051506359445634, 0.0006030957609905175, 0.038153813165884974, -0.01293584969303192, -0.0010659694071533984, 0.00599865600265894, -0.012102755896439379, 0.007298540217336215, 0.0008936754710368403, -0.016618930073459923, -0.020051300074198038, 0.008586295038596717, 0.0035571214911476893, -0.037844999245915036, 0.0006640371314715406, -0.016075810720530197, 0.0010868351277912253, 0.002673037912642206, 0.007281000568308581, 0.009053214226205641, -0.037852139455298695, 0.007598013366620913, 0.009208183922138475, 0.019364170396941095, -0.004502287792224475, 0.012592372804604882, 0.004351467155834341, 0.05707645859550932, -0.01281300554307812, -0.027899042124551243, -0.0016390633936219571, -0.002908178665364189, 0.006816228192088915, -0.010432432788598778, -0.05135739752574309, -0.02269947694474694, 0.003089506328419301, -0.007060484104563573, -0.03770492044105978, 0.006115950315364679, 0.008208963563811759, 0.00750938920018899, 0.001233159910793822, 0.007953923258102031, 0.009047193307592193, -0.007710014410632521, 0.0025270993051944497, -0.0021482784456538302, 0.02582196605998244, -0.002342274854198518, 0.03712597010367718, -0.010896098415957952, 0.02437487555410226, -0.06476550396484289, -0.08176581753109234, 0.06432088586944648, 0.03583181530027194, -0.00401656634434936, -0.02141536905426058, -0.052087068645448174, -0.009931512719285855, 0.005841171683014012, -0.027929802703005418, 0.014909448135259858, 0.00526578474312369, 0.0006392789266259533, 0.00462391516065976, -0.028901709219613898, 0.0048842406729058185, 0.003451239923340251, 0.030944979604926235, 0.008369627646315643, 0.0023218698496477873, -0.03905732443078958, -0.020948098124410425, -0.03483134540155884, 0.007612809492310187, 0.011195444577577759, -0.033910085832577055, 0.032023967176365374, 0.023843184279627685, -0.027356474104968127, 0.0038740534914645844, -0.002378465195899511, -0.024375221584529688, -0.03542190833746661, 0.0038148697185980103, -0.007082951271562889, -0.0022348870213902325, 0.003412513848145878, 0.006218261816232987, 0.0017202318552593343, 0.0012174995217303693, 0.005578547080231137, 0.0009186733251908679, 0.0022023614423677595, 0.00368725112457036, 0.0037313302974508076, 0.0008550501421151427, 0.004145517620699832, 0.0012087412305008783, 7.772115215514814e-05, 0.002643401100785033, 0.0015461148856515795, 0.002898748080971525, 0.0002837908060035726, 0.008886307176709645, 0.0047756393169159405, 0.008815331280714888, 0.006661670935318469, 0.0018248621311113572, 0.008327031888665619, 0.008400915664265318, 0.004444618996206175, 0.0023159617761766963, 0.006705652384947578, 0.005982013597396415, 0.00550392277362995, 0.0004189948895569755, 0.002053586355938156, 0.275638933623592, 0.03289727307724092, 0.006475510327041606, -0.007081341114695908, -0.0037986877669906522, -0.06513517508340841, 0.00372431305450853, -0.006246852552216745, -0.01692357443146432, -0.057593733741498156, -0.015099412406187543, -0.07422537851056117, -0.009930325200168046, 0.003018406444734549, -0.03160091507471977, -0.018863065719729677, 0.00471934943151114, 0.005109907692881094, -0.06640700178795243, 0.007310908470250836, 0.005778474427971717, 0.006386856793651992, -0.01624830413015999, -0.01170979068277498, 0.008876816842416448, 0.061176368839322134, 0.004302134916872305, 0.008008797794881263, 0.026431445105354015, -0.020825391875891684, -0.03695381723884598, 0.003573988070126972, -0.010976200096338548, -0.022662445212043282, -0.03811834619794817, -0.04243893772939712, -0.018139750553807604, 0.001832434474355576, -0.0363717003956282, -0.031688706227438405, -0.007436535115994742, 0.0012147402555830814, 0.0024335621516515943, 0.08574274507895732, 0.003378196318712696, 0.0017091793287646792, 0.007687830158532121, -0.002493940868318571, 0.001454742584462224, 0.004322113000766865, -0.004433990115042123, 0.0038329355981914248, -0.018002432263937093, 0.059579001796786484, -0.026515941998072234, -0.04505842383469839, 0.007531949079041315, 0.06407754044505498, 0.012364464213023604, -0.031307654970273775, -0.0012244941697524391, 0.05025586827920046, -0.006824300772563602, -0.01942153071075974, -0.007520565582283246, -0.039552916071554034, 0.004547304817854656, 0.003148169268576542, -0.047933133738284325, 0.003980043804534059, -0.0032898847341398256, 4.99920355806201e-05, -0.01999009970575407, 0.0038493163969097006, 0.004074901724775875, 0.0075751601387641435, 0.003252848912720071, 0.003308151713481835, -0.03258920992431921, -0.011375181891361785, -0.012835025175590003, 0.0068711067817432215, 0.05776970116378288, -0.0042873893031655135, 0.05968834462789504, -0.03123949978648943, 0.021171755415115946, 0.00579315841665224, -0.036894779209131846, -0.04009292799190181, -0.024935750838111625, 0.008970497250496251, -0.008377675068599107, -0.014675019065915201, 0.009038196129177821, 0.0008459015832935667, 0.003461507436629892, -0.024134389008663576, 0.006016201021939158, 0.0007223450995179179, -0.022611079163708588, 0.0075013526801022455, 0.009356969142919074, -0.012350825394885445, -0.006068243523988292, -0.0084658204717401, 0.0067465591281240566, 0.10655301953759191, 0.00016609662238715683, -0.07400974214128202, -0.021977499289189167, -0.02283008280834537, 0.008469594270348539, 0.0053875046220436965, -0.04520565305108971, 3.898734678487877e-05, 0.0031685328620535812, 0.0074487122395213035, 0.022273780222998474, 0.008460267456103154, -0.005663469819778461, 0.0011986437277751614, -0.016407971986711588, 0.0019240785051756228, 0.007572089006464318, 0.010930582518166674, 0.0022769720504066926, 0.001168072418160809, 0.002066610600874643, -0.019099432687535674, -0.011908066384660618, 0.008303209445249832, 0.03322589412480803, -0.06033295242792505, -0.002709115279005631, -0.027389318132495896, -0.07092048585119548, 0.005625512880754307, -0.01196700544369391, -0.00014457372739460814, -0.00041768855251284834, 0.002481887398866601, 0.0030207869378968796, 0.030400114051068686, 0.006800288195852629, 0.001183571018844616, 0.0013264464496054963, 0.02875274878331658, 0.007594703909833634, 0.0031221336320957703, 0.011173319970226423, 0.006000719213176432, 0.002530642677142984, -0.05023916507842257, 0.0031987659383490544, -0.02398636282250061, 0.01267366294961811, 0.05766761182895797, -0.005002931897927712, -0.04312926052094585, 0.0053900774492252465, -0.020102761876774466, 0.00389345514498541, 0.004697038332045077, 0.03260772326164968, -0.03932206591620727, 0.004333931259931872, 0.008643251393649196, -0.04227239818849396, 0.005204859009363189, -0.0009203186308952369, 0.007746195428901937, 0.003044403941199774, 0.0047996802601027785, 0.005367318368788815, 0.030216032855061917, 0.008837480438719316, 0.003116894629557647, 0.009667824812284839, -0.04328870540166576, -0.051833134735622274, 0.017536965981321703, 0.06935911539488226, 0.006548708765900496, -0.019595631378998397, 0.0002374289075857927, 0.0219215891223817, 0.005889449973029566, -0.00761420626776173, -0.00789073834751538, -0.02689574777003896, 0.0043386583622755616, -0.003995295153231463, -0.04707223549153616, 0.0010814207566966368, 2.1663692760581917e-05, 0.005118165467545787, -0.038656097174592056, 0.006267284639236987, 0.006394329049109591, -0.04531372986865842, 0.014083297991437618, 0.0032281297820969364, 0.012225395927555576, -0.0070379366484988, -0.033729807287842244, 0.0065127324044329535, 0.022139775476403174, -0.06076713925136006, 0.034145782752728664, -0.01782400222633662, 0.0069688557551534054, 0.0010244864737175743, -0.010599788327687328, -0.06254836756925312, 0.00629420170156528, 0.00857598689907805, 0.0010457345434879883, 0.05246599754104336, 0.0033965388401958935, 0.008456833524598958, 0.007958731319299747, -0.0163132722245227, 0.00123751640271932, 0.007308432071377747, 0.03356832431533937, 0.006132031383514641, 0.0021443414871215698, -0.005704350942648071, -0.008257419734292941, -0.06622069250929691, 0.002206220412542496, -0.03369251744837601, -0.012084533159108374, -0.05108185063810762, 0.04274359141542357, 0.0440144947396569, 0.00720847194952154, 0.003536790884837574, -0.02147862757405421, 0.008400503611456419, 0.004764981324426929, -0.012456282778356313, -0.029638724426496968, 0.0018404017530290215, -0.012977361295225101, 0.0016461629106349195, 0.033699001956966915, 0.0011272693335169436, 0.005516863089275401, 0.028865001915323013, 0.014525246093047003, 0.007561590376703635, 0.024978236655935415, 0.0008529551533443763, -0.01608246421371678, 0.002038629943846055, 0.03527467608476895, -0.016765137471800157, -0.036938767319175246, 0.024695711413414218, 0.011179527569505025, -0.005563968206909044, -0.015545298839634432, -0.057053739193450095, -0.007941008375252068, 0.008043409729821557, -0.009915833517568872, -0.04882044757589597, 0.002528346387894146, 0.0010755856175645527, 0.0020616961026726803, -0.007555023065901881, 0.008248550506898357, 0.008652454961235963, -0.020456953626326643, 0.0022450933992773886, 0.008822783971988431, 0.008162709899278784, -0.014547599663000245, -0.04529668958414322, 0.005582898617633723, 0.08249109374956724, -0.029072777406680374, 0.018792374113108492, 0.02135519703288947, -0.022574010845580302, 0.004713943236337869, -0.01943098473370538, -0.03249945031504686, -0.03484258725004849, 0.010557886359839948, 0.008388987380005448, 0.0051085977273403055, 0.00460735279082378, -0.0014267707645808645, 0.0010177338157792279, -0.015420132812157851, 0.0028599343626052806, 0.007506768767308913, 0.010527813265253153, 0.0048790173088457236, 0.0010558867419439434, 0.005653569261950337, -0.016363668137968294, -0.05088317233866024, -0.021720542341288875, 0.049535371096975096, -0.0690634332954585, -0.01049274445578248, 0.006152894784894816, -0.04092966402783119, 0.0004711952814205323, 0.000785310189030477, 0.020280485147634357, 0.00514977511311711, 0.007973298149996455, 0.008529306553569227, -0.02195952932493507, 0.0027187411791220716, 0.00010979042143825474, 0.006097513414975648, 0.018838712966517197, 0.005227970106095427, 0.0025071106334688567, -0.022876297827647277, 0.004477405465320679, 0.0034826308639983572, 0.031840984752943655, -0.04452823325951887, 0.02665944500397518, 0.004287682977366984, 0.07745544890009826, 0.03750978054669896, -0.0671516447752848, -0.02561048186366214, -0.022461715650194215, 0.006333794320828886, 0.008225033046332717, -0.02272843900113553, -0.011394255568051225, 0.005562778650914105, 0.009049155977933593, -0.03623499840816979, 0.008155311248434615, -0.0087133674748758, 0.0058706883390352346, -0.01353708885760019, 0.007020678746241387, 0.008458072835050194, 0.03282903962784317, 0.018069247611613517, 0.001111742522524375, -0.04716385147372457, -0.033982704768650784, -0.046800087254701646, 0.012602726999323702, 0.06289446874033099, -0.05667562231457648, -0.044372047002347, 0.03228368043146808, 0.02232372564849241, -0.019486257792565184, -0.0025507631465274227, -0.0036255173781029387, 0.005193445515697162, 0.006414268575807841, -0.008024231183703106, -0.02247603820783753, 0.008609267894722196, 0.01262422166698401, 0.009094189078500797, 0.01819854260249366, 0.0020277147252802247, 0.00489718997452233, 0.04081277994760393, 0.00454069346995793, 0.008604988057665172, -0.015270496985617705, -0.00781703372019525, -0.08927878906045462, 0.007065686907342449, 0.03760308958042537, 0.00790247870891692, 0.00040808934784431183, -0.0284769899157221, -0.007982016692703063, -0.012123871297162577, -0.009027886603791556, 0.025051363073007295, -0.022952779802031455, 0.006450107575716969, -0.006812627366369525, 0.027988676849439596, 0.004358880219946023, -0.005337812361710935, 0.0009049538631887697, -0.03967116086572531, 0.0013873433668152241, 0.00600992285056115, 0.0024895221072433063, 0.007241400992745524, -0.015656111233443647, 0.04202960332675729, -0.004513488984708795, -0.05537902491008705, -0.012955692397902589, 0.059081211989747404, -0.027807616080806664, -0.043116881457019696, 0.0012913706743007854, 0.023069172916934885, 0.006844980813670618, -0.010130496997646288, -0.019693581769406707, -0.023687341128307116, 0.0030805461539598388, -0.004826783635988526, 0.012121624637024396, 0.008328231866902734, 0.00102995008409749, 0.0036308630843381678, 0.009937256327025985, 0.006896730483105014, 0.005815692564403466, 0.03585487110733113, 0.0018397397382249887, 0.00010159527638253819, -0.0457718731765718, 0.013877786473213324, 0.010329567937652816, 0.009246986084413336, 0.05809991753883436, -0.019791921924006237, -0.054830652647239075, 0.01741106992980483, -0.02605494781438957, 0.004011919459683469, -0.014593838126461759, -0.024861206868069283, -0.02097907342590879, 0.0014360814476233321, 0.007044825551442369, -0.02512585882847896, 0.0036491328824808556, -0.01056277042540393, 0.004555746128974184, 0.01215542422152811, 0.0012804962026252817, 0.004053644727954661, -0.00028399850687732683, 0.008546948398995169, -0.009768950522442699, 0.03920942097967246, -0.0012127890412985164, -0.02797647295176843, 0.001216056989821997, 0.046151130284722966, 0.007541343067620242, -0.057631109716235876, 0.0008229518702458486, -0.03650021916773325, 0.003977326161583843, -0.00688962366325788, -0.04766948734826691, -0.01755214058583592, 0.0028207107960693018, 0.008295907679200793, 0.004012364881936025, 0.00440427840199601, 0.005229148299513815, -0.00996189683407654, 0.008311318005212407, 0.006495452647517594, 0.0014664750204444986, 0.01566312040183511, 0.00369623482209372, 0.006384871578220827, 0.007555726856863044, -0.0024552967054681236, 0.03739860132867896, 0.019572689633495025, 0.05768542407129665, -0.050526568028297504, -0.020062004844779907, -0.05225190517737419, -0.04661852021758085, 0.0010739822633446501, 0.011148555288949395, -0.010388168981376665, 0.0030156262896170426, 0.007604863976344357, 0.009335223497895851, -0.049099325960857414, 0.009163156309697579, 0.004403795335564916, 0.005797042957798179, -0.0065249936432588375, 0.006354476908283528, 0.0020640659847839054, 0.04706555117530815, 0.002333025713882165, 0.0035230672788347864, 0.008547584161875553, -0.022686039558453077, -0.059345442022039084, 0.000287693823034747, 0.10162876408793367, -0.03485258059417659, -0.04232386309320502, -0.005394965074975737, 0.009608130168076164, 0.005263925029955876, -0.008353961684923182, -0.08162627790455822, -0.0029100192090772414, 0.007072052778038642, 0.005920953685577052, -0.003044932705737079, 0.005129022488613947, 0.0006396506070257497, 0.0011049944772303895, -0.01012549806837823, 0.006782116272268477, 0.0023720807600297266, 0.045074807282021206, 0.006894621422679007, 0.00211573430821068, -0.033966943029554636, -0.004566637545707238, -0.04513215479878626, 0.00784345813869127, 0.03341570972976235, -0.013643953458084744, -0.005517077306089177, 0.007039561850384672, -0.009211035789392903, 0.008302087318830982, 0.005358304333929995, -0.011044794042235921, -0.020561302029623627, 0.0035332912999859888, 0.0005901684513324686, -0.031480152412490754, 0.005150076234142045, -0.013818771931130581, 0.009093220317929739, 0.003194505503722679, 0.005270701238669412, 0.0012934929690491342, -0.02447851410799758, 0.0084459468798062, 0.006857454103803143, 0.019720901617139547, -0.002711549933073089, 0.008757781009641462, 0.002434107676706488, 0.041256366879356465, -0.015479944671573922, -0.023957670660777388, 0.003830224662893768, 0.0011844283398822133, 0.0001226859936691252, -0.0031498317678704145, -0.04264551937518476, -0.02345672805140261, 0.005106088566992288, -0.00846087351450779, -0.03194644055742128, 0.005108671316218021, 0.00868087826360877, 0.004062372091403729, 0.003312943070332856, 0.009316786752048192, 0.003869912005549014, -0.010682167617123406, 0.0028719165624514677, 0.0012631219455910823, 0.025592221251381345, -0.0012110110237233886, 0.03714989577157816, -0.01093029953046762, 0.027089981545075435, -0.058739557251155726, -0.06849129527672454, 0.054239511833157, 0.0295096244418894, 0.000384523634531999, -0.023291516576744085, -0.0392620804441953, -0.005792806140790377, 0.008544613857978238, -0.020751931432736893, 0.011455494727205652, 0.00038252936511065183, 0.0040337861507663605, 0.0014729835679929118, -0.02555685403603187, 0.004367588214558687, 0.001927895917888563, 0.023486529054146433, 0.0035238345540355162, 0.0010984329392490352, -0.027330924883983636, -0.014346011869789928, -0.03173764160200868, 0.009329689305050381, 0.007629786079867701, -0.021345344100355185, 0.025642088852896615, 0.016404328893094698, -0.023631387956119267, 0.006296806584335651, -0.0005431504495637817, -0.020454060154454716, -0.027422198270981944, 0.007546815477405104, -0.0021274503132544887, -0.0046309948951913935, 0.0054955626954391115, 0.005739074852493477, 0.008370593402193389, 0.0029614815704524238, 0.00733190772565254, 0.005046127417691202, 0.003245212190917431, 0.001085764556655229, 0.008907509190415367, 0.0026952556584976988, 0.0031444774907023135, 0.0005253319708706462, 0.0032563172149127715, 0.009095972623293853, 0.0061511389650561864, 0.0036585863955157574, 0.009175244671813963, 0.0015838381267641317, 0.0055345917965680235, 0.005583098215690309, 0.007385505125527753, 0.006208926036571041, 0.0049469228838081025, 0.0030497302985277525, 0.007262111023672585, 0.005865419464846607, 0.0039273453996800595, 0.00746519891852605, 0.009490076913144529, 0.009000623652409181, 0.004916745053607833, 0.4566024993479351, 0.053246004023654925, 0.00465334077642258, -0.0073187009162862535, -0.007701473121419587, -0.10527363005952985, 0.007010237953179582, -0.015071396548036737, -0.031502491138742525, -0.1001010701572813, -0.03249503600241569, -0.11703413087815723, -0.027794989719954474, 0.0060006055367395165, -0.04992219543356774, -0.04335839781528207, 0.0070256620105135495, 0.006498649834263949, -0.10889636241645939, 0.003696903565218103, 0.004094563258306988, 0.0002492494923817452, -0.030316092352786973, -0.02080078410814593, 0.0003239152662466139, 0.10072473315996879, 0.011388544407586652, 0.001157341974289201, 0.0544866599703265, -0.03402761773410919, -0.05259003574325135, 0.0054921325664527496, -0.023626735627758418, -0.042611723493225596, -0.06723430558898186, -0.07927095039105357, -0.029000861663352178, 0.0007540560303141562, -0.07093110641535053, -0.056476909447771624, -0.008517282890887937, 0.007342419159663255, 0.00337544018886902, 0.14374943132922333, 0.002855012838475685, 0.0025349594547222675, 0.0009597254875700256, -0.006836963255069675, 0.0052498020404597185, 0.006897053908677704, -0.011154984141563778, 0.007734209132579682, -0.03102890343585123, 0.09600949521710062, -0.04163284859385765, -0.07297316891985481, 0.0014846701421715486, 0.10040912521673558, 0.025951434162340404, -0.05192508597758097, 0.002549732318903642, 0.08684180422741469, -0.015654011494923126, -0.04795884896509023, -0.020314003906033665, -0.06563222979636744, 0.008518672583456708, 0.009338241286458727, -0.07395238509685656, 0.001633507799637087, -0.012965833865877933, 0.0036122887613349126, -0.031060650962343818, 0.007158421541039972, 0.0032232902642428327, 0.007062149349401706, 0.005570027377690005, 0.008168941757815441, -0.05899923320863864, -0.015711606649972846, -0.02547619712178875, 0.008957550670845431, 0.09678202322747799, -0.0033306343115721815, 0.09380301904375504, -0.05836882392627757, 0.025409866994203334, 0.0037204835200926206, -0.05610926373440067, -0.06575297266110772, -0.040787182371184484, 0.0060672446127631435, -0.011334456273784833, -0.026654964353854508, 0.0010073199916824083, 0.00021293874702928183, 0.00848367413917452, -0.036809343509431096, 0.008098495891487142, 0.007682418964079472, -0.030652363845260575, 0.008342234932664219, 0.002974525203799435, -0.0198155402678609, -0.008561626813338344, -0.023421597326700756, 0.0005981059418830549, 0.1768446385162376, -0.0031937201588950054, -0.12187522000465142, -0.040998943098346265, -0.0355335771156362, 0.004008373824398742, 0.006902308013697195, -0.0805660937144719, 0.0011133647477436304, 0.0072968398641831585, 0.0030061871191038305, 0.04135401696402132, 0.002140921128977023, -0.015429628669747765, 0.008272761288930971, -0.02311906164348244, 0.004399731232884937, 0.004591875860481155, 0.028412836901306828, 0.0017220616579932792, 0.009474905165669532, 0.0025723037525801165, -0.03284908878476657, -0.03256187785637105, 0.009158979817606907, 0.06395769581962953, -0.10569638632781385, -5.603817248478598e-05, -0.0503779995907515, -0.11652956786449707, 0.007598686608569732, -0.02556850018879856, -0.008860180660675081, -0.009554122174532385, 0.0009859670111536135, 0.005752307174673656, 0.048188791024801905, 0.005739247334265499, 0.0033896144357609447, 0.004235710698397911, 0.04638561829158593, 0.004605896071917246, 0.0015646193172591, 0.02544324387725063, 0.007617594285620378, 0.007100117811296733, -0.08465766104930242, 0.004867575124543716, -0.038816443083636805, 0.0231786853701218, 0.09584251874281746, -0.012277636017403422, -0.08084770157013692, 0.008743488317536748, -0.03594191808987957, 0.002289628525747144, 0.008383674299506231, 0.048276822920161326, -0.06589525874499327, 0.0031452964283045066, 0.006136767563320375, -0.065089332792059, 0.0022483755650466557, -0.007736574038468765, 0.004628147484903423, 0.0035394931754814704, 0.002283108828173486, 0.0006866128438788381, 0.0492629936875825, 0.004710036347932149, 0.008744764158487751, 0.024595767783895058, -0.06610696501626086, -0.08342499372940429, 0.02884927757347621, 0.11337480534272186, 0.005172356652205911, -0.04017957816851017, 0.00527657519951613, 0.03833875793220915, 0.002882034904623076, -0.023472262349053065, -0.014560194354120964, -0.051896011753170566, 0.002000594330630282, -0.008698349462594528, -0.08233230727894723, 0.008655656706434665, -0.01295014893504633, 0.0092220007443437, -0.06302575448739442, 0.001143779500113074, 0.0033129871793412596, -0.07403667496779173, 0.013159820460350196, 0.008121790470834615, 0.020535610411593307, -0.007603614448086542, -0.04568782377445624, 0.008438161201360544, 0.04072148637233196, -0.10752983959958186, 0.05987100652713523, -0.03748729228942117, 0.009553738639995065, 0.003288836897032946, -0.017355663397252807, -0.10292209056670364, 0.003323227212272867, 0.0002363808086550455, 0.004259455259681437, 0.08690811415053527, 0.0023881431233545, 0.0026091262716004216, 0.00160039108876895, -0.027656120164897054, 0.002217709277862439, 0.0015326884609727913, 0.05503953444629153, 0.003083896617827431, 0.007122382017417805, -0.021295768894487182, -0.009602554673108641, -0.1102486774846426, 0.007731103969379908, -0.06110928454897692, -0.01511845570709182, -0.08650329329325968, 0.08040702965706244, 0.06890908277481089, 0.00044625344055610464, 0.0033248552950839753, -0.041784008171061246, 0.005100259236948597, 0.0034445328633189503, -0.025055809559109344, -0.0480419744886279, 0.0019322001971144801, -0.02198292027792077, 0.003200342761013186, 0.05927962024250832, 0.00340729891562847, 0.0033444168130609474, 0.04708361333818185, 0.018763167065295072, 0.005832642303090032, 0.03723997812263544, 0.002474914668822248, -0.026245763951451243, 0.00032285448766550885, 0.06608932973842246, -0.031195866362084476, -0.06934810401563592, 0.03324281800035033, 0.0091487248102508, -0.007508052991661419, -0.018653312553991958, -0.09886692761974222, -0.009717467608727817, 0.008205707288386958, -0.016334799934338624, -0.08354551375730308, 0.004929764113571364, -0.0006704080717165366, 0.006297320065214576, -0.00936555927304056, 0.0007997464840850785, 0.0035885696090567107, -0.03150437948512622, 0.00523337949615242, 0.00196682248926065, 0.020912670262097463, -0.03347523341094644, -0.07994195719992925, 0.0007915726713093029, 0.13375090724176572, -0.04379374169604232, 0.03462483269622561, 0.041372431006646504, -0.04279500270810677, 0.004673587348668292, -0.03742658121958357, -0.060848451070226885, -0.05749460788651202, 0.01564202004183046, 0.008395640116016284, 0.004633663612442413, 0.00013928090792024366, 0.0035001268562661982, 0.006152866902160045, -0.03168657048244984, 0.002561759404334453, 0.003681035701423849, 0.011166005241685399, 0.0030162825676231988, 0.00451880909785224, 0.011805218975444566, -0.024894693367012007, -0.07514483315080504, -0.029922663290588153, 0.0819236750388367, -0.11669116396152764, -0.00990522269852405, 0.0018551644990308853, -0.06797865973027696, 0.0050426067060598415, 0.003625851578507324, 0.0423726637076524, 0.0038659464447128792, 0.008845571884099764, 0.008927048768744908, -0.029708000473979552, 0.00920061699118788, 0.0017763602625581302, 0.00486296939568101, 0.02245158267145504, 0.008341559623214517, 0.007024990347744421, -0.03445290234016459, 0.001651483010022732, 0.001285164327915571, 0.04800492042930828, -0.06613582523660474, 0.042539370891769894, 0.003931514083795008, 0.12735145459578698, 0.061563745753194295, -0.11462036199438394, -0.04724586531990104, -0.044144487866588374, 0.004355167080642641, 0.0070978645718658955, -0.04747123359119631, -0.012787888272142734, 0.002092097385706364, 0.0003764164080619688, -0.06499061556779882, 0.004871266082808506, -0.01422524266577116, 0.0033187104542367735, -0.02981805176395665, 0.0047215849984614715, 0.008914121784006116, 0.04432491515296609, 0.026699585864741117, 0.007962801008305759, -0.07556930730122544, -0.054876123947861934, -0.08212639602213906, 0.02171836515249848, 0.09900026811998587, -0.09382813757095614, -0.06789812903434309, 0.047313221140022656, 0.04812249873821031, -0.04237431355854016, -0.006182883111159131, -0.01914570310846348, 0.005687870636633601, 0.0016716012588233542, -0.016097010670380857, -0.045005174620435906, 0.002555961338162778, 0.015917329676795506, 0.006771637424912751, 0.029010813609291117, 0.006885584949969059, 0.002254440994039046, 0.07439755721502793, 0.005315144352777009, 0.0011227343847748203, -0.01754301493310946, -0.013667919733814371, -0.14653263703343328, 0.004734485355476142, 0.06000020467935924, 0.0032690504655008773, 0.0004376027330259108, -0.048711033003406665, -0.014202964209501984, -0.016753361489779742, -0.020247721566353852, 0.03619021454374945, -0.04629035825390592, 0.0014999734200593158, -0.0032071920309057617, 0.037184205413640044, 3.745185277714884e-05, -0.002598364732451069, 0.001239658179400685, -0.0655535264123652, 0.008586201167179987, 0.002848042197562575, 0.0037065440625012862, 0.0012981212990359073, -0.03128142127600075, 0.07090740086700043, -0.015798852104802724, -0.09799126148965416, -0.03381788431430248, 0.0969162228642226, -0.051158154275317204, -0.07006843757701292, -0.002873761768209159, 0.02962631986379202, 0.003550828668613683, -0.012843088418572828, -0.04070444495504934, -0.04111317060766782, 0.009006952009396612, -0.015667578600939227, 0.012956232874435767, 0.0009799574901127072, 0.005605394731575973, 0.005144313250290693, 0.017411233472305037, 0.008535323460029864, 0.00923965501458142, 0.05643262733371304, -0.002955415565171546, 0.0018911090042028126, -0.07796496910295664, 0.025100008027995988, 0.008047233334867277, 0.0015066825274828801, 0.09406700111468354, -0.03819954998467324, -0.09229824806837277, 0.030512834401406945, -0.04079663780975024, 0.0020790095509042894, -0.019617729811352857, -0.04700172940632331, -0.04691769881535768, 0.00810043201249234, 0.0009890774723152794, -0.03331468736122155, 0.007028083616859194, -0.017696324483701082, 0.006951419620109286, 0.021544936180017855, 0.004296671401457025, 0.0010537668182269626, 0.004653663866908181, 0.016838841366414906, -0.019946533245907724, 0.06092001928544185, -0.003994653046311593, -0.05095996853558478, 0.008808482383130343, 0.0749545215719489, 0.0028702661892157375, -0.09458755436366269, -0.0010391456139252095, -0.05502980129706806, 0.0014721055621595466, -0.01055895425404902, -0.07503790504378052, -0.025256897485528805, 0.0026364181638516226, 0.0006318284262767412, 0.007479463974675752, 0.003670712798570256, 0.012185528334723174, -0.016277843396074358, 0.006287723051649086, 0.0016363935739259726, 0.008550373863179679, 0.025696411581961624, 0.006478273225335822, 0.0008520851341313716, 0.01620017518710403, -0.006173877364194712, 0.05326462388537669, 0.01868481364816974, 0.08817133257512189, -0.07910817030326918, -0.030707888591410843, -0.09673730011957969, -0.08601346911472692, 0.00891835319068473, 0.009368095821010263, -0.019005538874629954, 0.0023124556163287603, 0.009066711812667428, 0.00045169995318463155, -0.07767351428622937, 0.008053621442788424, 0.001755797830574673, 0.006552833193252363, -0.021150844222461475, 0.0019129205643363993, 0.007218831995139975, 0.07853380126071156, 0.00511935341311266, 0.006874222059677536, 0.021535920344489427, -0.03450634246054632, -0.08970293832524104, 0.009179091060887054, 0.17016090216129945, -0.06907877292105624, -0.07597685420444063, -0.010871655533142966, 0.020715265130953422, 0.007018531649001452, -0.019838084744431016, -0.14063091552782733, -0.007523257886669168, 0.0020922858405547696, 0.007323300683567674, -0.015189906250171125, 8.091333053697834e-05, 0.00016595014463096922, 0.005144953628252993, -0.02411090372001204, 0.0035758930071346194, 0.0037793509438029597, 0.06914983863536457, 0.014760418207834984, 0.005603290967803553, -0.05622819670750979, -0.020935999820750964, -0.07987583142384086, 0.007208364269314296, 0.04731038161463636, -0.0215426257334029, -0.0023751162915978956, 0.005770035542642983, -0.012926667796695044, 0.0010492545414083993, 0.006393727496366446, -0.025058642719603858, -0.03268804938248455, 0.00034795147381946645, 0.004297791125078595, -0.048981292831882406, 0.007004801186897422, -0.023744187435223343, 0.0007511794624629601, -0.005778215779848675, 0.006642212680088516, 0.002607909213526505, -0.04854811993794846, 0.008532197581817362, 0.009428445281354622, 0.027839054719275846, -0.005813333030298754, 0.022999457700098865, 0.006304627691783094, 0.07493009102037779, -0.022170594217983983, -0.035046484506261834, -0.00331414788884645, -0.002243487815803459, 0.005218286458829591, -0.01489193613783535, -0.08312248028895579, -0.0339583392850476, 0.006970097196208637, -0.013930636171388457, -0.049863327565195875, 0.0016394052221495251, 0.009269924596153525, 0.005338391115451363, 0.0024998401185280152, 0.009258593495840446, 0.00744216796577336, -0.01362326111757982, 0.006819321767559446, -0.008825155689941968, 0.040800488939014556, -0.003128747452901194, 0.05059074920561386, -0.015870956440869825, 0.04162829409459433, -0.09438452483497062, -0.10820160944620448, 0.08480032731373376, 0.054339575630869934, -0.011062847876978657, -0.039183267902490035, -0.07537138124124465, -0.01255053254325755, 0.00322410627482279, -0.04244555803732524, 0.0194896502599453, 0.003347932004987912, -0.0015252444361113374, 0.0048937123403427416, -0.043339618775103374, 0.00894111763743545, 0.0005705435316163528, 0.047065033460175446, 0.010763836480155924, 0.007106239943687078, -0.05214056826250795, -0.031996188219643285, -0.05175610024159943, 0.00886713566384124, 0.014047850903348966, -0.038279220521190725, 0.04424624116488539, 0.023031508845803086, -0.03926299082772983, 0.008621005221723144, -0.006424865639542315, -0.02694333265464928, -0.05321568183638646, 0.0016900606710426552, -0.013914040579214734, 0.0005164823416152022, 0.0010095368893312494, 0.007250451492112329, 0.004947767794037358, -0.006568751310381286, 0.003373614984805849, 0.009072658647174412, 0.009464356939796529, 0.007948210146966301, 0.004895256384182648, 0.008430306105293042, 0.008110303883665251, 0.005111263368493838, 0.006293127153340367, 0.0019640875513377764, 0.002006310618348723, 0.009151580447754566, 0.007306523428649985, 0.004749910117673594, 0.004786041508887007, 0.006253817032612509, 0.0073474418649095135, 0.006451972434359054, 0.005142004809793094, 0.003686945139252446, 0.001117517359243797, 0.004328789275234335, 0.006836503602629248, 0.007692613680877609, 0.0004400637333609946, 0.006271877871225546, 0.0016588370282145908, 1.0566814649975917, 0.13483346971917504, 0.005881589072915124, -0.008164328083170696, -0.028958743714931134, -0.21646892011300523, 0.005205388198887391, -0.02949210140859413, -0.07468020811661788, -0.23159966319435796, -0.06721636153813018, -0.2811519515507016, -0.06902930531107272, 0.0053111470910272495, -0.13087570090519118, -0.09415961802490319, 0.0028603566757409936, 0.0018566283533906834, -0.219480887282153, 0.003648979894789152, 0.001091785654099692, 0.005331103204110276, -0.07179529935225563, -0.05865028299481051, 0.009396257903326266, 0.2854487827321226, 0.006402662138782288, 0.007361540323871648, 0.18413870455466777, -0.08193958410167944, -0.12022554953449402, 0.008296554444510764, -0.07090128334435845, -0.10786370815380508, -0.14978502661784843, -0.1635090279717474, -0.08305660949684988, 0.006919776094583869, -0.16936989567755487, -0.12431158089107598, -0.03126392866488282, 0.001040014372482634, 0.005746809545271588, 0.2741609819630906, 0.007268517919370236, 0.00558237403417336, 0.0017198397807319287, -0.02808646456516406, 0.0015559718457914323, 0.008672919661703913, -0.01799872768296352, 0.0070361895966097885, -0.0845880201633876, 0.18988802191946955, -0.10564818051809963, -0.14689303566634188, 0.006976354538685603, 0.251366642335308, 0.06365929089787252, -0.13468122931625134, 0.024502073216693242, 0.22116251766118988, -0.06225126727841815, -0.1153950857200027, -0.03470385813525017, -0.17177049317539217, 0.004994873090708716, 0.006642279944122914, -0.16970452746260295, 0.0033355481091814623, -0.02857296686684766, 0.004085330312746413, -0.07383817280113901, 0.004550889899470886, 0.007942244967800756, 0.03833303922906624, 0.0026701745156426904, 0.008072732549167143, -0.15570030413115984, -0.047790299262883605, -0.034113933992725026, 0.0033590132430522802, 0.23141708411837988, -0.011272124813611645, 0.27956926376700475, -0.1434416311368078, 0.045382440225324755, 0.006911210818064584, -0.15824475038544517, -0.1600302144948021, -0.0972138819981465, 0.008037901098521814, -0.025992994751684127, -0.04860193025821045, 0.0011043184614956125, 0.004602835904934368, 0.007364933950715729, -0.09699947480899955, 0.004584711178427864, 0.0019879610548458482, -0.07205034823413657, 0.006792773916002911, 0.004004571882195455, -0.05049168669212228, -0.003692761813879422, -0.02178906579716682, 0.0022350728513673415, 0.4569510799283588, 0.00034219747412461227, -0.3045942885425015, -0.13471972629892318, -0.08419474303623009, 0.0024868020669715106, 0.007765166591476866, -0.2027578487009084, 0.003331563303198536, 0.005961727132654724, 0.000683095342160957, 0.12098739540370076, 0.008795276356053178, -0.029469489078837095, 0.0045623409936678995, -0.07464501196384986, 0.007315009134296689, 0.004566009254035361, 0.08705949505149113, 0.008047362897574097, 0.009070328388808108, 0.04322332660057714, -0.08298391095674948, -0.08235911832154988, 0.007990913049624895, 0.16228092048427362, -0.24382400548868827, 0.013831802602251319, -0.11574877684001457, -0.2861033573656996, 0.004270493347803811, -0.06442902812091388, -0.02759201347731801, -0.02845627556435594, 0.0010013996270926491, 0.0009389701341480254, 0.13436520465921414, 0.003636936364873296, 0.007324407936622385, 0.0033990559251361216, 0.11383796212897733, 0.006716085956229183, 0.006791985076979454, 0.06419343226707495, 0.004030963995862297, 0.005436229679986876, -0.1838984513598237, 0.003891202408847413, -0.06903678159759752, 0.051677572368494226, 0.23544461286235005, -0.0233028831355319, -0.1766707638389071, 0.013944201548339233, -0.07065032900242524, 0.008989603995994739, 0.0027540905980433616, 0.12873363801345952, -0.15309329398656232, 0.002254785855351018, 0.007323600402885368, -0.1802750427978836, 0.005619245387742007, -0.02894326300255659, 0.003687535241000337, 0.010206844938894646, 0.003946406388856461, 0.003460313643221771, 0.08131163194573415, 0.0005763214785840352, 0.001680487496973662, 0.0731111871043016, -0.16845490383830503, -0.19518714352127028, 0.062418426104596136, 0.30759662127089704, 0.015717679928693887, -0.08009789703755159, 0.01933851331498189, 0.08415244200136839, 0.002870512346862897, -0.058278857936179686, -0.033004516309432165, -0.12278038536846012, 0.006362927396712601, -0.019157457192522938, -0.17214112341348295, 0.0006955814853018154, -0.029255333814081484, 0.008537052701939822, -0.14464950876064164, 0.00782541226300393, 0.002807441822709849, -0.1582229674250801, 0.024669734933904498, 0.00787463967252684, 0.049897881320821465, 0.004858852729151505, -0.09570306644918129, 0.007446688648316093, 0.13053549341845846, -0.25624802171087774, 0.18307544898350128, -0.08389671362700918, 0.010443629012124972, 0.0020365829539560434, -0.041632820401320846, -0.24844863380439988, 0.009084203650148054, 0.0020278023792749157, 0.001303038502649548, 0.1638970715760844, 0.00829790814057104, 0.002041043375288002, 0.0036084224708626505, -0.07064061841525894, 0.0010566998969283527, 0.005576650301677001, 0.161920668217759, 0.006748663929405039, 0.0020947092551382653, -0.050069229970581684, -0.021659786088701054, -0.2489049985341021, 0.0074591435471182445, -0.14958187999367872, -0.034298261452169465, -0.2080295529481593, 0.2065203453295542, 0.18329441017322592, 9.889951451686388e-05, 0.007366075069405159, -0.10543680687703758, 0.008742866644715413, 0.004084166214915572, -0.08547830542606341, -0.11243911176878213, 0.0020279447148156566, -0.07216968299755239, 0.0019492172750448233, 0.1417253854033711, 0.004180282567095269, 0.007033350118991346, 0.1353411469534846, 0.04766468935961581, 0.004772799729554975, 0.07878471022853015, -0.0011703122005287264, -0.05410434231395243, 0.005796111451079331, 0.16000060995627366, -0.07475196719043069, -0.1470118019543555, 0.07819903644115954, 0.011381786134040004, -0.028084789213353018, -0.060500667658286836, -0.24427681541873414, -0.027481736974091387, 0.006269970379996573, -0.03190007942851875, -0.18499987337095466, 0.004043173599958843, 0.002474949999741184, 0.008835944504410914, -0.028831085963401424, 0.0024860515812184405, 0.004234955658342916, -0.05975706135537143, 0.0033511889386947137, 0.0021387763815869532, 0.06953824801452042, -0.07905607234946865, -0.1973353165892973, 0.0022460720614350485, 0.32557439846790454, -0.08532924334594957, 0.0818164412652088, 0.08651712118895548, -0.1104980214533187, 0.007526197369914493, -0.08001337644331534, -0.13756934168321522, -0.1448865640114302, 0.04212634416062761, 0.0015705706826197711, 0.004047264793899547, 0.006983487651504328, 0.000910815304198945, 0.003522448068118448, -0.08964159658078524, 0.006602719978973222, 0.005049110941996554, 0.024634049561938116, 0.0076875259267763, 0.005153113160638235, 0.025268821814576656, -0.07202069796407788, -0.17346374828278194, -0.09495359665355002, 0.19924875451022586, -0.27817596203597433, -0.0347359150413772, 0.002696974834110173, -0.15918142164009766, 0.0012610729821578943, 0.006931325078852596, 0.11170255739103649, 0.003075529846489125, 0.007102757570774316, 0.013035738138236328, -0.023813105630717677, 0.004149987384222311, 0.00048806010142909376, 0.0009532724064891448, 0.07133661298541559, 0.0046791638110841175, 0.0014257190554066604, -0.08055443499060583, 0.00900939813274901, 0.007751777040875053, 0.1469247629108037, -0.1592495878448222, 0.13098807123094783, 0.005711910625833864, 0.3164707282649821, 0.17124696398378075, -0.25650761773448794, -0.1148253503796996, -0.09961962051851814, 0.00450972335046473, 0.002504632288872291, -0.10230067397856654, -0.04258360384187305, 0.0034504350150463153, 0.00799300711950223, -0.18521361957337487, 0.004446164630980483, -0.03049401829885517, 0.007972755569479217, -0.08415193275046791, 0.0031534968561996815, 0.0011851161525972165, 0.05699843131025225, 0.05871837726785838, 0.0005363413781810718, -0.1491802135228631, -0.13153809173981276, -0.16710384862306915, 0.05957210147125841, 0.27832132649452906, -0.22808796731630046, -0.18935167542395312, 0.13427096890911538, 0.13773262959676907, -0.10984526326358991, -0.01582764480984201, -0.04373000918437146, 0.003700106281340599, 0.005669520552211042, -0.04451233592597166, -0.1166880889842666, 0.004737886884477956, 0.023519864627710364, 0.0032207962752551942, 0.07986974106745427, 0.0001597610919058667, 0.005344847058042104, 0.19238252506462758, 0.00892807312365172, 0.007329258064504551, -0.055332971236433014, -0.033449457580125054, -0.30335519982799347, 0.0008622865399642928, 0.1721349079173914, 0.01311159945846041, 0.046854634615551304, -0.12046978998873158, -0.028797661256127892, -0.05098414823548253, -0.058926150330404756, 0.0827855794020849, -0.10775838525123722, 0.0020261919632298345, -0.024369888178031304, 0.06933804796606867, 0.005738146046965392, -0.018172682801770087, 0.008543919241554027, -0.16390989089018704, 0.00575405786704064, 0.0076670199473888, 0.06591799505590812, 0.001427173262187372, -0.09108183951033136, 0.15097733459228183, -0.04207939295163846, -0.19149960187429643, -0.09986021782884283, 0.23828546603235853, -0.12441551657441373, -0.1725381912404354, -0.002333935921704939, 0.0675423000450378, 0.00814393670108604, -0.04204028668329856, -0.10229846287495736, -0.09040244666376777, 0.005893405542289203, -0.04249952548452305, 0.045042746862130376, 0.006403367615190971, 0.0008879207971757015, 0.0038429529528450895, 0.04955321051592517, 0.007587627205172122, 0.0002323321273807295, 0.16858833022623504, -0.0199071676213503, 0.0029352954536195075, -0.18271564734760856, 0.05926794669865219, 0.0440127992241818, 0.009104035525937882, 0.26871024072792776, -0.10600276171461538, -0.23630461515500642, 0.06615602858472454, -0.11881870984649891, 0.006893095054018262, -0.0505020510378436, -0.10207922985727902, -0.10252673851028624, 0.004506002860563286, 0.0068705428188638356, -0.047491596762376846, 0.008553281414234486, -0.05002270607698281, 0.00464726145885993, 0.041842903792144316, 0.008379590364165778, 0.003294808359478414, 0.037525658375679526, 0.021620214416666336, -0.04813354522628164, 0.16454678016983693, -0.014724443299728846, -0.11511766534271839, 0.009272318834697214, 0.16414962013177525, 0.02866393832344706, -0.1795673791345448, -0.03479199492995517, -0.16216748799692615, 0.0031313924515523985, -0.020110229402523074, -0.1694717540045142, -0.07936535299586213, 0.006756121900664282, 0.003980315099160975, 0.05754529495610211, 0.006692973940909426, 0.021153687606896104, -0.053252804869813944, 0.010565865096859034, 0.007290047216779104, 0.007752001470636169, 0.04524998048291194, 0.007595847965153657, 0.001166536047443849, 0.07246758622890218, -0.018903748957928478, 0.1357141599162086, 0.05908215946827481, 0.24125456763045336, -0.17398007350228403, -0.0654400321925903, -0.23000038754180754, -0.1988370600064975, 0.00605426243644076, 0.007409768022092445, -0.03240761475065052, 0.008154461665123985, 0.008338791740726614, 0.00039998391440286633, -0.16767690846538066, 0.0001890294001529939, 0.004462730737730084, 0.004276000748421686, -0.06753937394682004, 0.0025138779465857493, 0.0017052907825164266, 0.17959242660960403, 0.014662587488716563, 0.003576130142937131, 0.0873657636986363, -0.09094636727132885, -0.15662036081439415, 0.007629342074385924, 0.4041426455229657, -0.17555664153713907, -0.17792855651692221, -0.016345255728976014, 0.0593365922026728, 0.00929154635289089, -0.06012105125816591, -0.3532959275135422, -0.031185373865904746, 0.004053548509936262, 0.004135607528079334, -0.017659958912740845, 0.007457730326986496, 0.004042331314324281, 0.007758921854437831, -0.0522801190666187, 0.005678310445858859, 0.007536591691335053, 0.16856664200521676, 0.022428298334585345, 0.003088107578054053, -0.08636683132508366, -0.03941359105022855, -0.15724028240096377, 0.002406419093603731, 0.10217931738358474, -0.052240166356250034, 0.022252895698173715, 0.009513709980749543, -0.02668371803025188, 0.0032586741821477292, 0.004444155485283948, -0.06715269885887011, -0.09438110648618303, 0.005081123759838054, 0.007615373583222543, -0.09911715431989969, 0.0048889481459068376, -0.07050219176019687, 0.00611250500247879, -0.014824487427662902, 0.006630530052816054, 0.0068620218396757155, -0.1242195332219649, 0.005263615067796836, 0.004535960883648734, 0.052867509354141806, -0.02591733632739858, 0.10921486910663976, 0.006715734749501666, 0.2080772585373963, -0.06404541871937114, -0.08407295458850374, 0.014962200452511742, -0.031188675775522888, 0.0020984274904578912, -0.03917981331565261, -0.1847076912819556, -0.09952383552873581, 0.00035860799396367557, -0.027879804176308018, -0.11814579372952921, 0.0007263059051110022, 0.006988204583872191, 0.019047117362786012, 0.018618072874898202, 0.002939634439891915, 0.006631645705228207, -0.006998009662968671, 0.0010119693260190693, -0.025616712496292045, 0.08786042541646007, -0.007226674728385679, 0.14845303261073586, -0.04271112613523484, 0.12360258390694494, -0.25343408060450234, -0.24371813248532928, 0.25319695932390196, 0.1238851090651406, -0.029999662632362617, -0.09859038056359293, -0.16357381314058533, -0.029677207000200243, 0.00461468313971003, -0.10398853451034949, 0.026274433832508583, 0.004994999622885896, -0.009879197597636872, 0.0006939376650335417, -0.1043901257995802, 0.0018395788437058722, 0.004326633039760176, 0.14147313228011574, 0.013141279343048195, 0.0008601944332020357, -0.137790516035917, -0.06779441836730166, -0.1177978834468782, 0.012016809264514048, 0.0200113315631177, -0.08113902904848254, 0.11322726429852704, 0.03742242442810907, -0.0831424015943402, 0.004335586625149969, -0.015500312193445111, -0.06458221972794571, -0.13213284563362004, 0.0020900485702026045, -0.03620203182596551, 0.029021423540565753, 0.0043268738786440795, 0.005656272090037173, 0.0031308834787281766, -0.01534979007111031, 0.0025316297014594054, 0.002067310445301625, 0.003369197595456669, 0.007123415280877047, 0.0026875283866124714, 0.008148396161507879, 0.0005604757338235678, 0.004023085592973609, 0.005142035097505358, 0.001896500763967898, 0.0013256754888706249, 0.009087526719585815, 0.009382397704174887, 0.008743678403638116, 0.00790435862641632, 0.0006598641538497606, 0.0010062539324647258, 0.008682318091496034, 0.0010494968261788454, 0.004671530538974251, 0.0069526317990123146, 0.00808327653112182, 0.0007665881854215432, 0.0044262756715367155, 0.000770822454632597, 0.0020422374608621893, 0.003072199950897236, 1.2026115769378, 0.16636421572857893, 0.007426513638872119, -0.012010648339624333, -0.03378441292161325, -0.23080166030391408, 0.005806737652200478, -0.034448842088573954, -0.09091183699289555, -0.2657990926201057, -0.08082826159784721, -0.32033569412222856, -0.07449975007618291, 0.006617241836238644, -0.15290168999714682, -0.11081547827527664, 0.004648470785497419, 0.0029181738283228452, -0.24353199726753277, 0.0025037315680930495, 0.004591514109718002, 0.00894075302888898, -0.07537587695066982, -0.06728062494301022, 0.008931940872881369, 0.33754465546496243, 0.009847143416000804, 0.008127954920634122, 0.21506611459102395, -0.09248724422961689, -0.13258274006770718, 0.0003505181012742108, -0.0813277486072393, -0.12105444216529894, -0.16655267760350326, -0.1804518507566115, -0.09552342051232839, 0.004660729484609729, -0.198065981089538, -0.1462179687985847, -0.039015788392593835, 0.006445595490986966, 0.0019622038787972924, 0.2971275891244748, 0.004356533429041346, 0.0017134977403038142, 0.0033525112835797537, -0.03613732740607338, 0.008824120699804266, 0.005103993176728458, -0.005210256441500651, 0.0015818354743716379, -0.101654473890991, 0.21328056230439216, -0.11763814794142224, -0.16704633572934832, 0.003485257563261463, 0.2888701926052245, 0.0780561895022857, -0.15348747284452532, 0.036310673768567385, 0.2595856870972084, -0.0725554511587389, -0.13213337650352694, -0.042844483896484924, -0.19476222136625204, 0.0035115536848796254, 0.004574756675283933, -0.19011176443896777, 0.0030322142561275502, -0.03543341864191729, 0.006393671922130329, -0.08168061713669587, 0.003368322709305897, 0.009369665393466951, 0.04968703525223375, 0.0065373752763898795, 0.0009210086133966761, -0.1834794200154568, -0.0510219160897561, -0.031999086203566986, 0.003171942655651862, 0.26755567390684276, -0.009302570540270925, 0.33414032574491864, -0.16524218766920412, 0.04254412479965045, 0.0030645259087208458, -0.18183047934274935, -0.18452943699977115, -0.1159754338267283, 0.009403588905944955, -0.027764824170734764, -0.048157963312037644, 0.008355947168422865, 0.005725384343346034, 0.00826052794762073, -0.103829696042165, 0.001222697875325562, 0.003242525607132072, -0.08062463262372939, 0.0017566659770210462, 0.005533408085990124, -0.05130224214588648, 0.0007623540373497387, -0.020678922183593285, 0.007138636107767057, 0.5267562315789135, -0.0009587316690214767, -0.34920496050820654, -0.16696104888585747, -0.09081547598065894, 0.005276520794997317, 0.002693622919071845, -0.22555286161270266, 0.0047294937550282955, 0.006090833414214612, 0.002480728907327873, 0.13808153779698568, 0.009343905269762484, -0.03590482409820465, 0.0016649707926653483, -0.08755877656453379, 0.003635526713089376, 0.0014691673207541363, 0.10200721294613065, 0.006339767246217899, 0.005373250709099531, 0.05549629309216618, -0.10066886203975464, -0.10268267953818513, 0.004647097455115004, 0.191619994579117, -0.28075294403855733, 0.016768035583701678, -0.1375741297537361, -0.33366463923823486, 0.0034256102252090835, -0.07563355033693431, -0.030912467346237482, -0.03963021738350332, 0.007344451424236072, 0.0011554015264476146, 0.1567615769577891, 0.0009277114284597578, 0.0045951282976072275, 0.00314957864892143, 0.13411337403385024, 0.0070791980390940154, 0.006260631368021714, 0.07785241605763948, 0.0069034844346392305, 0.0031503348376295858, -0.2144072505605893, 0.0044302521949550824, -0.0767377924095009, 0.06973575477713695, 0.2742298988792024, -0.03630050674383514, -0.20520200726850607, 0.012173393283604917, -0.08139400728488484, 0.006002692144353386, 0.003972723286098334, 0.14933519543621834, -0.17293086869177346, 0.0038875156571413897, 0.00492494499599833, -0.21353603548223396, 0.0026612936279920615, -0.0307570526868695, 0.0038004110196806864, 0.009724106084808413, 0.0071047194342798705, 0.004079489135819659, 0.09137556486393443, 0.008475431267025784, 0.0022670941593197764, 0.08894775152516401, -0.19736908918501847, -0.21899210538924402, 0.069288290160206, 0.36047958355932486, 0.013187063541218368, -0.08853348898389747, 0.016889661426957962, 0.08892771167601111, 0.009054366716855616, -0.0685698513402354, -0.043564848829999496, -0.13984342166041966, 0.007257425185828077, -0.012979910355324913, -0.19771439521423786, 0.0034458712819565563, -0.030493511932203794, 0.0064630142397727255, -0.15633900421950092, 0.0007691545020034714, 0.0073805283374019665, -0.17444572746295678, 0.0324083964522712, 0.004092481956016165, 0.05372297383916786, 0.0012294405212353123, -0.10616123464027745, 0.004771715151909789, 0.1506392009734305, -0.2988324871609063, 0.21727306207119587, -0.10060358855252219, 0.009765601412239129, 0.00587976795522588, -0.04503307998350351, -0.2864021616040645, 0.0014339491844236117, 0.0008644004936967074, 0.0034236995809362523, 0.17796269207332632, 0.005362687205818759, 0.004990820777577496, 7.334995280176158e-06, -0.08470636508860017, 0.008392425043136292, 0.006987302480767167, 0.18512945431782735, 0.0024624773387812732, 0.005222711960060573, -0.057809715750603584, -0.018600842825665587, -0.28339922885131325, 0.007386885245639899, -0.17541860658098574, -0.03269692751055874, -0.23094573424310674, 0.23260743976833348, 0.21016433438402568, 0.0076662882702549714, 0.003210293553217458, -0.11866281739927502, 0.004701906601723083, 0.005872489206131882, -0.10724303505430335, -0.1272171033190661, 0.004631940991166201, -0.08731484890554901, 0.0037109043535470177, 0.16726512636827487, 0.0034423834842055713, 0.0032327065886828465, 0.16371913637585045, 0.05565892813124032, 0.0017158511112759993, 0.08786052467465416, -0.00011493287998650824, -0.06256166067513576, 0.006447667806686151, 0.17833355040120638, -0.0869817582916743, -0.16259572927406357, 0.08660898273588194, 0.013817391317187308, -0.029435066272220742, -0.07729086679555079, -0.2804776720586041, -0.031183687503686865, 0.004421115185646052, -0.04358176821756525, -0.21389413688913392, 0.00023429868891084845, 0.005946328680830291, 0.0033408087429891657, -0.02796459288649692, 0.0061944008287579035, 0.0049293912943519985, -0.0625257952341695, 0.0005669140904186358, 0.005977786385533135, 0.08290294836587465, -0.09191294938923596, -0.22258129760185225, 0.0023065371348349357, 0.3709419648801471, -0.0909788148697086, 0.10232498771203644, 0.10031863327410147, -0.1311352225138941, 0.0077703886779064224, -0.09540741808696804, -0.14494617902239876, -0.17350702435152704, 0.04603872194394725, 0.008656198652600708, -0.0038431699990266015, 0.001165844756760991, -0.0027663113470840486, 0.0016157237809226394, -0.10321518517304784, 0.006902358878521644, 0.008671225011597488, 0.02829358721562637, 0.0003072054688414312, 0.0032384144596443805, 0.021859350524680427, -0.08636829137840797, -0.194232516317967, -0.11767073159922392, 0.22712680589095086, -0.3124786264442762, -0.03891573303854808, 0.003573027926909005, -0.18304134629787408, 0.005891693403446803, 0.008389848411774203, 0.13338070327274065, 0.0056375114983480724, 0.0061278476787501755, 0.020129659533503225, -0.02037052335610775, 0.008714034762680713, 0.003874189562946587, 0.005643431203054182, 0.0790680039309605, 0.004982780823757167, 0.008569504808359026, -0.09493956020096851, 0.008403669207273654, 0.0024169016084825963, 0.17305681462926642, -0.1750133971066444, 0.15866910873093074, 0.005040473884325409, 0.361937342401101, 0.19866842433976628, -0.28628318791471247, -0.1406443482366676, -0.11817843462402139, 0.0067413171109173, 0.0027901101399191593, -0.10997152877782725, -0.05689425702058282, 0.003340190163811196, 0.003904122091153023, -0.21702918158822196, 0.0036460441397959576, -0.03048631482177647, 0.009497387360262814, -0.09257216693097017, 0.007609531878108669, 0.008358238304919632, 0.05301282193832574, 0.07510306490436248, 0.0010793002408381726, -0.16547123228866842, -0.14825186364124224, -0.1944717298798415, 0.06512302413421357, 0.31969310064534906, -0.2583416403189974, -0.22360246057740718, 0.16095457037565036, 0.16916359209570367, -0.12031117793506237, -0.020900549233361192, -0.04681006643708359, 0.006747480932979275, 0.007670852604076495, -0.046213231339365696, -0.1357328365371679, 0.0008074019304314696, 0.022470518640598257, 0.007829783412000883, 0.09395569316964242, 0.0036974118481550603, 0.0016371135891568478, 0.22672744480550075, 0.012098775108859582, 0.0007459825941303251, -0.06133429232863644, -0.04239234958611617, -0.344239261766414, 0.000562079523744209, 0.20724456064083316, 0.018933286211917415, 0.06272344902119732, -0.13953969667401703, -0.03342218339626352, -0.06190090600549766, -0.0702620421170705, 0.099524528383021, -0.12856407681558257, 0.008987888853751742, -0.024973681562344332, 0.07978910286695817, 0.001131704803700576, -0.022478348153097124, 0.0016970756118125587, -0.1850503308068991, 0.00868279864733639, 0.0006637872408056786, 0.08119854203229057, 0.0064118115446664264, -0.10728754896638583, 0.1731000775945098, -0.04055734944638459, -0.2122410864616339, -0.11980358268589564, 0.27413053078222155, -0.14893597140302173, -0.20428746898559147, -0.006915368645800196, 0.07523775959023946, 0.0017436470742798462, -0.04715531856176748, -0.11821972379952111, -0.10342961652697813, 0.00023963400591173154, -0.04891458391507589, 0.05226135058167986, 0.0009489526152672618, 0.0017855712591239889, 8.752072991686082e-05, 0.05526635034158325, 0.008697218545494174, 0.006206368335318129, 0.19058812703727687, -0.017877146311143285, 0.009313784026957692, -0.21199344492887562, 0.06501692430480124, 0.05227374553638169, 0.0034248924574270066, 0.3142495146664458, -0.12261554207123262, -0.27494761706707094, 0.07775137411785771, -0.13976792819778427, 0.004132050438841142, -0.06037254653196121, -0.10633931152641396, -0.12087768504726087, 0.0033593672637565867, 0.006581867165689956, -0.04417467301737627, 0.006681997606077404, -0.057977177319579735, 0.00404527699708486, 0.041844424112177925, 0.007350579993049099, 0.00023900341290837524, 0.04503607815594415, 0.02418130191774167, -0.04741240924090342, 0.18927658239271447, -0.022187625670751616, -0.1315542977308267, 0.007728694463905064, 0.17995395487677093, 0.03389938455753298, -0.19809167242013487, -0.05009979495555806, -0.19379475971040083, 0.004348775114698433, -0.024485441780283012, -0.18132326344948238, -0.09089336012213348, 0.004703333791219936, 0.008201158069294865, 0.07540844355972906, 0.005836749208450935, 0.02863085261169837, -0.06631868376302959, 0.016585150362231443, 0.004838611627518344, 0.006081409807127266, 0.05164819365022941, 0.007554705618295997, 0.004604254422589275, 0.087737294211007, -0.013510966240646084, 0.15726651492755203, 0.06733517123791384, 0.2810339419060978, -0.19364106667607273, -0.0709348418492201, -0.2697958375265532, -0.2288688109385188, 0.008980118260047944, 0.011546348174951607, -0.033042739072683965, 0.0059190324928364724, 0.003901137670235274, 0.002289246727446525, -0.1970349925546722, 0.007898556106543672, 0.0007277526472153566, 0.0081116584252538, -0.07888989853732799, 0.002441512183325313, 0.00020138961114035076, 0.20726955069747321, 0.009251335345994849, 0.003937461496205454, 0.10563243870971235, -0.10916295581944532, -0.16677669150570107, 0.001669047822482062, 0.45679177499611034, -0.20554402122478152, -0.20334469114253065, -0.01386509553515649, 0.06386448383967455, 0.009213764173763836, -0.07419677902804797, -0.4035425294597917, -0.03335075468110933, 0.007699901590072066, 0.004964572963179286, -0.013175050169362108, 0.006699277644812167, 0.005710891675272575, 0.00019286532219183942, -0.05667845757165983, 0.005921685024847083, 0.006260997044348223, 0.19021237201563698, 0.025725740781519856, 0.0035319471568685456, -0.09466187733019311, -0.05018077271450254, -0.17223065834353044, 0.0016067598136162281, 0.1145979656135584, -0.06030717610425489, 0.027377706008058954, 0.010422183760081513, -0.026643328627735035, 0.00214397098187003, 0.006167873487543619, -0.07211379658645742, -0.10235344142477505, 0.005904106420698674, 0.00769119991864493, -0.1100948167030809, 0.009130967754601793, -0.08966910984071881, 0.0002995742345520111, -0.01352743417870199, 0.002471662396902375, 0.008543723288657337, -0.13851779772422532, 0.0027244958545150637, 0.0010015438358121178, 0.05464299478537504, -0.029524371885796413, 0.1305050104168557, 0.004901412597574377, 0.2402242583262392, -0.07967801768545729, -0.09600624984414334, 0.0261981816230211, -0.03975722001288099, 0.000858685990957771, -0.04530286635291531, -0.2110686161508399, -0.10815878342542937, 0.002968783445525356, -0.03360147906555985, -0.13457761300206683, 0.005079132771669355, 0.007787909253552636, 0.013534231294587643, 0.02572147692435366, 0.0015910501248864455, 0.001850885740840963, -0.012277992247852094, 0.005466507702149162, -0.024555322553002034, 0.10302834599953187, -0.01371805582222515, 0.17002316078112745, -0.04230637173668649, 0.1443062212881547, -0.29431028205555854, -0.2791191169762821, 0.29069178483745145, 0.14469028255598126, -0.02796821026550463, -0.11341981999246813, -0.18346432152194492, -0.03442144132209958, 0.009454869689658944, -0.1238074729144392, 0.013949622927257257, 0.008470314419764176, -0.01600842694639445, 0.005256931269979225, -0.11944005318353418, 0.00569562693882566, 0.001212465386548951, 0.15953413152221582, 0.017268148742327825, 0.008778899973540134, -0.15536718363784216, -0.0776994863859286, -0.13043306718878242, 0.00713835780776151, 0.020632852249220367, -0.09553274913224638, 0.13167901484939934, 0.034449812401134476, -0.08971070810343154, 0.008916272959782005, -0.014339438458202642, -0.07545946773017909, -0.14620820254924527, 0.003644223549688499, -0.044429267498721024, 0.027449858308477668, 0.00865347343408838, 0.004436311468333548, 0.0069198910277705646, -0.013647113896132414, 0.00013567920209837323, 0.003952700526333582, 0.005466065271025604, 0.009102706081661102, 0.00671059079516522, 0.007372701231806872, 0.006814510737520567, 0.009452533759026428, 0.005642136000145328, 0.005505312608709059, 0.0030104084447080946, 0.00793859663699197, 0.00787583868284836, 0.00485100388573871, 0.008041928965983351, 0.008977699496894516, 0.00922377168442941, 0.001961169973862772, 0.0037016661139647254, 0.0028200773743016837, 0.004621273651810703, 0.004280902778342618, 0.0065816015129856, 0.004780863591429755, 0.0013422425750148617, 0.008694389885984703, 0.007789482446615379, -1.4446088174947271, -0.19441903827319346, 0.00019094048090127712, 0.016225308502051575, 0.05574429817080883, 0.2653670032036943, 0.004538100464841756, 0.04715800481996013, 0.1180380844285885, 0.32218184712042797, 0.09132860841977224, 0.38566532811868515, 0.10269198878762029, 0.0005672917197118979, 0.1811218999703189, 0.13296180509637376, 0.002854548447292758, 0.007008023539145771, 0.2869646896694967, 0.0036350826361621663, 0.002765583974502379, 0.004482185090148048, 0.09704421443982789, 0.08467013328809554, 0.003674197747616284, -0.42024236502190215, 0.005481031452261835, 0.00832847885714361, -0.2716547437160491, 0.10595587370053494, 0.15858499023101305, 0.005361742135212675, 0.09715829659266846, 0.15341246610163797, 0.20402620545192138, 0.2116577331144388, 0.1252686224863077, 0.001891238984461188, 0.2443657804641035, 0.16951532094352495, 0.05404151233692534, 0.003993220789354803, 0.0024658865779318222, -0.3366162979591741, 0.0007944060434012797, 0.0031134789509242593, 0.008710043426518682, 0.053954734725302815, 0.005278348851470674, 0.005517368647668613, 0.0037188434452482106, 0.007669218948861558, 0.1336062513080404, -0.24274155588975768, 0.15255435950961943, 0.19290681129119264, 0.005477092124880753, -0.35080730659135173, -0.09604780575495193, 0.18797442290300703, -0.046507056535210665, -0.30741377432590844, 0.09146583900123538, 0.1601745900780365, 0.059521801572029354, 0.24044028715049273, 0.005203922703449872, 0.007856928506525336, 0.23404105163896957, 0.0050783850383863205, 0.048987884736866966, 0.00785913246217058, 0.10125352194403683, 0.007264736049704396, 0.004520323117277235, -0.06357724389459207, 0.004549793448452201, 0.003253605483676892, 0.22994801892696118, 0.07213276319850954, 0.03098326305780108, 0.006475182327207081, -0.32345362958132706, 0.023247758168719226, -0.4146184104153638, 0.20312896538108755, -0.03390605586664682, 0.0024702455637172194, 0.23704369973181147, 0.2310432615541708, 0.13527258875392598, 0.0046390839248249905, 0.041684636705731484, 0.057234464178274456, 0.007800108945372236, 0.007578130465582328, 0.007431199423025049, 0.12334775205753719, 0.003787290251163154, 0.004095786484522086, 0.09992229799608439, 0.007584814032037969, 0.007544305480467227, 0.06746541389400205, 0.004439721846607012, 0.006670220077971532, 0.00357854930358196, -0.6442508460456824, -0.006411273527556411, 0.4233020644927331, 0.21104244019522955, 0.10210840987343556, 0.002611672342846294, 0.004760440720305269, 0.2779123882928356, 0.005105314814071288, 0.0001615512326313043, 0.0036556271325487487, -0.1666717461649122, 0.005224900581097314, 0.049183652265397663, 0.004984329990528246, 0.11475836548434357, 0.0010689751345315769, 0.003612124376025198, -0.12841008917845995, 0.005251392252080654, 0.00043911471482384047, -0.07345116607804496, 0.11937982967142048, 0.12076256550160368, 0.005049715291903151, -0.23668255622665954, 0.336549818870448, -0.030495936248267463, 0.16546488266785817, 0.4092955437577611, 0.002286473043177787, 0.09620111292887785, 0.044412289281043495, 0.05185800987529228, 0.0023579458437029263, 0.00758297237420736, -0.1899500030248219, 0.0017997717052178857, 0.004643262000014329, 0.0079228862395682, -0.15695829920022034, 0.000985654217979135, 0.001422621906714556, -0.09511030053649307, 0.004162688769358028, 0.0007497938081544517, 0.26317117468893103, 0.002242085840955324, 0.08661294458127522, -0.07265233948163395, -0.3438151886161636, 0.04156654931194441, 0.24807267062748395, -0.008660399038446474, 0.09122261574245673, 0.005616534919473392, 0.006131111202125381, -0.1841962597238341, 0.21535395842810104, 0.0026169328619463058, 0.0003556970303341849, 0.27181273879784046, 0.003052995900082713, 0.04022115702620922, 0.006493717009255679, -0.016771082910047964, 0.004570653724093047, 0.00044584728929607936, -0.10280590568442809, 0.005887349784951867, 0.007049185273830827, -0.10310252535144339, 0.24559936146317013, 0.26511232582475724, -0.08413682261158018, -0.4426125422892495, -0.013688362024516725, 0.0953967323492358, -0.0255663969264156, -0.09406295086404029, 0.0033168874217785675, 0.09208270498442206, 0.05619757609353874, 0.1693572361818157, 4.582397660317054e-05, 0.030528624543662466, 0.23790683880139013, 0.0051429628879000105, 0.04534709602017319, 0.003325192565589578, 0.19407258341496622, 0.0034210440035060286, 0.00788503896263496, 0.196933132272632, -0.03137546754319974, 0.0068148449309239495, -0.05828308227350253, -0.015112397052748961, 0.12593152752256906, 0.004078146021104844, -0.19756075478640595, 0.36276921762481557, -0.2763029010471876, 0.1303524471419758, -0.01031940355647457, 0.004420335108121461, 0.06245618372313313, 0.3416335355418948, 0.008766443347111028, 0.008527448741658412, 0.0043300003461643555, -0.2096065515631061, 0.0014726318093179944, 0.0016961264942857422, 0.0069221907331750735, 0.10742180386559616, 0.006722670060946093, 0.0006861925043552542, -0.22654937558377497, 0.0025385592880414554, 0.007871600962199922, 0.07180062531159734, 0.02117034638234649, 0.3266435190891621, 0.0009793693526779293, 0.21440796267988635, 0.037787842645922276, 0.27809087726141063, -0.2838946467546212, -0.25927599888917485, 0.008977467284763103, 0.002360296844146134, 0.14160357368719542, 0.005046725089824791, 0.004792062065732184, 0.13805274277736876, 0.15387595587485198, 0.008323431472593918, 0.11973791364576648, 0.008133098636454656, -0.1945692239569437, 0.006754242928657745, 0.0004599985486199119, -0.20672801517970282, -0.055533541788101735, 0.004840674155262779, -0.10668463539325931, 0.0037022321845271277, 0.07334871332907629, 0.004213075657706042, -0.21383919138863933, 0.10934808800706643, 0.1903227455547891, -0.09598992573032654, -0.0034812718704171435, 0.0501050226941732, 0.10080409522586699, 0.33577275234164505, 0.033309582445363216, 0.005884196017228578, 0.05628180054189754, 0.24838412809434546, 0.0010575710031607917, 0.0007959476472087655, 0.0010297829106446122, 0.04751161582642012, 0.00038013438284395084, 0.0053144755346342405, 0.07799066851218024, 0.003502272074688681, 0.004866214484391041, -0.09955016737329432, 0.1051062282578584, 0.25733443847096876, 0.005713769839004527, -0.44482876305930796, 0.10655933283087177, -0.1229831473154821, -0.11482239205310375, 0.172881962815701, 0.0007659067791708416, 0.11738750027328017, 0.1755706094985965, 0.2162489844957772, -0.04803872332529474, 0.0026043078781504978, 0.010500076360608832, 0.001885030359220467, 0.007746938993572887, 0.004317841836744012, 0.13052082505296345, 0.00921109503601235, 0.004748251010506588, -0.033331661413042245, 0.002186384646293001, 0.0024836814714268808, -0.02107775052061792, 0.11355531335487934, 0.21858965236854433, 0.15644067884190604, -0.2843510778966408, 0.37586194681552854, 0.0380624261848618, -0.0008799029689265653, 0.21752305655986712, 0.0034255125328999905, 0.0057836579740885635, -0.1638555666806794, -0.003411946956065804, 0.0051272682214820115, -0.014875892370564648, 0.01964705163424692, 0.005678780274225731, 0.005950293936227561, 0.005140622675151462, -0.09153013610008984, 0.008252728708138014, 0.006747037232514949, 0.10981285656504158, 0.00605154093896551, 0.0057478202972193445, -0.21479918430014508, 0.20653668758557708, -0.19752136409205562, 0.008707369539693805, -0.4361721310089741, -0.24161899309838727, 0.3489677341330987, 0.18205227089545895, 0.1480488514062895, 0.008723993643425557, 0.0021051108696525252, 0.13657645987638506, 0.06894133758433134, 0.007283654367081379, 0.005051358153102632, 0.2731342607425924, 0.009396017060284822, 0.048402581801131335, 0.0009101548674196144, 0.12253271299561426, 0.0014181478593358922, 0.007203302364463678, -0.05375892557899142, -0.08557140106263765, 0.002486039300738912, 0.18652059484535974, 0.18357150994038227, 0.23810387949697517, -0.07095763668896321, -0.388233121086556, 0.29719491123377717, 0.2926075329736459, -0.1830879644801405, -0.20971843432170406, 0.15469363395930705, 0.03364017412658945, 0.05126440671022232, 0.0081192763813554, 0.007939403122793044, 0.0695154698626542, 0.17312382672896084, 0.009467093922890139, -0.010126332846179024, 0.0057622203645169255, -0.11211687565119315, 0.00699774916167988, 0.001121950396730465, -0.2774252132363617, -0.008534498481503871, 0.0054158823389652945, 0.0791735066518156, 0.06010228985721918, 0.4034548761225428, 0.0011138834846480445, -0.259892258444176, -0.013996825157522834, -0.08239334202728653, 0.17064137595897585, 0.04453967791927316, 0.09031983426307184, 0.0956664423313787, -0.11623295139394012, 0.1603005502429926, 0.003933405053339089, 0.03594998772821351, -0.08153966274208636, 0.0053052089658865475, 0.03146437145194572, 0.00031252134826976325, 0.2330776383345012, 0.0035562965303649035, 0.0018830706518827931, -0.11677230006025556, 0.004140340470368947, 0.13692084278617883, -0.2140818291292722, 0.06919710126266312, 0.2487425689538864, 0.1575773472150832, -0.330401189869107, 0.17564303749833138, 0.24615460972891828, 0.00981850430084602, -0.08405805064097113, 0.003635811336577181, 0.06493420395374185, 0.1473325746169877, 0.12373181733754232, 0.0014891435282186661, 0.06563513487913743, -0.06523332284286654, 0.009066261594534731, 0.0052044585899071235, 0.006595022830893815, -0.06939494981195397, 0.003220401756246795, 0.0053855507986355425, -0.23703430195369765, 0.034507532121103766, 0.009099661777681454, 0.2571487547067198, -0.07491705394000016, -0.07352798551270465, 0.006941109137757309, -0.3855238124186255, 0.15350324945325386, 0.3416038626432209, -0.08723826542815843, 0.1726683811311427, 0.0016745582520819803, 0.08452752921780991, 0.12828925029191315, 0.1481572865430375, 0.0031597201226632914, 0.004557418236233858, 0.04994244492554285, 2.9308663627322875e-05, 0.0843020140498249, 0.004896092158708625, -0.04064452629307852, 0.006606268886912054, 0.004388265498094715, -0.06103246980600426, -0.024343725171117783, 0.07111121084020024, -0.2249985207886644, 0.03217000769280783, 0.15496658496451832, 0.005508069930912452, -0.2160002553756709, -0.04476401996378026, 0.22798272928526786, 0.07675258229232791, 0.24054335936619448, 0.008413252565371409, 0.031381562722136803, 0.2151677217930802, 0.11613948693516023, 0.0027859599956730654, 0.0035075493482606963, -0.09623358026907751, 0.006077317613086522, -0.020671167615514404, 0.0903161115602644, -0.0101669375901695, 0.0018816107304366328, 0.006534796192933465, -0.05293002954382648, 0.008584214200823103, 0.004721340817203488, -0.10971786576007721, 0.0221386614950238, -0.19493438684457426, -0.07694499801582882, -0.3519601944529338, 0.22161149169029257, 0.08563427007249405, 0.33584281544989747, 0.27900390510880857, 0.008493549567424645, -0.001622024605477984, 0.046376535018973916, 0.005527202332616473, 0.00038400103935337226, 0.009195691870027611, 0.23345080871380566, 0.0072942335172701475, 0.0037157898245123895, 0.0021460653771727518, 0.10915162314390099, 0.0006541358901796856, 0.0016054143802240624, -0.24436320248568913, -0.005257915932997094, 0.0015752658099278335, -0.13192707500872847, 0.13414320049306183, 0.18519569141570544, 0.00011301847939146205, -0.5520398302950612, 0.2518166087955171, 0.2488481522611418, 0.015361368990607102, -0.08234707628818629, 0.008712249026321254, 0.1008516625045999, 0.5016910869280139, 0.05373439904105011, 0.0029829973937530864, 0.0017422086002449005, 0.0135807146049422, 0.008574120633149709, 0.006081204672224211, 0.0015341309473609263, 0.06988124922445542, 0.007845111467537264, 0.007047330100393639, -0.23446222950406376, -0.019442260092282913, 4.1022877674171406e-05, 0.10243588273033087, 0.05840025545784717, 0.19812435811906515, 0.000903568680569976, -0.13619659613555093, 0.07170840016911471, -0.03297275876909311, -0.003616370242113573, 0.03426979547199611, 0.001994297242610223, 0.0067439469824708935, 0.0929112572978311, 0.1353113654865719, 0.008343347386692375, 0.0014614533671184584, 0.12560355623766356, 0.008198077774834627, 0.11525827222530367, 0.008056300797934537, 0.029205894811892764, 0.0060512457928752475, 0.006972231645961235, 0.15549307164976156, 0.007480602799746709, 0.0010918931742926168, -0.05197735391919795, 0.03335903756228219, -0.16510557610119633, 0.00856915118447099, -0.2921864572232534, 0.09687298072610333, 0.11556392650800101, -0.03328067465130509, 0.06348299828325593, 0.0019831868337644174, 0.0669618903831269, 0.2528509872830958, 0.1380450023132205, 0.006603413906525226, 0.04458437000427074, 0.15459197091388166, 0.0027275701569407134, 0.0053130253647498925, -0.013637206695152823, -0.02519588115036907, 0.002509041062565359, 0.00012642114013516577, 0.014026650050711856, 0.003960924724743718, 0.031499528942175684, -0.12791567066278586, 0.017136828018943857, -0.20962437154769828, 0.0662224710187094, -0.17534639778763172, 0.3690257036545831, 0.3351879381165149, -0.3531741264123143, -0.17670604191407827, 0.04565194568224138, 0.14310626519212477, 0.21797022422522508, 0.04216210171439509, 0.00111651048206242, 0.1594147386601177, -0.005004238273977566, 0.002931917299693241, 0.02253028078912242, 0.005007208467284405, 0.14484115565439343, 0.005898755118452226, 0.006931266223832023, -0.20141590094357895, -0.010445414957809481, 0.0023031415977264455, 0.19028611327562686, 0.09492382727034154, 0.15550331954466012, 0.0022591366915856175, -0.022273124412315593, 0.09997202679277928, -0.16469530833134682, -0.03374654808279489, 0.10947395770588404, 0.009511834924011022, 0.02205886480054152, 0.08561879970979454, 0.1808250203415342, 0.007947456596053363, 0.052593614497049496, -0.039569350682533366, 0.0023588671780070234, 0.006173577617910244, 0.008529475284645283, 0.021636536455701596, 0.005591949978785481, 