{"isize": 650, "layers": [10, 2], "weights": [[0.21422193884102708, 0.008676174486273329, 0.024267487511588984, 0.017364487294108766, -0.04327277148892812, -0.014197875557573184, 0.0003870558778524664, -0.041851788605176125, -0.008635826485507946, -0.006893701487621177, 0.0549683606015473, -0.017767253852161356, 0.0011072192986305114, 0.0036584726634797337, -0.04873824378589667, -0.011960694416830757, 0.00960541600615394, 0.00867523305808287, -0.09773895294118173, 0.0172412238720421, 8.680992689013798e-05, 0.0015563200952983655, -0.03701841440467291, 0.019223015764943372, 0.010188901317717316, 0.007893964546790037, 0.006714618633727671, 0.005410139240845773, -0.06980470067135565, -0.027268639504480285, 0.009898824126577005, 0.017957005966138494, -0.0011225024148459942, -0.0248712265296967, 0.07935496620324085, -0.005190013226800563, 0.04177516770529217, 0.016293398416971475, 0.0575214103607023, -0.024147662019990718, -0.021632071102364175, 0.013825310881205281, 0.012294387248480044, 0.02590765039346385, 0.0008955598783660637, -3.981673126565553e-05, 0.008123553421947899, -0.024516671784835162, 0.0033609772315155457, 0.01680951973055209, -0.02688873487701409, 0.010098054730032856, 0.007381731857422527, 0.010485399282533503, -0.02203982561855645, 0.0007524534133853324, 0.013904173840949297, 0.037075545158862286, 0.017825647371215794, -0.03401619550632342, -0.002795245270646912, 0.08188823753689582, 0.003984623294973124, 0.02094633613847888, -0.05293509422135312, -0.02103568320424307, 0.009597259978194243, 0.012426982832768801, 0.0022683564503579146, 0.007595234900344032, 0.004764878966744784, 0.011327521147642626, -0.017644375073404557, 0.0035034012478464952, 0.01313552127785319, 0.04696632479495094, 0.006774435231362959, 0.0052749603014858445, -0.10148964165440028, -0.017168140950746525, -0.016647234681605432, 0.016490632858019372, 0.028380475417224053, -0.026837449280007565, 0.037258551747281536, 0.038787379046292265, 0.07646898972209323, 0.01200493756038401, 0.021730359368534083, -0.009400900454126906, -0.03547197487110864, 0.0011089372565522768, 0.007119595324221523, -0.020916869833128293, 0.009636088590754616, 0.008731926055074694, 0.006982194699689257, -0.03220142659336534, 0.0011135374045669953, 0.00758860859640876, 0.03079294830615222, 0.0013686171889390826, 0.033767395414140304, 0.0030218409003541515, -0.020951405748363825, -0.01324387148806387, 0.007195639079995812, 0.050104932094142365, -0.021252091272612707, -0.01867100129241137, 0.015420255816556845, 0.022725213347081163, 0.02112398947460271, 0.009972507475864326, -0.05948169104411689, -0.008325911395411827, 0.013112215534232946, 0.00607761753634112, 0.03725978861032208, 0.0016690857036241965, 0.0036974993656597476, 0.008352105094430892, -0.03803695194950153, 0.016869641258776144, 0.014314075647028883, 0.12744930973287794, 0.015188137344827848, 0.016642152363120707, -0.016953895120254144, -0.03284895518014316, 0.005401803007809953, 0.009629835117377371, -0.021978105613279158, -0.1018246144073687, 0.04620211609711354, 0.050246004991829206, -0.06458875510034667, 0.012488997732395445, 0.010192101281179568, -0.025364473391004495, -0.01933438153191959, 0.0052222312544336355, 0.005707877862750305, 0.04138044518468139, 0.0025532231877531306, 0.0010007696118764019, 0.001081580862210398, 0.02994083952244262, 0.017047788902926263, 0.018161174123900028, 0.09257521858715503, 0.011908621839018847, 0.0019972352202213962, 0.031240577067890466, -0.03162686722595023, -0.010902896487252034, 0.012090070365362748, 0.009384827583502934, -0.04918515081812106, 0.01866755283987421, 0.009819269414329996, 0.04218305649400497, 0.013875345546517573, 0.032963791394562736, -0.04134311614571245, -0.04052659466010564, 0.003253177623366513, 0.013374708407495633, 0.0465932464889064, 0.014325691881266747, -0.02379987882103046, 0.005136066228349228, -0.024654960906063998, 0.005611689782655446, 0.016173008347529615, 0.09831203353702356, 0.016492340786053966, 0.008100880752632511, 0.01741738491036409, -0.0059951990302771156, -0.0459078986434323, 0.028118974990443104, -0.009267562606376577, -0.04760180207523606, -0.01732982700092609, 0.025125007211886444, 0.06384634328491937, 0.016342130825129697, 0.017485362795913145, -0.027651836081799067, -0.02515417292661926, 0.00516373249362841, 0.006465473231997566, -0.002867428887591458, 0.004145334343742334, -0.007804050920794988, 0.017947892484211005, -0.024346621504395503, 0.018203627642109067, 0.00787594326272903, 0.07295575105537007, 0.013351434446101668, 0.007500067793972407, -0.002677582293340713, 0.0026612755598605007, -0.04296013581345594, 0.0005688101361241497, -0.07093318406102264, -0.07231044795037529, 0.06404199055457793, 0.04619593416607249, 0.06527208726318183, 0.002314036775272525, -0.006105435227576664, -0.04085243279113219, 0.0050199442056798015, 0.0006828176755700227, -0.0034237623700617927, 0.05300932092679133, 0.007606011713910778, -0.005614383276355551, 0.01274313318860119, -0.013486785314015641, 0.01822750212366416, 0.0010878190532072314, 0.013274556849460394, 0.010533662382136431, 0.0009445867556227154, -0.012330603415386733, -0.03169637961244177, 0.030743190766715375, 0.009721794488806874, -0.04287701544338298, -0.007442481615813153, 0.023443591259413255, 0.027071287521004246, 0.06689194122049251, 0.005446122509499157, 0.005394245753032475, -0.04681592590603313, -0.0002179235743203046, 0.003012052145832677, 0.022447708705025188, -0.04042810251962538, 0.00970804248854113, 0.013695438770843128, 0.009918913018138286, 0.010501065725262838, 0.010390053113108614, 0.007026910844658147, 0.10739081812688751, 0.01327459602117314, 0.008266199662937884, -0.017895525038453645, -0.025081526187779625, 0.013929014609745525, 0.014940645003072347, 0.01695355460727855, -0.05344954906462263, 0.03963085483754966, 0.0200471015805859, -0.01773344885264639, 0.018652713725664325, 0.028866946539718052, -0.040033320670132225, -0.01905781746674943, 0.0019131058623528404, 0.02484753029118602, -0.03682038745737367, 0.007699057352533362, 0.018499749647509087, 0.012997488523505202, 0.008857062284873034, 0.013355340056248258, 0.014400238610454306, 0.04134561026586821, 0.011058557380553814, 0.01603370815135456, -0.005204882779946803, -0.021071935713218155, 0.01798462467798984, 0.010507849345028415, 0.05991032786638365, -0.03812408750856627, 0.014730601561314362, 0.020946394931651735, 0.017048234041373844, 0.006225080091997489, 0.010483623906955342, -0.07472257553668034, -0.06392606134585284, 0.012781317420399993, 0.020573444778163058, 0.04913017833122795, 0.010547911593362023, 0.0018012700467256327, 0.013185827432781667, -0.027412674888760927, 0.01196250734617489, 0.010659746468158971, 0.0890771126321021, 0.0025316442300680315, 0.004328258248467092, -0.029188130146878842, -0.02779332992358122, 0.02555491482659696, 0.005550373649244825, -0.03377466902956194, -0.0879102885947563, -0.006994448276499376, -0.03527559824382087, 0.0567793154754893, 0.007598583944974054, 0.033156203863786135, -0.02375110737501203, 0.006473203873969839, 0.009287988647718784, 0.04181146464446653, 0.045536291056916395, 0.013465411984866595, -0.0010311518705946353, 0.0076315665385581705, 0.006439107252253045, 0.010481216708572667, 0.0039151976949270955, 0.09668498313606842, 0.006848816293184869, 0.003518969944270774, 0.021481803332856046, -0.01509940193777024, 0.01142189405800863, 0.009767743711700066, 0.007094369619689981, -0.0358948047862446, -0.02267475182745804, 0.0036124635147128346, 0.00529160810250535, 0.014948949024719821, 0.014282675940220963, -0.07073262229868187, -0.0034543693118777403, 0.0054913426208242294, 0.03899875260666639, -0.02201401439667443, 0.010607717826479008, -0.009838817015886616, 0.007291565189065676, 0.01697485043468455, 0.009454586006995941, 0.002402707661727121, 0.08396331677099506, 0.03169188756640817, 0.01162417260542399, -0.0669608494813525, 0.008372207458750466, -0.002573183023557296, 0.01338646421623589, -0.011417400230279288, -0.07509164987004541, 0.03664124364199816, 0.007443125093992306, 0.05414588481602327, 0.0073495707889954884, 0.01796052703576481, -0.03845527489001217, -0.023310480214269933, 0.01802096359205267, 0.009252568457845566, -0.00044723942475068676, 0.013129767032367247, 0.03475597442603681, 0.00323652874289014, -0.015135814681322768, 0.01524333383163827, 0.009797764062415133, 0.08389827873749386, 0.006846750305353301, 0.007426286462585783, -0.052014431913995664, -0.015832374582681174, -0.03268970787078778, 0.01647463557126642, -0.018703477510865485, -0.05497511801900752, 0.02187153930028606, 0.018686656591026817, 0.026305090367876174, 0.023019213919774222, 0.021773939662095322, -0.005495823584536089, -0.03673326991648088, 0.010266843850385586, 0.013142762867494101, 0.07237861890198845, 0.006171737603251364, 0.003027137485594399, 0.011041943469206913, -0.028679700022898783, 0.00950802540634494, 0.010536018248257143, 0.048257206648367926, 0.014718177872041733, 0.024631519057445258, -0.023641385931056372, -0.05076695803457539, -0.031255533272367804, 0.007352809070225594, 0.004022614833762302, -0.031876602923827754, -0.0010234805758725565, 0.05465950575490837, 0.016101511871371255, 0.009734493027409627, 0.027361441725267097, -0.04345908303408562, -0.017392427447980915, 0.011158421908804539, 0.01517247352051418, 0.012577849650690002, 0.009576229482404216, 0.005174565438537049, 0.004561839293891861, 0.02912069906228004, 0.005349891129528226, 0.005338013600471523, 0.0914799410286648, 0.0026218470268382257, 0.001438702426684715, -0.0361556662999249, 0.01839601270391333, 0.004943604079463769, 1.603311817253817e-05, 0.01037283286785525, -0.015111063147994491, -0.04259376512155513, 0.025514091865524422, 0.056392886435128846, 0.013303465807884218, 0.02212003475549188, -0.048739577234273815, -0.034613461256274895, 0.006043120452660694, 0.011202031268993443, 0.03537018454119724, 0.002021002432183249, -0.010112218955433289, 0.007429874423141427, -0.015174993517198485, 0.016265155312775215, 0.00823557625169002, 0.03326358804187179, 0.012464413665838742, 0.02339861261545919, 0.06773433281940384, 0.008252024509753498, 0.017845235899366107, 0.0035279115867289596, -0.01980353016528424, -0.029660813300737915, -0.015390035825183848, 0.014913965487400947, -0.019224302050842655, 0.016476914563968485, 0.003463404187772192, -0.054623188756534234, -0.02003959999027425, 0.006513302610437646, 0.00881866263430548, 0.0006384765687351847, 0.003091834564535053, 0.00819345743263337, 0.01104932313992469, 0.01432219136795758, 0.00858956991304138, 0.008263778404615263, 0.06686848339959192, 0.014272054133425202, 0.006115496148073252, 0.036314751616427894, -0.025145060920496353, 0.04775799995575935, 0.018101941483152882, 0.0003422664639836761, -0.07586545527675212, -0.037309815581283226, 0.0007195828682729652, 0.052632727458201425, 0.016343421437247995, 0.005654411618997167, -0.011239713759820571, -0.027671903424365818, 0.006967236350541118, 0.017150755833306063, 0.03106834230548882, 0.010882469192054699, 0.013968577889251706, 0.012271196630300433, -0.021826216203479226, 0.005750000926635124, 0.004741537139685102, 0.09984395187966029, 0.014530451602608544, 0.0010556208670381784, -0.02800058602099843, -0.048749581375862334, -0.03907042906584646, 0.0026063224588202625, 0.024476377367035305, -0.04747860572318543, -0.016318598167026542, 0.016799260708986047, 0.06678760899109197, 0.002190292580788265, 0.027874093295470186, -0.07469268333446778, -0.005461212813296318, 0.008449957361706043, 0.008189821509358125, 0.07397245341991371, 0.016652993620657888, -0.027330549139634654, 0.005603610722111056, 0.005387841085805688, 0.008625008957937856, 0.009665683766814974, 0.05855218361824669, 0.0015882211950988764, 0.012603189798824828, -0.02069184063558817, -0.014706132572194342, -0.01618754303592761, 0.007221598796471803, 0.017277558305199923, -0.03641794645388035, 0.015710478396487516, 0.03873803240893626, 0.03716307373134077, 0.01749276886822511, 0.003921126344781894, -0.006923847031398838, -0.04087584438496653, 0.009507111426498623, 0.008685517028227039, -0.014458631245003281, 0.017213244105134196, 0.012832236753042802, 0.009495731045846244, -0.02738292737216736, 0.0049628830813572625, 0.014839659837204117, -0.009267903518406359, 0.0026340710351930533, 0.011834195379369845, -0.029099493494704812, 0.0038934830290731173, 0.05482710298717101, 0.01945599521453752, -0.011928568076925234, -0.05776797237548104, 0.0527156537081711, -0.011469122418048663, 0.0476917518326572, 0.0008610649855473336, 0.022934597016570978, -0.06931915246372689, -0.001330115557533636, 0.016181186318171045, 0.01584565802336603, 0.010263885817983348, 0.011717738244216066, 0.003808634860629164, 0.014903931754277759, 0.015533519424540248, 0.011247493328398068, 0.01026579585194978, 0.09332847092513576, 0.007707953804753686, 0.012311621918536594, 0.03732365548487734, 0.009084791480964327, -0.00496399948055391, 0.02555075184355483, -0.023056393311907057, -0.04971107374361449, -0.002008212088787054, -0.01408724336440117, -0.004506406180151139, 0.005297826535939315, 0.025609102501920337, -0.05329303144117642, -0.013677985570437364, 0.0045841022648236114, 0.028745919353533378, -0.018850344195911254, 0.011639277048841034, -0.0028967259220103354, 0.012256591768089449, 0.010929666227344991, 0.006867358066774603, 0.009585355471391221, 0.10481577958425964, 0.009401595904101494, 0.009429764224066148, -0.07343723074925855, -0.024062302690913077, 0.010530828261694745, 0.0099176933088061, -0.021022253009959246, -0.031242381848017423, 0.05200164930425074, -0.029436153922074156, 0.08117914759977159, 0.014978729886477863, -0.008503854457838012, -0.06579395466519489, -0.025829323203727637, 0.012667473747964038, 0.015622176400083444, -0.008578953732205274, 0.01671353909011707, 0.004563296106958201, 0.0025114346091468136, 0.016317866080167928, 0.010689882310150268, 0.01735005942855405, 0.004419545511776099, 0.00820212260702014, 0.01088809840041697, 0.01631011141925718, 0.012753546417927397, 0.008388107952368414, 0.0008258639432199217, 0.0028946796762599645, 0.006104644031560468, 0.004171041916370393, 0.0034420929880849167, 0.014873407026849066, 0.006690730687240862, 0.013224486125845711, 0.0049854790866227456, 0.002404314723991453, 0.007214220401025155, 0.008886109944680358, 0.015498330913331469, 0.002616334513543725, 0.01662167398558896, 0.014081000282807708, 0.0075390782760756305, 0.0075319718359164655, 0.015014364248759272, -1.2258238328175157, -0.02324628664198215, -0.15804656177876159, -0.09218916417389683, 0.1857903739195011, 0.20716593242065812, 0.014027509800137027, 0.29918366083857606, 0.0857112263252654, 0.06340626632465188, -0.3458426936358732, 0.20694104975042588, 0.006512593247752022, 0.01627691861613336, 0.21923155284809986, 0.06527544187472521, 0.005428994401531409, 0.013381855143885292, 0.551211079122694, 0.015236319014002976, 0.007575135204903391, 0.017743647686141138, 0.19359586938658546, -0.03744688913084749, 0.005461016288988641, -0.01849287089158485, 0.007361692098403525, 0.0028498215992803573, 0.5374157397059194, 0.09461128721042007, -0.1497611659192866, 0.0002181654724299581, -0.0009110770122319619, 0.2080493815813033, -0.47723226356169574, 0.07678756604584917, -0.22727855905038558, 0.016116086910931225, -0.31446554021280193, 0.11935519949732243, 0.11361558874784874, 0.009449639441392606, 0.011549479247428223, 0.08328708807196386, 0.012752126668180725, 0.014942850124560644, 0.012422111644712325, 0.12628837920311925, 0.014545348577586947, 0.015320919119505942, 0.1577417351197603, 0.013191341246258372, 0.011402843095030693, 0.08186929838382355, 0.12657178810779707, -0.03682303386253197, 0.0099738295247915, -0.22395382049083276, -0.1096774405141868, 0.18321715950906037, 0.044121327051717486, -0.48351111744138897, -0.008397811624670539, -0.09251778010549887, 0.27814322507680134, 0.12800360193130003, 0.004336332749366101, 0.01160494501643831, -0.00215096609900929, 0.017208702360646165, 0.030745772154897807, 0.004549215327528553, 0.09727895466424964, 0.017556393658815683, 0.01729681035838707, -0.24603337148590104, 0.018188012582279263, 0.008834116201384528, 0.618084846522821, 0.14436839657013034, 0.10597898204944899, 0.005987683381194105, -0.1536000360633686, 0.20166643042290575, -0.20347398920438364, -0.18916347483332485, -0.4521493545600587, 0.011286277901172159, -0.023381846852200877, -0.024509859909840708, 0.11526999562409769, 0.01696341330043797, -0.00534655668519688, 0.14145615339377485, 0.003979877441187843, 0.017803666890567914, 0.00736476941470705, 0.18967788525657003, 0.015639591609384145, 0.002954578964493358, -0.23021432829105556, 0.018139520772492094, -0.15819032947456416, 0.022332996677835566, 0.03770302911401416, 0.09552331597672696, 0.003122665203784344, -0.30391413917255056, 0.0565836686274167, 0.2147634151484907, 0.03272654975239966, -0.05189991480126936, -0.0674324421940272, 0.01251984079755221, 0.3385853707018367, 0.16002029566748144, 0.012147398449362502, 0.007897147913692126, -0.29244423136335085, 0.0035783212898357294, 0.05876708591522265, 0.017915318171501875, 0.2586107252603048, 0.015546722200792642, 0.011129672547886176, -0.6689625796713499, 0.004374291205493895, 0.011984192058628454, 0.24180712460988912, 0.10684459584627529, -0.04807011582194783, 0.014067789844480927, 0.19869758721045888, 0.5315132030761943, -0.21436729717184458, -0.3345085447062009, 0.43782852176233056, 0.008414059557947065, -0.024757641163761043, 0.1618559818833709, 0.22294384739682171, 0.009809938091656133, 0.011464423283617157, -0.24775179525178984, 0.015909066058237872, 0.01286626580549343, 0.013021322340674072, -0.15390026711572644, 0.009120590656989655, 0.004263655999962118, -0.5013258592654135, 0.009917595127417949, 0.008847513638686145, -0.10759145030628345, 0.2054395117650013, 0.07201660429474357, -0.0476286040201317, -0.05401064098296516, 0.2872437972809225, -0.1111925271849148, 0.015137884880648428, -0.25922513258288504, 0.015632669186234176, -0.11181683918817817, 0.3325730635466912, 0.3249173271094134, 0.059281931095290584, 0.017193260894692124, -0.2234139141486136, 0.006176979997076902, 0.15891632237435122, 3.763438648804811e-05, 0.15111349775143937, 0.004608410526239357, 0.01771163057836079, -0.5085366301891365, 0.00452259874295649, 0.00652275405667063, -0.11775516106273404, 0.04683676916488793, 0.1299085378894182, -0.09522160276542188, 0.007868169524423091, 0.3145337332155221, 0.17901571145035217, -0.0013855065698385423, -0.33865460639412476, 0.017069343081986196, -0.014950493149306916, 0.09204251459467949, 0.20130103434134297, 0.007587704022248746, 0.017014853456343227, 0.10397397420801724, 0.007484840073857516, 0.053255062061403395, 0.000224498882400987, 0.1653274612097903, 0.00169048243848026, 0.00548140318378774, -0.4185327249792945, 0.015127618734548357, 0.014478410555936936, 0.01751349536779344, -0.13042590102797735, 0.27436124857433275, 0.016036629987269926, 0.4342761534719889, 0.46659829171265116, -0.3687897388071037, -0.19376437367804247, -0.33822437650415854, 0.006490113646428047, 0.10031438384972331, 0.26257212380828837, 0.06394048582420916, 0.006394203501433807, 0.08676461517547315, -0.12491736755803337, 0.004328164475749669, 0.04736264186300514, 0.0003182345150265882, 0.008621150299272313, 0.0023263711019921277, 0.011563209140656812, -0.05166758466349104, 0.00016647677458880484, 0.01598551875622221, 0.2058226651305426, 0.13356573569111474, -0.18481665813101492, 0.05282656345634004, 0.25240908167810433, 0.029961911966363525, -0.20964385108793113, -0.06619119191824734, -0.4073595556702067, 0.012664592564748063, 0.010715556314213606, 0.330917555920132, 0.019952934607665517, 0.009784134948368755, -0.05832341716913754, 0.22393643740544475, 0.016469680446880797, 0.016834774777637868, 0.006341676161538696, -0.10276094916763738, 0.010738578450401198, 0.014762861911044898, -0.6699810826240254, 0.014179950299150625, 0.006823350873702418, 0.24182776845403273, 0.12294580352655919, -0.14033653917549863, 0.01344432365453481, -0.032342008113398185, 0.373857302505777, -0.2093591829394324, -0.05789471916364851, 0.188491731694306, -0.007490891736483882, -0.12424665783830122, 0.2988273826072213, 0.06871215657041653, 0.017005584306094525, -0.08253028411610057, 0.31609779713831376, 0.0017420412561689352, -0.08707315631513973, 0.01419120267852222, -0.010217209072532485, 0.008779310216441816, 0.002452406518117905, -0.17025969808991692, 0.0012580086240260382, 0.0003247709121678883, 0.09565418879571151, 0.13061861027356775, -0.08476433162186703, 0.002765039948470655, -0.42682158735196674, 0.17654336589475098, 0.014461518232875292, 0.0668024101541208, -0.08422234871846211, 0.015003052211422091, -0.051161871074570445, 0.33363064851066965, 0.4255028871006338, -0.049167882161288895, -0.05457712720652658, -0.24434155201706578, 0.013626073689697548, -0.05216517338852776, 0.00020377037562947323, 0.18300635401419624, 0.0005538182316188961, 0.007820459256218526, -0.46018184218330405, 0.014956087911558369, 0.016937102579299593, 0.26371289303456036, 0.2078531466216128, -0.27588624769590836, 0.000975455707925705, 0.26724295714498814, 0.49617198967710546, 0.11025437130017357, 0.27865679822245587, -0.22257266893273037, 0.015787148727378394, -0.24329590825774636, 0.14308073153632914, 0.03185185969407094, 0.015117752437798395, -0.28652742377999485, -0.20413158443026191, 0.00022489868029938902, 0.012008448538226753, 0.014662281427374177, 0.07857477343729909, 0.003240096532763994, 0.002578988556101983, -0.5900384944185447, 0.014748766472257062, 0.01278008949011564, -0.048719494779004925, 0.02083210415650534, -0.09051709119580374, 0.017296283705405126, -0.004214609206574115, 0.24275789514163898, 0.2016201492569012, 0.042159103048225406, -0.035997838321518934, 0.004949948481353573, 0.017366000641952983, 0.40314722473564013, 0.03554898993367885, 0.0007561698509527546, -0.2169551226074661, 0.2312995609968001, 0.013477080175785099, 0.05480682187092426, 0.008511256237246908, -0.05545133411310334, 0.002056853852449788, 0.015895628725114616, -0.4512552489791378, -0.11059573865276463, 0.004583028283589183, 0.3925225837632589, -0.12112611599434324, -0.06589976670947849, -0.027835512373513168, 0.05607574921427754, 0.4513225140599691, -0.17755172241439868, 0.06754164788395937, -0.18633866542526917, 0.0037570866582284845, -0.0019335380152139354, 0.29132342161355634, 0.2619448060549629, 0.009614983589070127, -0.03285397525958387, -0.07520214777747436, 0.007200412231695574, -0.1543409482122009, 0.009669459750125998, 0.12043480000958272, 0.010664533072090332, 0.0021332163494209265, -0.4939757034307624, -0.0049978419062222095, 0.01462155782162358, 0.36450731575314504, 0.08003620331732057, 0.10496764100310457, 0.015301418097649858, 0.0906481665574373, 0.43224177339190445, -0.15586726897471614, -0.1063065904919408, -0.12799584730688524, -0.024597076513210657, -0.14101471211745095, 0.09966275159621793, 0.233170250412489, 0.009500037273763532, 0.012204821356292344, -0.33851854291859057, 0.0073593138791441205, 0.05445543493427625, 0.0120331343988957, 0.15372307395760978, 0.0023029359085771726, 0.0048023030597929015, -0.25111181257412657, 0.010313805801416052, -0.04686644347566097, 0.2944643687174851, 0.25621592578493924, 0.08007147394212603, 0.010518970694459541, 0.021152711222748182, 0.2003044009783531, 0.06996881599968563, -0.30602679109395703, -0.10219775894566233, -0.01418893656146258, -0.09169508976986053, 0.18005047161038457, 0.06269816500098518, 0.013960728807318077, -0.022084291493014746, -0.04098963805994153, 0.013833264977436265, 0.06657676299315714, 0.01651707334226692, -0.15885932969821406, 0.006402721540637769, 0.0037008641262661485, -0.5067675949594543, 0.04699971613078217, 0.011563313643193707, 0.2859486045406971, -0.10890489319365669, 0.02643838475950717, 0.009882451518886644, -0.0007498491001030614, 0.03409165071802202, 0.40681730415576545, -0.13435346327986872, -0.2972924112213853, 0.0026996109307549283, -0.0484120403695538, 0.29003079984626773, 0.13210544371072677, 0.014137639159900947, 0.004659671256245313, -0.10678460276492364, 0.004848735913878351, 0.05087778591047805, 0.013213165531173632, 0.0962388298978468, 0.009371795515587639, 0.014713249275026478, -0.13839564133272145, 0.011656299105487154, -0.0807137400278927, -0.3446306051807895, -0.01948651554605609, -0.1102279311454684, 0.05073375263561611, 0.10228287892187574, 0.08747322747221972, 0.053887994850166265, 0.07318360842751662, 0.17567488486854627, -0.10266338292948095, 0.10981499371476355, 0.19897325469691346, 0.10696664575079479, 0.015564249529159146, 0.003498908658498454, 0.05504242026545581, 0.002451262286958329, 0.019143273151268448, 0.0014072908447583465, -0.0008785990137829606, 0.00657269578003572, 0.006921410912168336, -0.31564499966272297, 0.00932025501359636, 0.01253849277405248, -0.19903326195058094, 0.1224873046344924, -0.2600740242284663, -0.04675379569009244, 0.03355639314604941, 0.38611866343708046, 0.33410604823722284, 0.05255544547673869, -0.23465226814525447, 0.013485291751354517, -0.0035524469274945706, 0.04936802428454645, 0.19619422598238023, 0.009358126700280744, 0.005814604206001707, -0.17592887833189214, 0.012124253201298308, 0.008365677097078417, 0.015722708429065202, 0.22921576781304234, 0.004821483066394299, 0.016868847515085238, -0.6958481410971926, -0.03605058611749363, 0.014841081870755961, 0.22727700583728688, 0.27451248845857906, 0.22303301735234424, 0.017470912027359693, -0.20079778886006053, 0.30763722115525416, 0.035996188951108406, -0.04785540312455173, -0.294489361440359, 0.017806671264202188, -0.05977412025482514, 0.5454403543603822, 0.05436287877276044, 0.005155715069467084, 0.015205405318817701, -0.3988618944506057, 0.014178253494250673, 0.2612939270698175, 0.007005545032605749, 0.004155189778973217, 0.01347888430371087, 0.017570782087160258, -0.36385197193774715, 0.013650834979333452, 0.014319832988591725, 0.19499433258731894, 0.0718569420981118, 0.04098614817046446, 0.00077903035301155, -0.07606091539242962, 0.2797472256768278, -0.08217724528321094, -0.16036712226782265, -0.15796571138380724, 0.007426986421115449, 0.0019694407304586404, -0.08361262961841617, 0.3596064176318869, 0.0013471045724035911, 0.015277780290979098, 0.11409319819642778, 0.011513395691426367, -0.07233410635939573, 0.012165750646561006, 0.15039966173338362, 0.0010064174377417015, 0.008778153343269517, 0.0344962249756771, 0.010996254960382224, 0.002676716041636088, 0.30421062467985227, 0.01829091879937924, -0.4596195591518888, -0.0008679255412760285, 0.13835317622252638, 0.4010081452450219, -0.35376620755963173, 0.17059904695536415, -0.25616518136187144, 0.011979655820343535, -0.09103567830317444, 0.35917994746633897, 0.05134557175654132, 0.005470250881912369, -0.024481471361491418, 0.039431079297259274, 0.012407969397664573, 0.011496835534193981, 0.002034920454979782, -0.11337102112898856, 0.006587343622161202, 0.0008572150925819244, -0.5063019993962669, 0.007610760806366935, 0.011823382008289252, -0.07798773589809004, -0.09707440631545716, 0.06745754037580395, -0.08987373789659497, 0.04063307769460697, 0.2523283569835732, -0.02324882921855017, 0.13009551914425752, 0.17797213145024465, -0.0060829356929399826, -0.078246881355312, 0.2633562364913497, 0.11540784258928806, 0.012201122274338474, -0.14166810382951486, 0.13129257370039965, 0.003948237295273914, 0.0987825639160717, 0.0066497173123407725, -0.07368560633069723, 0.003726010791612011, 0.017536812356370352, -0.638670150372084, -0.013574810365806841, 0.004178069110561849, 0.5436912772734517, 0.12789943508289026, -0.053268110079944316, -0.04765946437644218, 0.1372701161969444, 0.034256102929773706, -0.3839048094439124, 0.2851181812400486, -0.5142514280974059, 0.0014937862696456075, 0.06771687296834371, 0.4006907495022547, 0.13259460095727446, 0.0010281987674559034, 0.003982305910766125, 0.13009188526478355, 0.01580301552714519, 0.031078694372767852, 0.002784567722838946, 0.013228772942957627, 0.018059895511405043, 0.010814894696894955, 0.00793629150794165, 0.015110431360125865, 0.007397291953894229, 0.007529359867649246, 0.014594617813711767, 0.011687756848284266, 0.008500999040855281, 0.001572160315327517, 0.011263293749013055, 0.013281977661055475, 0.011650920681904296, 0.017741956565270563, 0.0046843400525159, 0.0007474119354870918, 0.007540749993846632, 0.0011883117720596142, 0.01158557772161315, 0.014618127267219273, 0.014168796047671376, 0.0030438966764740334, 0.004689934185370297, 0.004343334366467535, 0.006017869170578015, 0.011586915531967145, 0.014682073137692053, 0.023025016838845634, 0.013975216027152345, 0.0011708459077569445, 0.01146590274966968, 0.0018872925630110525, 0.00012527919493548033, 0.010084424025494186, 0.012625292698165131, 0.007849139249580882, 0.007461815277606716, 0.02092974897916656, 0.003947824289987545, 0.002247677259870791, 0.0015700624501649122, -0.001774017802668642, 0.013929126429911256, 0.005477318444684254, 0.017696008948688922, 0.00383564847417286, 0.014864513433757623, 0.0029872945036656627, 0.000917377331529022, 0.00252748071719924, 0.018071120687442734, 0.008634664099377473, 0.012687393156389318, 0.007856254359020659, 0.00200194980787466, 0.012762225709334175, 0.012373555515619928, 0.004281488662484114, 0.016843117089841993, 0.00032758555113770115, 0.00034127277496962406, 0.01624449570678557, 0.013977856601325837, 0.019735808029084038, 0.017401386125795205, 0.019810042023418767, 0.013892217785028789, 0.010772789273503778, 0.013299747039381513, 0.0007125732627747353, 0.007440093395379658, 0.015743652472497455, 0.005365774826728503, 0.0140274343506647, 0.008776279882860945, 0.013388303511887755, 0.006112427037187184, 0.012187977851251594, 0.014153478065253973, 0.012837767295209968, 0.006882551412046514, 0.012621782524074296, 0.011355754002758315, 0.00565638753929154, 0.007635552465352482, 0.006950380362628659, 0.01602946604261996, 0.017077409674731942, 0.006995243837176308, 0.014025869301648576, 0.0009210003131367915, 0.004968262355079577, 0.006323355919462431, 0.003202155185251237, 0.005941893516436265, 0.009213274633639483, 0.0034417424695300253, 0.007636164515718674, 0.013656681755474043, 0.015393166937829921, 0.01812241367176448, 0.01288142800629342, 0.01623510801817219, 0.0016092776396855251, 0.014015888890306014, -0.002769389531668886, 0.008440118988456131, 0.0003222986423900575, 0.005135628391146503, 0.013127551801394218, 0.01025314266040248, 0.004425902574986329, 0.016923173330025548, 0.009288915372202848, 0.014259495145239642, 0.0028894795887394803, 0.00045787484128636917, 0.0026516237717235653, 0.016877848229378458, 0.01715169472278712, 0.009083857009565155, 0.0007946934570107441, 0.011677373308304768, 0.01208935233606737, 0.0028442763900368303, 0.0022659451744287957, 0.003900950043326838, 0.01589283800021614, 0.0015334570870564098, 0.010191687841683552, 0.005492023300775441, 0.011803856463027559, 0.004668292223383002, 0.0038610435341627854, 0.01671437374235265, 0.013163686524939077, 0.015247357103217396, 0.004267289932000893, 0.004254165417268626, 0.009190200378994503, 0.004385312388749628, 0.01183684793806139, 0.011315223694909865, 0.009004494736115276, 0.01628390727598952, 0.0042727332108191554, 0.012599761594930769, 0.006933829545934195, 0.00979705846880443, 0.003786772129058096, 0.0013400445877223958, 0.012983317431969085, 0.0074384132737427815, 0.015025677529781246, 0.008765881851774852, 0.009266086242566952, 0.015329943394507144, 0.016097381499451426, 0.016749272271632462, 0.011936920363285336, 0.0100060037000656, 0.017893106078377515, 0.011112199191782642, 0.008623287041723392, 0.015060824032331232, 0.011011334877580891, 0.009043230609535751, 0.00299804750033586, 0.007035188562190068, 0.013581359139498417, 0.016329144252845578, 0.0028685208382845215, 0.014748060378109511, 0.003491068507506017, 0.0028348007324624684, 0.004988968899706387, 0.01589021996563416, 0.023215137380228956, 0.004383207223894159, 0.01218089820532551, 0.014519111212300054, 0.007646489375217657, 0.013734542477812162, 0.010116336737517106, 0.006926970079014113, 0.010185777104757245, 0.0058063385995948255, 0.013150917597222594, 0.009839946381200783, 0.012678679207435423, 0.0011455006931148897, 0.009679225536681501, 0.0069643975373113905, 0.012150218033559642, 0.016377506857724395, 0.012280666082762104, 0.0032361943989432755, 0.009182878405409758, 0.009319054910370774, 0.012973261098294948, 0.008577439136539506, 0.008918711271160213, 0.021155985399247314, 0.011580686394691831, 0.0002786312933066725, 0.010508042095007086, 0.015026843665127512, 0.004904223351576297, 0.006298702655121874, 0.007909284197228238, 0.004583626782954141, 0.004428135500879932, 0.0015880289741080028, 0.009963239680138488, 0.002295186437226919, 0.01623874093619059, 0.0009724124484629459, -0.0014013217409674708, 0.004367057130879267, 0.010096698846151513, 0.009127005670001926, 0.015119609070743622, 0.011316024257105114, 0.009707396383989233, 0.010115826194746647, 0.004439852711170841, 0.00924568736355669, 0.009916958971700298, 0.01453164790869029, 0.0003723839276008289, 0.0031357331569844445, 0.008758480280875731, 0.013682085276455563, 0.014349061507933733, 0.007151198661518102, 0.004836315007285132, 0.01284869095899515, 0.009227178474505668, 0.0038792897248696354, 0.014778792629619598, 0.010181194325908763, 0.014582692948882588, 0.012365188089906505, 0.008735251979314726, 0.005381674186903586, 0.01704664256532302, 0.007545425289504936, 0.01599039725276386, 0.00041194282346349053, 0.010541300988274948, 0.01283065365604825, 0.015812423047441685, 0.015222174212643429, 0.014593077690122256, 0.004433554047573598, 0.00633856878092088, 0.011612712315768667, 0.005515228218101429, 0.014131027203480003, 0.008685551790306282, 0.004635680416691779, 0.012325084706031515, 0.003607003671906664, 0.006080533242870386, 0.0004080525522665843, 0.0029886393442208085, 0.009260901772603842, 0.008588971207297355, 0.0004516626481801843, 0.0034615559126892513, 0.00021490026703767042, 0.0030261013070836717, 0.016828636579355596, 0.017892158678705382, 0.0072092531023935395, 0.010959176139609514, 0.012190048929606389, 0.018662235600732806, 0.011334420518597524, 0.0016568293868889578, 0.0005737440155791027, 0.004755619745852422, 0.017139313531136416, 0.006934772929378762, 0.01313804426316757, 0.011541380571956156, 0.005817389662051678, 0.008283937986613553, 0.017428591141803777, 0.00990985609356128, 0.009304803065144857, 0.014067869346171531, 0.012558904404666024, 0.003761608317298513, 0.0025213683188617356, 0.006220254165599246, 0.0121477226293947, 0.01452386128465647, 0.010315960836792737, 0.0037913210173610005, 0.001953053507693944, 0.0002193466395281794, 0.005808888635733316, 0.013850201797736137, 0.005702202121899369, 0.013211841444153197, 0.003059905775725565, 0.005358271069723509, 0.015081893320274375, 0.009527602003571441, 0.010049937019269137, 0.015582556002660727, 0.018558736167145318, 0.008590170900727773, 0.013281589112583349, 0.015713037934022463, 0.0014947317847729584, 0.00913273119446709, 0.007504669921499185, 0.0010347269970783163, 0.007430467468786119, 0.0011798584485294592, 0.010638720913244207, 0.007345546443520891, 0.0010817130655762397, 0.008996670680823406, 0.0071512410960182715, 0.014600895719482008, 0.0025403019883261917, 0.009287089460300255, 0.014015860444846302, 0.005452056176423087, 0.01815079247930242, 0.007322277975520306, 0.0015576300857967598, 0.008077087853831011, 0.018415408827467363, 0.009544703816482935, 0.006024861740766551, 0.01381300560885008, 0.014931790412297865, -0.00036955854775250386, 0.009407427964299424, 0.007320243810193061, 0.01856956666518407, 0.01780901167361195, 0.010047528031479677, 0.010215039633056729, 0.010829013260009929, 0.006380446381823868, 0.006636297831172093, 0.011357169479239827, 0.010366131460359175, 0.012414763157824289, 0.004480114235272999, 0.0023317640199641155, 0.00023738170293847275, 0.004517636513743027, 0.017414903703224113, 0.014875621216301966, -0.0031883734849021115, 0.015157560108417631, 0.00923827794364949, 0.011457349319410748, 0.006740252722908595, 0.0009298395401413779, 0.0038181700463572198, 0.010277391237440012, 0.0020927911006469067, 0.010013909948203618, 0.010092957558694826, 0.015852733260063607, 0.0031857113590827687, 0.004807048512557459, 0.012611908659091776, 0.0021716179001051196, 0.016818839504201488, 0.010410424937745744, 0.0011835882312391164, 0.0025836312242291607, 0.014912732452903412, 0.0012265369021470564, 0.015811639113696686, 0.002980849106005917, 0.0043875472434675815, 0.010524537189646759, 0.015142909121756263, 0.012876733210597499, 0.013339352894947129, 0.006191416135400884, 0.011366622343771745, -0.0012935441151638598, 0.013704469937771668, 0.010233930753182576, 0.014150575602182318, 0.014556093461338473, 0.0010354759271138192, 0.006178484025179378, 0.016204669486320544, 0.003995648222626474, 0.01700511269767781, 0.006769626848391638, 0.015583410754989282, 0.004081483186055237, 0.008788580584945966, 0.001934836388331229, 0.005312871732044303, 0.013860634228241926, 0.00033594767130527674, 0.001931933357722103, 0.0023292196923091475, 0.007548423680611613, 0.011272436586350049, 0.002935100609040576, 0.010069715030246954, 0.006804881090351571, 0.011620999942558335, 0.0006830670177185886, 0.009493943242319693, 0.013996998623145126, 0.00936374813857991, 0.0178932234623944, 0.017317929213366147, 0.015175953815599528, 0.009481523745457065, 0.010278871958928881, 0.0013855017187602338, 0.019190704549973774, 0.017055792296546197, 0.009218770400876555, 0.0017033854960588546, 0.007570089614870713, 0.013621876696825318, 0.017532221368183977, 0.016301277906406134, 0.005093612455172681, 0.005823127132352733, 0.008615525104172114, 0.017870603277934917, 0.0007120104887438668, 0.017585667035732444, 0.0013590489105302366, 0.005971872663404871, 0.007050093472435785, 0.00523237637817659, 0.011929487213144704, 0.008211287664792238, 0.003451390103011011, 0.006472479393460406, 0.00892615624921568, 0.01414247493629864, 0.0023061868893872583, 0.010844564876077408, 0.003199993402689601, 0.017199995200716384, 0.00852109257085191, 0.013986077021312576, 0.016176836679541652, 0.016047190342498196, 0.009812959223056531, 0.008770276132187123, 0.002936343254212971, 0.006965027902179352, 0.0070668564507678595, 0.01732370603772014, 0.008145473765843653, 0.009828251450677892, 0.009536180699970453, 0.008461507462439089, 0.01590590458652595, 0.012811215446741131, 0.005225084216562381, 0.01348103753096623, 0.01353185318146904, 0.0009582907949395381, 0.005755115001949362, 0.01705911965766591, 0.00968790674412111, 0.005666718495261868, 0.011884059392988764, 0.00746629629734026, 0.014140303258911545, 0.009315153996625365, 0.0020208113463800297, 0.009487325792197918, 0.001592948090308569, 0.015810635968182, 0.014258094815641565, 0.0027257511454524693, 0.016795008551877714, 0.015371940258117747, 0.009173065554856778, 0.0033978590558685446, 0.01233223528722053, 0.014458036343689197, 0.017581577668383568, 0.011108854745772775, 0.010244995824654143, 0.009693311211848821, 0.003265644812352293, 0.01679802297314369, 0.00028271701958359656, 0.010840963344161703, 0.0046575158575186135, 0.01258287180695331, 0.008433504194797442, 0.008076350189870239, 0.01292522419259396, 0.0008213892315428949, 0.008146725913040158, 0.007186915863858917, 0.008379395655565475, -0.00022023499519493986, 0.020266799899887243, 0.01528888644306192, 0.01779583041518507, -0.0002043313836950964, 0.015528009212202685, 0.010783637991457607, 0.010177235968823306, 0.018868129140429655, 0.009592205560160081, 0.006571016646669215, 0.01724095872018405, -0.0018505029272621848, 0.009764946877188064, 0.008224364310218836, 0.00932332749764565, 0.017666991254634983, 0.013811125975158855, 0.0117064518993956, 0.01386190377066428, 0.006611996046839102, 0.014737746942886097, 0.012700766210603953, 0.008876244836246334, 0.005997165291003694, 0.018978560756767043, 0.00805051640646877, 0.005233481607397595, 0.012742997556818434, 0.011580175877218789, 0.011211867723790396, 0.009743856097680016, 0.009303332584221499, 0.01864246237383144, 0.015131808852427554, 0.01165309873775499, 0.007978269790906767, 0.0013096473125808177, 0.01565012035894493, 0.0012297265903237831, 0.02063307269536702, 0.017656124427101117, 0.004819932541231284, 0.018303606244560414, 0.0012626716448167923, 0.00456699907793252, 0.0176652317768719, 0.00900732607111685, 0.013660167415280451, 0.0009813771849443234, 0.009779809006271093, 0.0021580386543257413, 0.012289393902356846, 0.004068471571918933, 0.0040872654917955605, 0.009577567903886792, 0.009690709305683701, 0.015245547060420474, 0.006226591646757813, 0.0032273708876538617, 0.010038198074652081, 0.012274993041138875, 0.007594856646409707, 0.00725242641286288, 0.011660468051196594, 0.004875670102916137, 0.00965069055073798, 0.0009039548396347595, 0.017311087669377234, 0.011860736407543494, 0.01241366605628088, 0.005503380268067573, 0.010157274755312475, 2.1631198597032316e-05, 0.019633580027284478, 0.005738267297542931, 0.012038073727490006, 0.011759234751674494, 0.00278051185685586, 0.005970121288322192, 0.0065656599788130295, 0.01023431546353968, 0.011456610008727665, 0.015068629269018126, 0.0007019806969820551, 0.011552311366032648, 0.014265196441438862, 0.013201704528485665, 0.006298856269916619, 0.007862291757979239, 0.01634088376778578, 0.005797498097298732, 0.018076642642513872, 0.014332825759432595, 0.002713095833020361, 0.005223502021616272, 0.005696294761069834, 0.011455972497589857, 0.008960607573805646, 0.016272327930242143, 0.01047826144298162, 0.009694047116262745, 0.013122861843026227, 0.0021975741032774945, 0.015609018424626586, 0.016000845960679255, 0.013882243232326714, 0.011725321068713712, 0.0033066273621146767, 0.009934613740405733, 0.015148019448164666, 0.0016146685556060292, 0.014101602382787341, 0.005770858961111179, 0.013154870000532707, 0.00895013102462468, 0.003381369848224659, 0.0109699967714325, 0.0023345350438274694, 0.006203890426042366, 0.008056035358840022, 0.01179273828694276, 0.005743844186987989, 0.009216458250113545, 0.0058783920080767715, 0.006802129015578343, 0.007025431581318635, 0.011491092181816607, 0.012065817434253188, -0.002335260823809925, 0.01012043753774653, 0.013225341014519143, 0.017625254354968506, 0.008467944287249755, 0.012787947075466662, 0.010073229103072663, 0.01575044888952651, 0.008027020660072774, 0.011324499767125079, 0.0161877072025243, 0.006718432481958209, 0.00581594811265001, 0.004084755148404086, 0.0181680303155698, 0.005188785466192133, 0.008742109219104491, 0.009104645440475498, 0.012863449245671855, 0.003980948083811603, 0.0014886602939738394, 0.004957322427443923, 0.016454305958462364, 0.010279933741465202, 0.0014469318494797195, 0.01378513124575461, 0.0019965551547666298, 0.015630501942767525, 0.005683801646590792, 0.012679861601467671, 0.012534156949559533, 0.010505654147186808, 0.018140066646703274, 0.002171148797145271, 0.016011596444107688, 0.0016361394120610335, -0.986719323528886, -0.017619111927416952, -0.12039365820675815, -0.06400401274047096, 0.16319260728595322, 0.13828393589145593, 0.009083895254380357, 0.22917884832981242, 0.07195733441818261, 0.06742353036914366, -0.2650546100491601, 0.15219048965748425, 7.863270088186477e-06, 0.0025419381269965787, 0.18524846022593525, 0.05309811868678091, 0.003624079176890893, 0.0028518948336381696, 0.44327510674999604, 0.010056136696078095, 0.010290422070191074, 0.003990165823314613, 0.16205714225201445, -0.01690639678235729, 0.006297333581234354, -0.006460960998822079, 0.01720606260263492, 0.010729285381396232, 0.403472432948871, 0.08128344626079392, -0.10551226540273759, 0.017814077671419046, 0.001930047225153468, 0.1632323666345786, -0.36746062342996383, 0.06317917331428512, -0.18224156245206888, 0.001177895370223069, -0.23760793890930715, 0.09031931376298298, 0.10131896283046511, 0.007522128189119289, 0.011969261580123241, 0.051198004590282016, 0.017550861629091936, 0.019787887195536404, 0.00352085341668589, 0.10725893154877951, 0.0115001408569045, 0.004891747953911646, 0.14231453821466883, 0.0013124332050429104, 0.017681518941278458, 0.03197747386842513, 0.10630223104256156, -0.0348812997253041, 0.0027262428714521117, -0.1685713822950161, -0.07494142909676837, 0.15323843243954724, 0.03131195791171576, -0.35838992102732875, -0.009814795806874308, -0.06966489546592368, 0.21308645672078236, 0.1144698411572988, 0.011274033782663017, 0.0030370961238705223, -0.0035816687988392067, 0.0012968104231237375, 0.028643466351717523, 0.0037821018383436835, 0.08156661873873636, 0.009916328577974694, 0.00922650278125089, -0.19845539266750575, 0.0005728457322702247, 0.013762367695937847, 0.4854053314128469, 0.11610884728982285, 0.07578905433731528, 0.0043071092922189365, -0.12210731372559837, 0.16170451275224007, -0.16274448502778047, -0.15511409519007202, -0.35172258158931, 0.010113326995166087, -0.022432121890834104, -0.012246359048686132, 0.10317085021865888, 0.0028772242145993533, -0.005388809668110333, 0.11566482360005788, 0.013509406942116525, 0.013384912826007801, 0.003624671949359598, 0.14133727495851775, 0.01248622090461075, 0.016905286038384808, -0.17430336195167256, 0.013458654457105718, -0.11307684066195074, 0.00780521336753307, 0.04093233685663171, 0.08090063287204982, 0.0035450729000102445, -0.24877321099020813, 0.05641785252237012, 0.16954942237200002, 0.0011107738439320616, -0.048816965154362645, -0.04976126662943036, 0.014510133767580724, 0.2824964266917239, 0.1223529904250851, 0.012438200815692153, 0.012459049294795197, -0.20213279767734044, 0.016919450804328454, 0.04549779876785152, 0.01763538343174827, 0.20596546332289248, 0.0018786890653364815, 0.007622821905385254, -0.5298960312417884, 0.012150126541762379, 0.0033382164629207458, 0.16022928257602242, 0.09198101905069428, -0.04356568507485777, 0.01600427157752848, 0.15886930123147683, 0.42643918934818215, -0.1752292484742881, -0.24255081916660748, 0.3502306798172321, 0.016650042143321175, -0.016038688420737763, 0.12764427003382234, 0.16849298732721807, 0.005853858254257846, 0.016831018808785913, -0.18870799619940126, 0.007796098518779375, 0.0026886634158861775, 0.01589969887351742, -0.1112077262541393, 0.01468158222800881, 0.011438615031583313, -0.39523860460495774, 0.010749659376785015, 0.004408434048118235, -0.07577086670903463, 0.16809077435282835, 0.06438423815625242, -0.04152044982683803, -0.04837244400387292, 0.23352632316985522, -0.07958823751756228, 0.020400898496466053, -0.18917090841825165, 0.005693719287308904, -0.09531936984066963, 0.26554445762379153, 0.24598503082059042, 0.04087712819193289, 0.015910596123523257, -0.18498716555059916, 0.008251344676699475, 0.1305231331102207, 0.003696851091819489, 0.11717512791756864, 0.0007293017630968446, 0.014481311713325017, -0.39028799916057083, 0.010878295381042284, 0.007314309118393348, -0.09273860357769405, 0.04556473082686715, 0.1155863053123083, -0.07079653530073257, 0.012472849701404111, 0.24208647465510164, 0.13447201862427127, -0.017205232031007073, -0.2765755486294255, 0.004525381496914521, -0.013596963594648424, 0.08546711384350573, 0.16465238437674493, 0.006994791768331443, 0.0009888946412122761, 0.05650553298658851, 0.0003351932940510577, 0.038753028492257334, 0.012512773663092459, 0.13881246905211503, 0.017815614663511226, 0.012907044134507367, -0.3159942293201922, 0.002462919353572937, 0.0009473140257324335, 0.009231121295585495, -0.0974717864865979, 0.21732161414728213, 0.01807248959856334, 0.3426026554500495, 0.37782751474980025, -0.2739217830426215, -0.15361313457545797, -0.2776919488137148, 0.013769742911544631, 0.07717565779835185, 0.19910031102549747, 0.04764632649236036, 0.00020879219396793277, 0.061764635889385154, -0.11669188465232615, 0.013233901276396539, 0.03331854459366508, 0.010677990849237514, 0.029450131809731155, 0.015567640774705377, 0.01356391847713046, -0.04507046670464895, 0.004082319020230591, 0.009209560097594062, 0.14886323413224548, 0.11289616889528378, -0.13948364395172222, 0.04264500699873463, 0.1973746890418195, 0.020069335276783846, -0.14782825480437417, -0.05548110750143191, -0.31488150563094985, 0.013354259452465858, 0.0021422073209395676, 0.24952279025852114, 0.011096333406540166, 0.004762047965300882, -0.04347904174644127, 0.18213002523885813, 0.0015298359373820945, 0.01760757795997023, 0.014792443347313463, -0.07786990650254672, 0.01468504434269221, 0.012520690539978889, -0.5154641448207399, 0.00897263594526637, 0.005951497322822929, 0.19002929422689122, 0.10189658275504432, -0.11423722140920213, 0.0003018179378167808, -0.025949534971484084, 0.2882987534090873, -0.14638801010866712, -0.04486228645714277, 0.1426478228183041, -0.0009605263850782558, -0.08768230617345205, 0.2312793486467203, 0.0734529507333348, 0.013009716532540341, -0.05691025287032752, 0.2356730738050467, 0.018042293775795845, -0.06263605218789192, 0.0018454284389447485, -0.008643336776703646, 0.008636313868157868, 0.014506054957200313, -0.1267094210069182, 0.004712788392191392, 0.004239891648737712, 0.06775060317131175, 0.10125947325399588, -0.06962641541106566, 0.01596287168044756, -0.3211883054488044, 0.14245567344726706, -0.0007669941484963128, 0.04060381304760519, -0.0673398242452953, 0.007087638159704677, -0.042712847079869276, 0.2720443920376026, 0.34280471234331983, -0.03352566651550377, -0.04384169894073247, -0.19336182270357655, 0.004529803627272494, -0.0341535168214783, 0.010958589017543019, 0.1486272655028212, 0.0028175061875245896, 0.016103416831798834, -0.36103108461235073, 0.0059489386569493005, 0.01737386688066758, 0.19306315632466614, 0.16937500494161165, -0.2146310896911058, 0.0032491430428395677, 0.20760119928248572, 0.3939869494604817, 0.09532742078578173, 0.2187192522136254, -0.1856647176416745, 0.009540403888963888, -0.17181859146558429, 0.12253317949050054, 0.026761036889118694, 0.00037913118437345053, -0.21508899001389276, -0.16240304551181992, 0.010619206097601896, 0.010612278868291025, 0.011336496414519585, 0.048707404274393296, 0.01754537259428886, 0.012278743583576923, -0.46512453145106925, 0.016006262758291527, 0.010920062950628577, -0.04539689113279741, 0.03772544530912245, -0.06586368427439919, 0.014529730418002191, -0.00030862250240998773, 0.19211747481398314, 0.1468041862265643, 0.02288758537024713, -0.03600048587455256, 0.00297029584163262, 0.0034307123495659793, 0.32730848222224185, 0.03068658611656457, 0.016382289547930216, -0.16108789389606445, 0.19203518538896203, 0.011578848454035843, 0.05256014261093313, 0.004036152338868887, -0.04965824027300941, 0.017683200990666288, 0.015233279211573887, -0.3507669745655107, -0.07836823548171398, 0.016065232322768287, 0.30547079191120746, -0.0700115710147428, -0.05366139883234266, -0.007296759389933426, 0.040104997596722175, 0.35183802541659465, -0.13893274221969729, 0.05468402750114989, -0.1543783635251449, 0.012310952569771608, -0.003773341088802393, 0.21827892828102466, 0.20606311750208164, 0.0008664764416637514, -0.024904762879086, -0.040923630169000656, 0.003921062455949555, -0.11824212328048045, 0.0038629469312736367, 0.0979450328048299, 0.008639001954733737, 0.01667085470394765, -0.3862128587373261, -0.014096188159706622, 0.00031751444376229093, 0.27551602095928257, 0.07187480549405911, 0.08879367589603915, 0.0020540061224952424, 0.07724140017391218, 0.34666579332607145, -0.12129123520857514, -0.08060643393194254, -0.09979092490444544, -0.030397856451294374, -0.1038713891225391, 0.07225337484632857, 0.1907824919675828, 0.0018549384801331513, 0.0051113591955484336, -0.27567565844565917, 0.0092367042385059, 0.03555357978396667, 0.004945170594073776, 0.13749337377894147, 0.009617187203626225, 0.017007740049188244, -0.19489169007417403, 0.009054827615818804, -0.04389852065281808, 0.2235069447636498, 0.21529491927561592, 0.06286128064409467, 0.0014167939716817947, 0.007363236583243979, 0.158555937256756, 0.04827411493782199, -0.22363073255773608, -0.08089040158232098, -0.009501235541993782, -0.06259296096398616, 0.15645237882085047, 0.05486957228824441, 0.0013039269007318276, -0.02318402018464922, -0.03325346703157955, 0.010222844783851541, 0.05525509430131392, 0.008971713553198807, -0.11276546392508195, 0.01340252694062731, 0.013627330005775512, -0.4037328302417858, 0.04997617265882737, 0.0022341198597661395, 0.22767796128645962, -0.06200461710016565, 0.018746999466631838, 0.007653228677073867, 0.004372708419427298, 0.044199554650399084, 0.30453860933677057, -0.09884444177504888, -0.2381492690261819, 0.016628453780121163, -0.04254818321373567, 0.23976653207283938, 0.11272977465569581, 0.014788703505383513, 0.0011150675816548037, -0.0952687324569607, 0.004166096859506979, 0.04218285651043772, 0.0021662158659481565, 0.07727362428910844, 0.010638126874560797, 0.013107870000357262, -0.11608605196048385, 0.009359578319961709, -0.05929896211647607, -0.26492817649694733, -0.022512146417423454, -0.08124755864939014, 0.051281400139537255, 0.08133955209975617, 0.08883440623305978, 0.041874121620890256, 0.030213198390717667, 0.12932949318160392, -0.06644540622659613, 0.07089684615848002, 0.16597700212528993, 0.09984935063162365, 0.008512627410725171, 0.010109646046327775, 0.030729799796499053, 0.004683184174162814, 0.02164484894430204, 0.0022514056624042722, 0.0019323869378463498, 0.015694708908580386, 0.015703895675374432, -0.24154480172783463, 0.005830912055021454, 0.0013199848875951414, -0.14376273119121866, 0.1017367785133214, -0.21425384086854035, -0.023865162023537823, 0.03318068078784399, 0.3005991186166556, 0.2692651190211938, 0.03570233604734598, -0.1887490565687329, 0.011538403200981021, 0.006095875174933073, 0.0627110881359388, 0.1602292583770237, 0.008281297448049972, 0.012104482694222247, -0.13935897199503616, 0.017118273149905064, 0.015187392083356309, 0.003373165965208724, 0.17643093807802057, 0.0015417741727711098, 0.0052535494286531275, -0.5246411865336397, -0.02986419786600756, 0.016020276300046942, 0.17317611342420983, 0.212343132921332, 0.18630805866256311, 0.016885085895010355, -0.1489501446546128, 0.240009274799405, 0.04491148876354857, -0.042710700840225, -0.24278591434292485, 0.0007126398648629793, -0.04118922007604246, 0.42622486294631623, 0.055787757060915426, 0.007568576388556111, 0.00866703721739297, -0.30582177007340455, 0.002470024079043645, 0.19148766858995453, 0.012654643826923283, 0.0099303505519322, 0.004064281471430649, 0.016138600467144038, -0.2963845301743797, 0.016464955972487323, 0.015921638847500384, 0.14897026626484106, 0.06348528421587349, 0.04570886337306119, 0.006960196270383286, -0.059625024180021906, 0.2175399678351345, -0.05740115755605223, -0.1299065271315453, -0.118548793863079, 0.004136383650276465, 0.01166006659311796, -0.0440152734674711, 0.26388423405622957, 0.01790333265795227, 0.017442603095636652, 0.09260763846018119, 0.009926053466328357, -0.056438474096657025, 0.014920305253690709, 0.11263825091827186, 0.014066947106193734, 0.011251910609538512, 0.024719106359424866, 0.005910285683325563, 0.009168392795489708, 0.21808379009445594, 0.016809883002482293, -0.3490512680519198, -0.003253481900976559, 0.11257517070532595, 0.2989219987482462, -0.2618119407180474, 0.1298269494689584, -0.20125971701088152, 0.0026765946138272954, -0.07603216300645359, 0.2970333921750767, 0.051798603197726265, 0.016279175693945082, -0.015362049478047675, 0.013180600687054667, 0.0072761148935514795, 0.006373920476517827, 0.0021498995011621142, -0.0724507257140663, 0.00289979593821998, 0.008431666916790218, -0.3964723404768935, 0.006384449102435402, 0.0023786955008483594, -0.08419545771769273, -0.054003602565911524, 0.05175510238002542, -0.0528256168065081, 0.0458330527862396, 0.21405979921234822, 0.0017876164022009276, 0.09064361198118913, 0.13023248066266158, 0.004634459335348988, -0.05689883147765966, 0.21452188170846692, 0.09060334309307688, 0.005063267687689419, -0.10392996966929412, 0.110076491812998, 0.0047807795737870706, 0.06634284118068755, 0.008672816044671499, -0.04624737339149836, 0.002881005133321874, 0.001371335116151213, -0.49988229759751285, -0.010047297741125413, 0.013087799035470665, 0.41218690670631003, 0.11832051163666199, -0.037006126701024, -0.038648814482567816, 0.10477985398584028, 0.039631097714459204, -0.29074618691642945, 0.2189041828257854, -0.3881093875250684, 0.01788512264044216, 0.0644796560825921, 0.3010960571388505, 0.11945844352043589, 0.005312812741532441, 0.01383121441860033, 0.09175710402013895, 0.013170454311734666, 0.029990103036285225, 0.012004179718381856, 0.0075455239265031365, 0.013951974482204954, 0.009891966425794391, 0.015538518146221416, 0.016410738529827065, 0.016782674748621388, 0.005798363790090603, 0.0059324037530767764, 0.01282637228542621, 0.008456888146001769, 0.0012206638935326826, 0.0023234264883237868, 0.015788766305822786, 0.0072277511033542, 0.017571635139327156, 0.012372237909624335, 0.01666133859412289, 0.0075761874399619565, 0.001427495952619404, 0.0019033563633706182, 0.014030953625993424, 0.012862932447856794, 0.01809953594649932, 0.013828277758113794, 0.01630085723380605, 0.011236028313574788, 0.011036510777676308, 0.0013023363723048782, 0.15580599547757787, 0.011837410936538931, 0.027302553571590733, 0.028868773960191947, -0.02911022623210026, -0.007340625223819665, 0.014299030566518144, -0.028008669979890013, -0.006011553250936109, -0.0038180079969528866, 0.04476660818580388, -0.012131138397866776, 0.016577522275366702, 0.008182942398888907, -0.03251514148650216, -0.0032278899449280194, 0.006963452122752496, 0.002372488059697726, -0.06291948548320457, 0.003034950489424045, 0.015982934469971316, 0.006689637440731255, -0.025813150677473487, 0.011286328701508159, 0.015744312159024488, 0.00953126498786669, 0.011920792553600975, 0.0026057348792257063, -0.03420631077987374, -0.015059312901966241, 0.004196979591218346, 0.011411831030934136, 0.0012425412616788726, -0.015337507461330412, 0.05853126434583566, 0.005220363185156467, 0.029912912233169116, 0.004302314862762019, 0.04651557070922031, -0.014639863535045627, -0.010799895935257254, 0.0018642985017012874, 0.015383227248203506, 0.02257027366283288, 0.018048053042698655, 0.0018797516591928904, 0.006097509298957983, -0.009877382633991016, 0.002767815713398918, 0.015529481061488005, -0.013284913556056098, 0.011143028409947242, 0.004089891449758108, 0.02010814872314977, 0.0006993690209310941, 0.004597991175712596, 0.01035883177328824, 0.021281599845996747, 0.00700051852848643, -0.0195625595194381, 0.011465716091576166, 0.04529728927536399, 0.008285471440778352, 0.017178723227581738, -0.01945274666398733, -0.012068272590361069, 0.006033731670436483, 0.017857847650584086, 0.015264329621923166, 0.0013436625025497217, 0.013222271549011302, 0.01246711657914966, -0.010654233627658587, 0.0077437642927732425, 0.0016892028627794973, 0.025661106147016347, 0.00786503037838428, 0.01493524232042569, -0.06544589406395937, -0.014999438947471513, -0.016565023827747605, 0.00029856606920014095, 0.024195204577560775, -0.011676063513214987, 0.03562922147748638, 0.029386324018389736, 0.056349318558381135, 0.01061086242034921, 0.00854146989863866, 0.007537192291973396, -0.021488492928779215, 0.012926009437468987, 0.015536670204654296, -0.0026198514580645345, 0.015916322086366713, 0.008709662039812804, 0.012747148969332345, -0.005013419706789603, 0.00235576341487838, 0.0072080482340231965, 0.027011159757388246, 0.0027150822998450647, 0.01978272651285208, 0.020884638306842594, -0.008616735337423303, 0.0006950999401550339, 0.013095842394579366, 0.044709983038969725, -0.004739335786097327, -0.0003281504024505739, 0.011029654343928387, 0.02532785589786138, 0.013659164865300884, 0.0021485268351295874, -0.04361456156755948, -0.015089776136056828, 0.004859895723422335, 0.00430934489421246, 0.020926842597789343, 0.017397389983363567, 0.0031783717374664093, 0.009969080284218359, -0.03287338376419557, 0.012660581508960165, 0.015679030306138382, 0.08522955757498743, 0.008316707460139874, 0.013726501717300029, -0.0023126139059303666, -0.024016800783600363, 0.010371985764524323, 0.015215616473093555, -0.009250510070826718, -0.05185922214643541, 0.03106994906125712, 0.02909065761196374, -0.030652734324286404, 0.005747786502357217, 0.018030166756118356, -0.01997613011584479, -0.007670594241609572, 0.0002759306480267746, 0.010139116606412667, 0.03009600960129244, 0.003221391400671572, 0.0005814070373611147, 0.017534459812998067, 0.02167355594664171, 0.012680921666534627, 0.0012031785253639364, 0.07215490565304089, 0.008867163246965563, 0.014353103299734743, 0.02685175658617254, -0.025634367861453983, -0.009925411373588352, 0.006138964481638548, -0.005195586568371725, -0.032527963697720236, 0.015900679514824358, 0.011419428857429354, 0.03188123440682404, 0.0016063408296228445, 0.02079527213916273, -0.02855966965918201, -0.01896588257139625, 0.007101664650582649, 0.014212013036536405, 0.03522509218037963, 0.011204594990689933, -0.01275014009849486, 0.0012240362211684865, -0.01669426065899581, 0.013336045696812281, 0.010948365893785044, 0.06916798450320627, 0.002906318255604608, 0.009271468999130133, 0.029984620166664415, -0.010993919162763731, -0.02310018166904156, 0.011055903676495478, 0.005956892836684573, -0.02633940978211857, -0.016762904712116174, 0.008348670332440003, 0.04947731038287915, 0.01821929456726146, 0.012666353444546615, -0.018953215507495128, -0.022454662663596095, 0.005409343276524472, 0.013841725024810427, 0.009325951943089071, 0.010660994066724858, -0.007800662129773933, 0.017551548233387903, -0.008198418908489618, 0.013147354484305542, 0.003417682296377886, 0.0457804571572233, 0.011795877060280301, 0.009129915657187081, -0.0014452094030020523, 0.010567703125872544, -0.027883999658723027, 0.016750539742544177, -0.03886029238451406, -0.04967375762746669, 0.03686320412180826, 0.024103138893978804, 0.05025573723013221, 0.016073614429494287, 0.00252239627675329, -0.013922979147965808, 0.007022185738091264, 0.006978071571337433, -0.010043269579450844, 0.039157710505505886, 0.004757166573939933, -0.0010101188488678588, 0.016131123518300827, -0.008136475511322813, 0.0035709296512574855, 0.005784211363860051, 0.018420167101736325, 0.0124708916428808, 0.0012948947533979703, -0.007807388491722078, -0.021366107260251482, 0.010048442494396303, 0.00845875044560867, -0.029017757566971687, -9.600330674921256e-05, 0.02442341198701482, 0.031173213057108486, 0.057503573205227684, 0.012093959002723613, 0.01053004377359386, -0.03401106708243967, 0.014081671103182264, 0.014605569721822998, 0.012558752495347816, -0.025047852755911135, 0.012309170763943618, 0.002542213034693255, 0.003038209003534361, 0.020501361149915995, 0.014783904259484915, 0.014111845755932448, 0.0649532565990472, 0.004278636855328622, 0.004479591601210833, -0.005915647481881192, -0.01787393183847875, 0.012359921893031717, 0.0019973661773796704, 0.01535359682537875, -0.04272478151472614, 0.01912170908274736, 0.018998762694294236, -0.012501856412125574, 0.004238876348903266, 0.02824907946433874, -0.03155661626976094, -0.005229365531507471, 0.0058734653302242425, 0.024259540245424552, -0.019214278997120394, 0.003679195296985729, 0.017295798625728956, 0.017804071488706486, 0.0028765068011085576, 0.009950182987915638, 0.001653409338778365, 0.027737918639534218, 0.0023840274580241216, 0.00912030498657486, 0.0030100066463316865, -8.661054473650119e-05, 0.004464947677582285, 0.006476430020559659, 0.03439306112923572, -0.017227889759691917, 0.00136440522742359, 0.01003094457336382, 0.0290738848734554, 0.001354020798945417, 0.014351119551554216, -0.040807664009678904, -0.04029748923303561, 0.006035371006327846, 0.015940852913451733, 0.0401142037268545, 0.0040882924482920965, 0.008700665565290241, 0.0015453795382728635, -0.007027311119562965, 0.004621807446987335, 0.01756973677071225, 0.06809834777325012, 0.014832866841923873, 0.007531094702209155, -0.011490698853305123, -0.0185989167286413, 0.034643037896647175, 0.013568010565738033, -0.015697071385908964, -0.058547597860468995, -0.0005172264060730331, -0.009231307247934414, 0.03751041534157575, 0.009024631580824666, 0.022743794775936733, -0.019677953089017604, -0.0066144035488797485, 0.004434081522159223, 0.04143563747189478, 0.030568836149993138, 0.0033901573866143907, 0.0006488118686773272, 0.010105253403798337, 0.009086141125647585, 0.009357209520494623, 0.008979730048433153, 0.0714000448089205, 0.006380430800192656, 0.011002025154104658, 0.023205430648473347, 0.0019144118740347588, 0.0025458516789802345, 0.0033231293476660277, 0.003845087156086205, -0.016456870571408502, -0.012046396600385947, 0.020702399596517377, 0.010480407347313666, 0.005064088952131414, 0.001066397179005802, -0.049619870670697334, 0.001374581184996194, 0.01304501881552246, 0.03180165232444966, -0.02223118784166118, 0.002401216591295223, -0.002587657680836185, 0.006927296073180387, 0.016639392259916903, 0.016370365758447948, 0.00955489885989156, 0.054539528370696935, 0.017729993721668075, 0.009833350530048128, -0.034103588751442024, 0.009702444102319255, 0.007025804801476317, 0.019376033114825306, 0.005029752261563838, -0.046150047254951365, 0.02187550421827928, 0.010489029051334439, 0.040845858016194496, 0.011567583928001862, 0.006795973007332486, -0.027386697945883137, -0.024045647743903692, 0.006736653557226494, 0.013327652054255795, 0.0005242495081405045, 0.010605134699310426, 0.01978358871254055, 0.010162689600370185, -0.007375680810624324, 0.0027830427178625054, 0.006501110901752361, 0.05649561249143342, 0.014347007493364958, 0.014796234393439847, -0.025708892825462328, -0.013221795571485624, -0.021937647227813526, 0.017519163698549854, -0.0062395649754793505, -0.033630206808642205, 0.021739527288488242, 0.020144855785023737, 0.019419824305084647, 0.01200117401764436, 0.028184629263127998, -0.011452878130001534, -0.021979441959803725, 0.016944123072108075, 0.010941997052589213, 0.04892039004782624, 0.003813125902930949, -0.002861006261208075, 0.007196409848250537, -0.021388958657264538, 0.014269014210712702, 0.015704465165251754, 0.02770511031731375, 0.013442052070783677, 0.018255126439177684, -0.018170180515261463, -0.031807171246588384, -0.022019119241110947, 0.012730803205031307, 0.015414854131531852, -0.020757820069576355, 0.009765414885593272, 0.0352797551838799, 0.02871360048067818, 0.021497976587557602, 0.013588890035104483, -0.014694626343019972, -0.0062521580398630285, 0.00506147916097411, 0.014630639562947103, 0.021749485451172286, 0.0003539303839708811, -0.005238375823183179, 0.006763889925258887, 0.013533168389105949, 0.008601301330991613, 0.00646307167404499, 0.05794316885430257, 0.002411830649393012, 0.00985849867602575, -0.01914765899013669, 0.015246276350410357, 0.011556514314219606, 9.578627087621224e-05, 0.002905485133243097, 7.684610373048324e-05, -0.02884484708442832, 0.02705220219278898, 0.04895873205753987, 0.0059570916896298605, 0.010034077717718434, -0.034479810890011106, -0.017281675659371668, 0.01212390903376814, 0.014299050214578253, 0.025853357333848963, 0.0008082017691260096, 0.002143886877152121, 0.01472900174122976, -0.009646135406256598, 0.014581743985463897, 0.014297594738607214, 0.03172594886484567, 0.01609635064631293, 0.026477927358523078, 0.04170664207198157, 0.005757120215392216, 0.011301216721724358, -0.006060773010983622, -0.011678864945870244, -0.013120877531909284, 0.002970048310458402, 0.00703507580381626, 0.00617012901858748, 0.013851579905934459, -0.001044029150474752, -0.03672396277968897, -0.00825078166325045, 0.0037880992538646963, 0.004852796030073683, -0.006327616829311694, 0.007604486273794445, 0.011479198226494701, 0.01885015734049492, 0.010456217549196314, 0.0074519683228574515, 0.00177767950916807, 0.04227316290350172, 0.008485051023102907, 0.013455314974856952, 0.021301671143273415, -0.0065365225951964515, 0.04127773111039812, 0.023521365425791817, -0.0022640865420937677, -0.04891727962096463, -0.02153525883351199, 0.008741229131528543, 0.042750612885155415, 0.015203271520328228, 0.018018060165002125, -0.006142724309173164, -0.008985682862758143, 0.007083363577889234, 0.009422252738123084, 0.030493495713606836, 0.008726568457016314, -0.0020185175389634035, 0.008202644320719897, -0.018242676902052977, 0.0035401629458223093, 0.004209321013608093, 0.0664585828569387, 0.008189449285641075, 0.004494383990118716, -0.01632989863807276, -0.027263084708527507, -0.02384369641028375, 0.012770899437893297, 0.022673115426559184, -0.03734994805618902, -0.0008653545000518126, 0.01534917293792459, 0.042109275268316995, 0.011168737324482555, 0.008780608847269278, -0.043953117881917234, -0.01005316357291315, 0.009581324299455267, 0.002170007188680635, 0.057563750609092655, 0.013381346191926461, -0.017639605811704415, 0.004748899446670059, -0.001544372228151733, 0.0031704468421688723, 0.014395137309819728, 0.04587544993766211, 0.00730187014559184, 0.010676579815189713, -0.013927727211815514, -0.0033084526660706083, -0.014589653800791243, 0.013825465541401186, 0.011269403807709704, -0.027115862001420445, 0.013044786804540007, 0.023786442674233875, 0.02746056996883176, 0.0031127401900284866, 0.008483676835890573, 0.005964651925201163, -0.01937992879291879, 0.006969980494636842, 0.006524119074050623, 0.003085151816088721, 0.010524425606466308, 0.019430395419892037, 0.004481895167569312, -0.00336857151068983, 0.014349505115299588, 0.0037435124870005693, -0.002372688080015952, 0.011626895536059322, 0.006305611902217077, -0.01913309781441767, 0.010144866082879529, 0.04366091429255059, 0.009257168774717892, -0.011379883524616743, -0.030534270427598608, 0.03261477225880188, -0.0005495482049009304, 0.030718638974255367, 0.0012091196886642203, 0.02074978229990259, -0.04103870386184195, -0.005445852818094985, 0.010737004727338587, 0.019203445339635635, 0.012842902618252367, 0.0081496755845062, 0.00434471182966916, 0.0027947765955350485, 0.00935254778000463, 0.0013647197951245872, 0.005887607509810998, 0.05961223663597923, 0.0028733610622649138, 0.016001489405896366, 0.028793091143210926, 0.009532815841775816, 0.008693544645007573, 0.011851406291452399, -0.01409887349804005, -0.035130019093622, 0.0016458415687874634, 0.005254347582826407, 0.006454661145003831, 0.013129568806279019, 0.007593063736634941, -0.027237307036926655, -0.0167301253235966, 0.011445393333269473, 0.021037109534988368, -0.010407474965012152, 0.003801084623984854, 0.003585144061458072, 0.007194665410648111, 0.010736541036328762, 0.004147606412833708, 0.01382206958844268, 0.08051692836297646, 0.00923612037437111, 0.015860150538675722, -0.03385870042296513, -0.008392690513919308, 0.009052373041460136, 0.007885149459174371, -0.011741175463502923, -0.010940701996097743, 0.03931539042771252, -0.01318159318397948, 0.055037713527365834, 0.003776738231896087, -0.005365823188228877, -0.04027824232895737, -0.009333488092259406, 0.0036306089060731896, 0.010065099469299683, -0.0002679139208211758, 0.010898710831098031, 0.009443230639356953, 0.006748337117101018, 0.004552508260179545, 0.01709223761161625, 0.002389697293993627, 0.009418829648694295, 0.0016218784304580449, 0.014741558410789694, 0.017044239422586333, 0.009638041879717745, 0.011873885610556216, 0.010734834192790164, 0.01435090046357758, 0.013316104207790884, 0.011282655144683988, 0.0020471683552475348, 0.014285263774065445, 0.008437710526052763, 0.009265274221744647, 0.006292403451159769, 0.004330805803761246, 0.0016007041345046592, 0.00033026495090542567, 0.01088885146035772, 0.005768449018006073, 0.0121414292532587, 0.004733373666793374, 0.0021637033150023422, 0.016392646809061846, 0.014216477718434982, -0.04925511810104088, 0.007074714294287872, -0.0030321513541618364, 0.011129483320098176, 0.011589702079324134, 0.016417229551610953, 0.003850906576535281, 0.015339149682205847, 0.01001408775064995, 0.0203912493705069, -0.009290387900457065, 0.009979522898789409, 0.014099421563458555, 0.0018789105264568132, 0.01685340453553096, 0.01616182601346036, 0.008613235560894475, 0.010035351472787647, 0.02946666380214991, 0.015070595877861007, 0.01180466126331157, 0.0016889489723732208, 0.0220656469111333, 0.004414384758155063, 0.0005397542280811763, 0.001275683706772605, 0.009359624717771133, 0.007818811592947563, 0.021853399463279497, 0.012287034243814198, 0.010571253490314134, 0.017916983854530912, 0.0041210601763927305, 0.018251036515803714, -0.011801951829683662, 0.0018148425508505226, 0.006210543954472087, 0.011985742332446859, -0.0014746567301220734, 0.01715574285657625, 0.019768931662136252, 0.006168045761272468, 0.0038112854799437963, 0.005396701792419633, 0.007942787370851436, 0.0011417284621693532, 0.00996016388602177, 0.02320063451768417, 0.017547614107087463, 0.003824582776257678, 0.009168253162063822, 0.013333896108065459, 0.007109841787877135, 0.004774931271937092, 0.013130739354711887, 0.011728651426130112, 0.010496390974918841, -0.0065014689627381815, 0.006045296865230699, 0.025777798453169503, 0.01350911474669791, -0.01240155991568421, 0.008206825517075819, 0.003248479255577315, 0.01783451186885954, 0.01070987406024636, 0.016605285220311326, 0.009931311937971204, 0.012943301626526509, 0.008123984486761146, 0.006762642456263498, 0.010252926048783294, 0.0211435593364303, 0.01577559570309735, 0.003232664904701589, -0.0022813020749351894, 0.005291840539251356, 0.0017882274564886781, 0.03445221125976313, 0.01790783903065449, 0.00468728685906244, 0.004365260364262748, 0.00709549638114462, 0.028406893306042798, 0.007824077593700672, 0.0034888641070415756, -0.002719124070982434, 0.0074571358209211186, 0.001641740278990451, 0.019887874831479295, 0.018313846217230596, 0.007518440553301999, 0.006644154780947573, 0.019864997792140068, 0.004503553552903006, 0.003974253571704941, 0.0013907353497393277, 0.011510361719855915, 0.017220203380154366, 0.009239724168462509, 0.009695897318773104, 0.012614319136251419, 0.008784415095771585, 0.00446688703184511, 0.015434283345679967, 0.014167598070327631, 0.016956997549432955, 0.002484021673553307, 0.013338626957788815, 0.020226079721119773, -0.0026593043697452105, -0.0027848817085781405, 0.00010878451415619252, 0.01612266121321607, 0.01997220533673999, 0.020002617927835177, 0.0027891919088786727, 0.0006099416107632086, 0.0041882512517387475, 0.005592219440522915, 0.013912800182648951, 0.0025955420809285544, 0.02316336544781111, 0.009305758949197137, 0.0032876624341791373, -0.02545297155574107, 0.004022828317925236, 0.0037464351063808857, 0.011706602002989877, 0.013226834918567725, 0.0017840132736315526, 0.013537992148099877, 0.018890515762864556, 0.038595305258141824, 0.0031825446985200953, -0.0024409485728710376, 0.02366102218154854, 0.00291011131034727, 0.014964666724300739, 0.016730712830842227, 0.020394959371654427, 0.01757183505637224, 0.005009106494618026, 0.0019509759935259694, 0.005239684382721531, 0.01589570928780339, 0.00845603032168891, 0.003914583440141535, 0.0012891955375143797, 0.009357144044768527, -0.011257702297252353, 0.013519671434675274, 0.004265343904486653, -0.0027037392363024005, 0.01512491900909558, 0.017046702769065246, -0.0005460409766255711, 0.0008848915747608881, 0.017146151427424115, 0.013023758035295086, 0.013820984886093552, 0.005437569746193133, 0.0004819295955819664, 0.004905473542670473, 0.031101061575525092, 0.02155671706978279, 0.0029435199075569514, 0.005223503593366923, -0.007959166873212947, 0.010402110546410862, 0.024229935723625168, 0.016425318047760304, 0.021532528236464555, 0.01363054759364623, 0.015003303343125184, -0.01805321194075654, 0.008305095680207644, 0.010356870863146864, 0.012901504166955298, 0.014604940491153134, 0.012646995175801451, 0.008621065766856562, 0.0071983996536030504, 0.025313287903319763, 0.022638077972015294, 0.001590738225561611, -0.013258626252613332, 0.0014067241258377014, 0.009498759663590999, 0.01583550276757411, 0.022741644166940786, 0.015676666331882198, 0.004436353894308735, 0.0113827030165687, 0.011306405254414915, 0.0061737698203558535, 0.0010514548623325227, 0.025657742469213568, 0.009172124724699525, 0.0018613015049003525, -0.008212035641783662, 0.004606110625978615, 0.007744543047106582, 0.004257605733781811, 0.009080124327320022, 0.016091950317767688, 0.012842159928169096, 0.024774342634732563, 0.031444640259549045, -0.006897976382357799, 0.008294754730180633, -0.014921841847034042, 0.008271040913132938, 0.004081796020630346, 0.028502511755005566, 0.01606721338448975, 0.013780676737675543, 0.01318110871388826, -0.0022902299157183796, 0.0071167407421953354, 0.006831188625145293, 0.011992652280059083, 0.02216600401845367, 0.0030018891892851867, 0.009637489895582281, 0.005135666522431557, 0.01258515701527596, 0.0017569695153054176, 0.014637293840311205, 0.024659034264039443, 0.011940613324914879, 0.0020808225966532927, 0.023434753701642646, 0.007073453284555484, 0.010680734177821552, 0.009126398757940789, -0.014358590782872672, 0.012807975092603174, 0.01056064835820604, 0.028691666896020727, 0.008020586814915213, 0.01403746246244732, 0.010863757740114144, 0.01690549127668185, 0.013193328032564797, 0.012967588162934678, 0.015917915863752463, 0.012515664523709492, 0.01788113675455294, 0.01817393403312996, -0.0226856401820244, 0.01455719770526245, 0.006485823182444081, 0.00874280268996971, 0.012893531282325921, 0.009885847343258572, 0.013662417543889737, 0.005147548410450471, 0.033274924944401485, -0.007018493199176822, -0.0013792614047521336, 0.003939247985866155, 0.013039459161519482, 0.0031992088464486983, 0.018540311633684282, 0.011265236884205367, 0.012503998663743446, 0.009938827326425995, 0.022843628196184997, 0.0033249109412486224, 0.012012585477457725, 0.012543009136459731, 0.003762746573929891, 0.011266553819281405, 0.0023292403895469986, 0.0004933318424769831, 0.00736808953803893, 0.005646671379869527, 0.015042589248474831, 0.008729791619558077, 0.008984615304481665, 0.010483746210945482, -0.010230424920890121, 0.021553299010494176, 0.007275440983241187, 0.00669073145480549, 0.012441020663685718, 0.010980882139612938, 0.0017956181456884924, 0.02623580926958463, 0.02941379870919432, 0.008625895516543835, 0.004572511279529986, -0.010573596715733566, 0.010698741992884675, 0.0082422330270021, 0.013332187074200886, 0.018061839095874426, 0.0026570331497123077, 0.010950389127287782, -0.017974422369985917, 0.015970710866900266, 0.006579041438561738, 0.024121781956557235, 0.01253988262546013, 0.008642640093218452, 0.014982678739665217, 0.017845825576204857, 0.03390175768769903, 0.00473047653919844, 0.01584658866006737, 0.006087937928948985, 0.014644405980288993, -0.0004896619098079243, 0.024609547565544742, 0.006112045635768295, 0.0031599163428246836, -0.003006617034886638, -0.0018831746076333872, 0.00709468794420535, 0.013914585254437539, 0.01676781355588177, 0.00923044452563819, 0.011501320843195337, 0.014628518161258958, -0.01780432925522712, 0.006321381773005485, 0.010964342993225547, -0.0038655510292401303, 0.010104967943309314, -0.0024557127162350588, 0.011583650952758116, 0.016101580829333804, 0.021402416894288706, 0.025549204560481403, 0.0027103617149131136, -0.0008617920284936167, 0.001778225472370193, 0.001028176697325556, 0.02916669932970388, 0.008989261894640502, 0.005140513139808455, -0.005932666772576891, 0.011413388216487954, 0.01799410776405785, 0.010199016285739299, 0.013822771628551523, 0.016201512840554093, 0.009200981681341584, 0.012670699234926083, -0.008191640717005623, 0.01291274424538, 0.008072720999017905, 0.02651020026895399, 0.0027522432190490724, 0.010606359871521276, 0.00873981373017784, 0.01671950167003493, 0.02661550214467095, 0.0007559441120638952, 0.0043442348180448885, 0.004382077884280472, 0.008975346226972072, 0.015097669091851961, 0.026732807024217608, 0.010211544413063234, 0.01285724282590265, 0.008048125250588206, 0.00035593174933076213, 0.003012465071601633, 0.0023312579151020607, 0.013204290544602409, 0.017791168313624598, 0.013941124974990468, 0.012248435498856168, -0.006306586619238931, 0.003524053041704339, 0.002964531728506024, 0.023719308563627813, 0.015849849107356893, 0.024848989058996206, 0.005808575953971569, 0.01659829415858649, 0.028545037561395762, 0.007093883084840902, 0.006742035688357079, -0.0035624257931967437, -0.000926268874064462, 0.00543131986290869, 0.00949757504951626, 0.0204251985383334, 0.016157231427746915, 0.012643344593017615, -0.000229509015676626, 0.017888031122072764, 0.009881020993270458, 0.017194959165995397, 0.025754067367555936, 0.0066524147309621915, 0.003267730191108458, 0.006382556403297099, 0.009072949542336409, -0.002018494165558193, 0.017156587203055563, 0.024260473712590738, 0.019915758608109926, 0.0037071696342005443, 0.009143360755086096, 0.019835880807903463, 0.012785812066330704, -0.005017066298541664, 0.006030285908747268, 0.010859875357161625, 0.00969807368662301, 0.012854842399072535, 0.011125523513884307, 0.0011117412726210554, 0.007988947207735637, 0.012461399706089187, 0.008963279634042786, 0.010398283377945235, 0.003891301490506546, -0.001162104741756929, 0.013568280152971119, 0.01221154552794895, -0.0024740693270929068, 0.01824170122577261, 0.011868941627799492, 0.025552346733996083, 0.016395049115625098, 0.0019637881950868097, 0.002687635887067678, 0.004885955578998171, 0.018568091974038314, 0.029096376771712475, 0.0015145125719365723, -0.00645868934011239, 0.0017569681357762952, 0.0066283024594924606, 0.024278807256464516, 0.014616460234978894, 0.0007521283374547893, 0.01760894904387879, 0.009620651523728454, 0.0057340880315444355, 0.0035837450350374054, 0.009326871664378, 0.0081171637717543, 0.012846635360225005, 0.01090056151069072, 0.00963112742674816, 0.016000763021268107, 0.007337934042601113, -0.004170856872106382, 0.005699392070823863, 0.0035292125790617533, 0.013399599436962005, 0.011539023974198186, 0.019281172545775122, 0.013768859875916998, 0.011791545805974139, 0.0073394620360388635, 0.013746601011398333, 0.017942902415167404, 0.02759554230731321, 0.023223180571549713, 0.0040233066968010725, 0.009830976061293321, 0.009845723010836247, 0.006038566724120993, 0.015487902896293553, 0.015506016642013818, 0.004507022847439438, 0.007239940066744002, 0.00905272151223682, -0.0026556496794108595, 0.017212231755733783, 0.0049077466283453134, -0.000590320791925045, 0.013301560145805533, 0.005652509426830092, 0.010960004171000091, 0.015186874619663662, 0.03480728289280378, 0.02125344069306582, 0.01671798798804816, -0.009259401425062756, 0.006399259479894211, 0.017470909687566396, 0.020669645997471762, 0.026367892246363253, 0.0031018930620222963, 0.01746868342069009, -0.0008435699656444173, 0.001530319689310166, 0.011335033734246923, 0.015244110399077951, 0.020133466063798882, 0.0027894273724067263, 0.008715720687691346, -0.02282480722619732, 0.012663847713293127, 0.014591148253328188, 0.00991696739394642, 0.01497962176146531, 0.010969992249093941, 0.010170880413931676, 0.005364172502116261, 0.027803781540372486, 0.012290391472657444, 0.007792904339106939, -0.009670820859977343, 0.0045398854772716315, 0.009232500243874005, 0.027120726659713525, 0.012067645042046533, 0.009723374832664743, 0.005019482019035491, -0.007526065518320187, 0.008698771867760626, 0.015656899270150997, 0.015423389360649853, 0.0189540902432199, 0.012203908730616794, 0.003657315819145279, -0.00950425628116147, 0.01672572645365707, 0.004353317496072553, 0.012410947526999151, 0.017001974034989698, 0.00568844322541096, 0.012510022271449373, 0.002765967046439607, 0.021081173805602857, 0.012741254739048165, 0.0037159452514979336, 0.0024169635167944187, 0.009045765282562743, 0.007618039563334452, 0.007356373626246319, 0.016093731429175553, 0.003640695777006208, 0.014979839233913043, 0.01114672441950659, 0.01673508089063852, -0.00038224066576303015, 0.007831598596984036, 0.01078915312741881, 0.014843172125315713, 0.015373305588763132, 0.014105795752907714, 0.014228469344108787, 0.011397096631239247, 0.0065519749306912085, 0.004954536186778776, 0.0002681196017845735, 0.004664307679911964, 0.019131629243374228, 0.016671948427906425, -0.004063486329898312, 0.01271513393936441, -0.0036730225001132977, 0.0004989915540297092, 0.0066011534310003, 0.031041679771427255, 0.007381680684042866, 0.012660755105689536, 0.013916661053622863, 0.009778215815174667, 0.01443564721989284, 0.0010619634896799548, 0.003341061827505563, -0.00041156807969173543, 0.012039558253796472, 0.011953411959150197, -0.009692477652486549, 0.005066591999348141, 0.01535174749316203, 0.00740295979836791, 0.017614321034231602, 0.018127496485902617, 0.014161925686084804, 0.016183089048799764, 0.017925122313972613, 0.014262317648108307, 0.007201663379388635, 0.004364270786531002, 0.005458319603566823, 0.0010387240004530052, 0.02245528415690654, 0.010120449570478394, 0.01380511591559886, 0.009578251794033894, 0.022436126204849853, 0.016474891155537068, 0.01939358510796547, 0.0072620499896044405, 0.004614204636430159, 0.0014032739848072154, 0.012208054250391136, -0.023444530596852572, 0.002625768662650419, 1.1750179253030126e-06, 0.024034945928684655, 0.02120165506393087, 0.00863264743185528, 0.008359138599851053, 0.018759610796069907, 0.018197048730342672, 0.0009691525053795865, 0.009598850797688704, -0.003859930943285648, 0.0013228606067697787, 0.017984156225367382, 0.015378508179783836, 0.016719537995725786, 0.0023731013390789818, 0.007696903855723799, 0.011390235645720033, 0.017388535198225058, 0.0024729685748839762, 0.014659047977161579, 0.014124834520383128, 0.014436962240935589, 0.012552651041693784, 0.0011371623399356048, 0.016354294503511863, 0.0011353434521942502, 0.001508048520160182, 0.011413172862941811, 0.018013774501283705, 0.01757256219508044, 0.011363337842613716, 0.011595552143077012, 0.0015403137192724922, 0.007649803181669562, 0.016697745129267024, 0.013936865284422008, 0.0038316014077337166, 0.014776111538440542, 0.012596973747536868, 3.792546243418876e-05, 0.013548130763761462, 0.012437606405235753, 0.01111748610813957, 0.006626120202514694, 0.01629924917073758, 0.014763228561423931, 0.01552663619934998, 0.007446350905551211, 1.1426543232017137, 0.04235968729263994, 0.1563254313103592, 0.08259502405222681, -0.17099056719681674, -0.19725202853393575, 0.01748243911553072, -0.285780999991452, -0.06753095095088693, -0.0661590933069843, 0.32896437692582475, -0.19190343651999386, 0.01280164758950474, 0.0021185563316959114, -0.2178219865317, -0.057217746456675114, 0.000814272262825795, 0.015677903584415325, -0.5147134481493233, 0.0021950600376858262, 0.01250265214089623, 0.00030347661067569426, -0.185040132894433, 0.046071033909687524, 0.008819846190675471, 0.01666048141714821, 0.011032584114510713, 0.01683780973667937, -0.48956663079617635, -0.09437153368136156, 0.12866491859026205, 0.01162345283482784, 0.010376031146349184, -0.18689299281061703, 0.44446948464283353, -0.07415173189717689, 0.21786901854493868, 0.0035883869471662294, 0.29007677603370197, -0.11153939425922371, -0.11006287964791985, 0.0013792417429156082, 0.017001348475211366, -0.06917096097184744, 0.01514512748229481, -0.0010579354757603607, 0.01113586893088462, -0.1158900643078869, 0.007008799903531135, 0.00617429093759461, -0.15190280633045805, 0.0032538147737667545, 0.011917896129045468, -0.07212068277781022, -0.10923223408793972, 0.028957884428145023, 0.007804234874546543, 0.21097169531712642, 0.10501375916734575, -0.15955730644010727, -0.04627414053917116, 0.4544655371023525, 0.022268704804032813, 0.08420182560244786, -0.2557336462891784, -0.1158423393144802, -0.002115685716391932, 0.0013224517106136162, -0.003141485526552114, 0.016505310503875346, -0.02163896224089605, 0.0051834714260153335, -0.08465877379553473, 0.002446912918992021, 0.010383873004523245, 0.23654173812442097, 0.0004889503747645913, 0.011527350472089786, -0.5688470030782399, -0.13674237601797898, -0.10400742845016048, 0.012311701773824638, 0.13809437039643727, -0.1865407497185911, 0.19520292238423512, 0.18172327675417518, 0.4263014009981736, 0.015759971511619175, 0.03447654789186437, 0.037873661912520874, -0.11337153524211518, 0.013762650057108446, 0.01916354498538076, -0.13253654577770949, 0.017774820440077273, 0.006412091501257279, 0.012198888588043136, -0.15980167506185758, 0.014995832418078878, 0.01640992767289692, 0.2142590201157961, 0.0010708844486503105, 0.16245081209226622, -0.017051630642918463, -0.04063260184533749, -0.10409075552203129, 0.01760682593379157, 0.2778554852900813, -0.052802929126231225, -0.20618739355135993, -0.02086603951664935, 0.03597168684771738, 0.07301448961494594, 0.015410833698286929, -0.3082619055388055, -0.14093777875441352, 0.007774961449429251, 0.01629366444253233, 0.26961442381017275, 0.012041252149477289, -0.04989011979775299, 0.0021783015866280687, -0.24438356454093646, 0.00812423473696526, 0.01359221623673247, 0.6241470246651808, 0.01615236106078504, 0.012614737037792012, -0.20039829977948742, -0.10034231843347376, 0.029825760190808924, 0.004479755701758196, -0.17715872823430237, -0.5128772066531123, 0.21101206047471166, 0.32155945427410526, -0.41084058409949675, 0.013008893283359364, 0.05140954385467102, -0.15240555712856588, -0.19327743661833874, 0.0008257471530390842, 0.004113677810402129, 0.22237917076903993, 0.007724578446095404, 0.005328622616343698, 0.016144529177660186, 0.15692241877821073, 0.011843922130647245, 0.012921743284973752, 0.4721957220451842, 0.005106576342582026, 0.012070665204953545, 0.10525375279570022, -0.19944565460517874, -0.08880248686061261, 0.06023660083627148, 0.061908952399690124, -0.2647986691993505, 0.10777637257070465, -0.009284329098807689, 0.23462897228883678, 0.014864455017205777, 0.12709139795783014, -0.2975435295346977, -0.28130673206696427, -0.035889850099628216, 0.017960757783270765, 0.21229538410717255, 0.011180872126785438, -0.14546401293947625, 0.0005914144669788684, -0.14471157416775268, 0.00847807580355812, 0.0061684599822395035, 0.46238065696888303, 0.007257540706015308, 0.004059211606111979, 0.10996648429656705, -0.05323512251985618, -0.13370344803095302, 0.11112523870339826, -0.006008629215257922, -0.29268349794623694, -0.16473815790485874, 0.012502151625331269, 0.31171529689563643, 0.009127400115945362, 0.027157013938176204, -0.0898131292655344, -0.18756236858026948, 0.01160004996242389, 0.010995783912726114, -0.0839920275356114, 0.003268661809555607, -0.03881558828869473, 0.001519208016176939, -0.1549263582759584, 0.001944334152108708, 0.01685957130748144, 0.39284474843368256, 0.016370768539890373, 0.011984950269612108, -0.021625432569682756, 0.11624863275208994, -0.25978119523682447, 0.006903891165151926, -0.4036767222007342, -0.43946596221316875, 0.33916267668749556, 0.187571053983243, 0.3304957480678998, 0.018069669208448737, -0.08554291702690955, -0.23738653587691363, -0.04973334112076516, 0.001969334953080703, -0.06603209268684997, 0.12600329589562548, 0.005374785970544257, -0.03509058729068836, 0.012934054530970495, -0.00835102982309905, 0.005761689499449656, 0.017061547537212823, 0.04738211831595106, 0.0020408393546611624, 0.01779534139725867, -0.1867553282394687, -0.13691500487293562, 0.14551397526416696, -0.0380212312378491, -0.2314672347188549, -0.028661637016779845, 0.18713330657112398, 0.06835778731568265, 0.3906751846774049, 0.01774159641801011, 0.015862042367446014, -0.3145563924808364, -0.0021483577374866937, 0.006207473919491065, 0.07550897840522007, -0.2187025406818853, 0.004166639478845574, -0.01152125979282013, 0.015273365339241741, 0.10236222842465181, 0.0027748221706290015, 0.014475936839997528, 0.6269830335954891, 0.0014296101603362078, 0.008835524083546887, -0.23042281691060038, -0.10115070323305983, 0.12080310975584595, 0.0071670233541370094, 0.026710467383648327, -0.346459900997672, 0.1851796924484235, 0.06571459142298196, -0.17143027911887534, 0.0125159591506056, 0.13495539099052506, -0.2706074862831957, -0.06115637666479024, 0.013210838798389468, 0.08998425281887801, -0.2942350382246026, 0.0179875298625331, 0.09530242210605125, 0.00873161551677096, 0.016378645356455435, 0.0014079236716371556, 0.014644703464116171, 0.15682474035531926, 0.004346838459055141, 0.01084622926894289, -0.08168284391543945, -0.10775132151094059, 0.06748193518587613, 0.014579701227414971, 0.4036228365412067, -0.1707377146194227, -0.005528388062924325, -0.051955941081266305, 0.09260506239884045, 0.008415318917474357, 0.05845437005046179, -0.3142625775938706, -0.39410347392435274, 0.052185218348724804, 0.07159343380509128, 0.2295206662397989, 0.01385791088342559, 0.05430351655117033, 0.0006518883803098355, -0.16704686574493205, 0.012240898905798343, 0.016787956069249745, 0.4252498626234158, 0.005707728938083876, 0.015819020195523108, -0.22515665582424038, -0.1855503775555812, 0.24375514790221878, 0.014533979443855935, -0.2516806290872753, -0.4602695872696222, -0.10214111936680813, -0.2558640667261505, 0.21138154428943617, 0.008365975365020577, 0.23259117670319165, -0.130868680385982, -0.024451230182129538, 0.01681406803188876, 0.2829270262434692, 0.19213381183599593, 0.004918556480222633, 0.0010387251324516724, 0.016540383303305716, -0.05126255065164349, 0.006999146891858388, 0.017207483012507553, 0.5447086314724263, 0.00401041421826793, 7.021745748284395e-06, 0.04696564952810504, -0.02819965637024193, 0.06973001924237547, 0.009561268061301566, -0.0017438384734164247, -0.23030779799259174, -0.19343946411429594, -0.01939705634625403, 0.03511540845735907, 0.0005551335081268853, 0.01247513753003746, -0.3792472669659652, -0.013396126962762824, 0.010553999677183462, 0.2140034171029012, -0.21156228755168027, 0.013989613912721082, -0.05236218732783827, 0.0015529161029563252, 0.06169362087129139, 0.00026825289899005467, 0.0036824631621540167, 0.4271582524327939, 0.11393630717073264, 0.009163182997223488, -0.36017441562399527, 0.10829631645327942, 0.0524071619143027, 0.03667354534979343, -0.04997991162062027, -0.4111150088945234, 0.17480949077840444, -0.05118286874810393, 0.18490829194040642, 0.013147667736892837, 0.02278332022530881, -0.26856037328950344, -0.23811727921001555, 0.011302776814282175, 0.029611337744016232, 0.08039044697712751, 0.007089474008835897, 0.16559494844733946, 0.013201678968251118, -0.10205009787627653, 0.0032828404131918193, 0.008509649874425035, 0.466934768962136, 0.025832262152770596, 0.01135742832933726, -0.335601756590321, -0.06383013281052055, -0.11525059144775762, 0.005636362208648398, -0.08080695549078892, -0.3956416749841457, 0.14446360347904222, 0.10891262528625675, 0.12227001161597885, 0.04247719065393246, 0.13851367031452397, -0.09414431913960117, -0.21243850109576798, 0.010163395296432055, 0.0007903457785610736, 0.3177003648919749, 0.015311787035502513, -0.03940123447560373, 0.0028432137311624407, -0.13864566643893217, 0.0040791464102694856, 0.000433377555236061, 0.2393485756191101, 0.004606247072812039, 0.07369437543952785, -0.27206118056307166, -0.2432706821933856, -0.09146770982415862, 0.010409734177272681, -0.005335577399851687, -0.19904461318900316, -0.07132263524704704, 0.293083848383495, 0.10489351059810459, 0.0273606940830491, 0.09044329963170966, -0.17643227123236085, -0.05021713236147149, 0.00131530536120055, 0.0360448938844051, 0.03434583612168063, 0.01149724700979083, -0.047140269435001686, 0.003491012428081753, 0.15481213151795614, 0.0006468114968270871, 0.0049925932299656785, 0.4721322121534385, -0.03228222405710523, 0.0002995253483583933, -0.27121399939315627, 0.09645211236552882, -0.03922439674218462, 0.014048885611225519, -0.0033547894368339006, -0.035013568182157104, -0.3787355192989156, 0.12289789266524351, 0.27010161221309503, 0.01065430990220261, 0.05433789216841335, -0.27387207392584295, -0.11564931622031577, 0.001425177976986036, 0.012787033369910203, 0.11068750045020366, 0.005522368574946604, -0.044653501203398, 0.00555467619822956, -0.07825715485131463, 0.010804846710868161, 0.0015063276125925238, 0.13937599062907935, 0.009968833246058007, 0.08215361710253265, 0.3307746920079308, 0.034396039868743615, 0.08627859848506411, -0.035238864441188684, -0.09624261978650427, -0.08770699887548036, -0.045240591980544455, -0.054734661452652544, -0.16187849570687024, 0.09980198856082698, -0.09170902830812963, -0.19648880202783414, -0.09766505468778028, 0.00906948102981667, 0.006017198038324734, -0.057248506261703254, 0.0022739217667375002, -0.003296326350304406, 0.019273839538213742, 0.003880329336207433, 0.009820552564929565, 0.001988329615664568, 0.3063761735720995, 0.0003323882688787729, 0.001395895829687177, 0.1822354019580821, -0.10624959077802451, 0.22809849109607558, 0.047639128517186824, -0.03875632806189857, -0.35170291630204015, -0.30025977088328165, -0.04353978784783734, 0.22997627323061978, 0.011400530575113244, 0.019056881105262977, -0.04046015893261445, -0.18218815858447673, 0.0010011202495983295, 0.013480304726378576, 0.1576932703751935, 0.015152630358980698, 0.0063608416031782035, 0.0006493310470536497, -0.20936004562835356, 0.0006740643552501299, 0.007571633648967593, 0.6500271842451298, 0.038314235406812495, 0.017869157262415183, -0.204542242108442, -0.2427741496241151, -0.20982591127223862, 0.01075002110236844, 0.18466067197971023, -0.27989925296266976, -0.04712109803307935, 0.04910131373119303, 0.28517547950395933, 0.01205754199728026, 0.06370267626239838, -0.505592538929952, -0.04449933502445931, 0.005275117889649912, 0.017605572433490164, 0.3617134676470004, 0.01049997347488739, -0.22314952661583726, 0.002687485077562979, -0.004320269010718099, 0.006077783773688537, 0.006715583860199233, 0.3479761964506297, 0.003303484815233644, 0.011794635222463105, -0.19201563599791394, -0.0716972256242507, -0.054864839598207274, 0.006223320186458699, 0.06685458065592188, -0.24395382792788822, 0.07601652746257868, 0.1635432717525197, 0.16045903923339566, 0.009519171643890472, 0.0113710754625369, 0.07547969961970376, -0.31696029198385745, 0.003383661445490313, 0.0009562672008178364, -0.10032748149435879, 0.011807349542463588, 0.08168070658353141, 0.008318315693266168, -0.12212760364537631, 0.004663113658567837, 0.01584742455572712, -0.022502989352139856, 0.015130276866976045, 0.0031538123731643802, -0.2747797917343361, -0.016710381258837104, 0.41697097405551803, 0.029481995446703133, -0.1178779042639708, -0.36957476500673153, 0.314694109764566, -0.1502212590550994, 0.23945067616636875, 0.004495566542703362, 0.0960752979241048, -0.3491081073054269, -0.04938987908151246, 0.013177767076591459, 0.043188519879294215, -0.03192975505342242, 0.010535190950546478, 0.005070751703971146, 0.01897366773214789, 0.10065311136358432, 0.016810353334244736, 0.011348017346750386, 0.4712630908499281, 0.0017969207771224257, 0.005928709458116105, 0.07779218507181818, 0.08218458977861083, -0.062489529348173735, 0.09661711280604775, -0.04372192059386428, -0.2508422843504003, 0.025999030493822326, -0.11887168001792452, -0.1518940187262908, 0.009641484306596487, 0.0816262893705223, -0.2484895425899752, -0.09913134797577208, 0.01389176542643375, 0.14652871012751204, -0.1274675858373103, 0.016241386256673228, -0.08902003444835724, 0.0018470327434280016, 0.06758452329473603, 0.0004984127622369931, 0.008908423563786934, 0.5919447182501946, 0.016828804592462332, 0.012122693786672089, -0.4911857157812623, -0.12248798334434335, 0.034440151258653205, 0.06797298762410699, -0.11952238345771819, -0.043746254215033926, 0.37217155519807826, -0.2544111040019051, 0.4752231938885898, 0.0017493959869763825, -0.05564733262024801, -0.36328043646067026, -0.10944796873224488, 0.017530063676886528, 0.011823024412077835, -0.11831211971569518, 0.014456881944732273, -0.014427797550028055, 0.002772027018347291, 0.013598391004318965, 0.01440830795070383, 0.0003949545361554269, 0.00536986917308485, 0.012455513022147998, 0.012195400405064932, 0.018014966488432874, 0.001577917268093346, 0.016321854437570473, 0.014367601214024363, 0.009230316006619128, 0.011596603145904815, 0.01630596381448848, 0.005902397249308253, 0.016509899924065537, 0.016826130785185116, 0.016759049175492445, 0.009640965817728065, 0.00635668214338997, 0.01683802021755084, 0.009256060964947736, 0.018046083856562534, 0.016194030436203235, 0.005007665745756319, 0.011015532860706546, 0.013844568090318848, 0.004126738009276876, 0.006009156772943063, -0.18013586979568594, -0.005011707376840651, -0.0016443566376272132, -0.010384042239671877, 0.051817162942606985, 0.022203015164414763, 0.014766253804093805, 0.0398474596772981, 0.016704778293907197, 0.022560450673536733, -0.04642934016824335, 0.03274929567629697, 0.0008535525283793373, 0.002988797350411654, 0.05228608056920699, 0.026313011820357533, 