{"layers": [10, 2], "isize": 650, "weights": [[-0.28118312882474245, -0.06816855653029559, 0.019147686554844986, -0.07607939435877176, -0.06099143945387471, 0.0881739650596501, 0.0013715395172653193, -0.022934113278578513, -0.025956032452068522, 0.11549519201334157, 0.08578860943604037, 0.0446401106539488, 0.04813056953249982, 0.03234944534931409, -0.09873164541569156, -0.011451773332106324, 0.001953119171502794, 0.0013355351640918854, 0.06511380513153711, 2.7709950056364504e-05, 0.0004135272881551829, 0.0022274368170866364, -0.022120246968931886, 0.015315703305900057, 5.593147186605755e-05, -0.10038716075911717, -0.014977716289333549, 0.012440793122679554, -0.13385207706002208, -0.0428317897124315, 0.017017607267205907, 0.0002445870930308215, 0.005385323702405827, -0.05289424191201027, 0.14506840462411577, 0.10959082338134084, 0.057735140217251804, 0.0006761827659220961, 0.11645108997839794, -0.01836652452603947, -0.0035728573080419965, 0.000853674971924357, 0.0009707389801386358, -0.17905502428341447, 0.000379144713167864, 0.0023724730311501427, 0.0008888285356714636, -0.07623156373589408, 0.00027926281905840417, 0.002320017824627505, -0.052108059490674354, 0.0017516199880838537, 0.03309311431635474, -0.11229697947741975, -0.0031430261506241045, 0.1080282543068268, 0.00226051347230831, -0.14436031614737485, -0.06690576201570578, -0.028604666050915533, -0.07672694411010485, 0.028424538229765747, 0.028564023057058487, 0.03702498764057907, 0.014803680442394577, -0.023470845075192575, -0.0016857646927463225, 0.0017126309997843338, 0.10401439873495685, 0.0007808681829055808, -0.006253874516685574, 0.02783082235460075, -0.015264377546989298, 0.000184008972362674, 0.0011143098433823394, -0.01650570993902315, 2.0103265224196908e-05, 0.001849499634136036, -0.11348221574849739, -0.024687776859658412, -0.01111885474343449, 2.3394231004264657e-05, -0.1048782539461519, 0.03111876256169965, 0.07300994402528635, -0.040239188211734306, -0.006640715901364118, 0.033667839736625294, 0.10926941136348681, -0.005054748702968985, -0.037693293215385615, 0.0008652395862917778, 0.00468131952384194, -0.03762316847132638, 0.002329032771103952, 0.0021964391753750297, 0.0010358644884278254, -0.007792984029834597, 0.0001320318543441421, 0.002047484317371443, 0.12377088329820018, 0.017550344299393714, 0.01730257756785091, 0.13512920825675934, -0.08526106732649918, -0.056488378892987655, 0.000576066770612783, -0.19444773556355385, -0.03796761664865971, 0.020291351513080733, 0.027092787432238537, 0.03644120697914744, 0.019265490370231352, 0.0020199809328247703, -0.06843330469219919, -0.07187667580273979, 0.0004768139646907196, 0.00024800424250121146, -0.05089859990932903, 0.0007103141486857735, 0.0012887108687124242, 0.028385153964084812, -0.01758088133380903, 0.00225018164514254, 0.0020586397863968783, 0.15632727779482034, 0.005328643257117903, 0.0023049564109368778, -0.009622430558698727, -0.05216561389307515, -0.06708420271054294, 0.001561283362555769, -0.2065402898369006, -0.12807377192238664, 0.007058655337694534, 0.03091113029861081, 0.07954863891114201, 0.002036365867471275, 0.05015228500683216, 0.011435998039712415, -0.014668291750008514, 0.0018185123584926383, 0.0024033880190439546, 0.008825584717956202, 0.001141093777548003, 0.020085245339491915, 0.0024050251639233075, -0.04679105884010543, 0.001788973415737238, 2.886735649486273e-05, 0.09701777792256026, 0.0006292194653501071, 0.001583157404893606, -0.01892502127691717, -0.07029568795990074, -0.020911690945366393, -0.024057346072732466, -0.1875861892820431, -0.05638551962104578, 0.1225707791940217, 0.07529432051703652, 0.11954812882620092, 0.0006070018990146309, 0.0375165777688778, -0.23421085163548655, -0.05703332566464082, 0.00037657539455988165, 0.01944688259927317, 0.09990551429570915, 0.0019311094674209464, -0.011563126271446431, 0.00014407291400105496, -0.04646031561622067, 0.001523120035439609, 6.001514715427008e-05, 0.06782386993982628, 0.0024190111601197282, 0.002059869085026304, -0.059105254905256574, -0.0705597872079768, 0.09064628950173123, -0.018109888341153187, -0.12975831832475648, -0.13742646030815847, 0.09614086592681209, 0.014588209099979129, 0.029762947306624644, 0.0007197028644904394, 0.04020118847138653, -0.06444683980885522, -0.03333385630478959, 0.002208889139092006, 0.013056353212292909, 0.08803183959769259, 0.002013958303437207, -0.007498119605348173, 0.0005499224546621213, -0.07356635602642711, 0.00041197917573001537, 0.0018489951850731675, 0.14249976275020496, 0.0019513257927535818, 0.001925923049976312, 0.037340492189038656, -0.03776469180002934, -0.029589583753229516, 0.0019064764509483206, -0.2761955887790169, -0.06712948167770515, -0.023851370846310848, 0.01861512169598257, 0.05443969713989828, 4.257240232195303e-05, 0.04621370557936523, -0.014649753344971228, -0.000697624071977989, 0.0007247976016585879, -0.018041145813647536, 0.04649462130577287, 0.001999752416222772, -0.0056594157513414406, 0.0015848915771134947, -0.024742944116438403, 0.0011337482286186418, 0.0014402181462424362, 0.06141805506024813, 0.0010415868783862435, 0.0011290849579204015, -0.045963623937296416, -0.038394518831377414, 0.03030925140648623, -0.010499697038698937, -0.04232952962269986, -0.024146060803684543, 0.04048151064854922, -0.07977728292699461, 0.031129575699359067, 0.00028830028985534054, 0.001448836734293924, -0.10098961243286676, -0.0012068297140405344, 0.0018272928272114659, 0.030764503647585033, 0.018075210649929646, 9.763350516938776e-05, 0.0004787677657143132, 0.0018275380391582648, -0.024876883396757244, 0.0002833565976813206, 0.0016412593741190627, 0.10338162863682301, -0.05395625577210956, 0.0009589733679434989, -0.07977960813053116, -0.019445457072008624, 0.09219435299504751, 0.0022291289417276645, -0.22336607246414056, -0.06991357998564465, 0.16495025088749501, -0.027938343707895993, -0.0764743484668089, 0.003340453290939989, 0.08216020805319295, -0.044675192030635684, -0.06719113603658827, 0.0009259362587988025, 0.08369210771625107, 5.491579560323028e-05, 0.0022234929605130867, -0.01196157248569481, 0.0009401496650919364, -0.008691613047118447, 0.0004735269664356777, 0.0014482103509817496, 0.02507875157207126, 0.00038384136022204094, 0.0018603992174560896, -0.04389978438467316, -0.0036581307765752706, 0.0335061727618514, 0.016017463664076446, -0.09465889364227173, -0.07336087745293125, -0.006278102635811936, -0.09431543904523632, 0.11076593242657364, 0.0005465111943435991, 0.08752746493361005, -0.008466937009443537, -0.08004544602166486, -0.004965597267817964, 0.04602068875615611, 0.03613595151968597, 0.002116857739497847, -0.0291179891727296, 0.0016172050325722802, -0.0698220316522146, 0.000673391691324177, 0.0007684791888371909, 0.10175309826725044, 0.0004976184233244359, 0.0024228179990101626, -0.12379018806094867, -0.065414167925582, 0.07018649202596312, 0.02034062237376893, -0.19343637527010163, -0.1337554797139684, 0.05974687166118915, -0.06139847988988, 0.18447227332009689, 0.0008663814151839376, 0.10013186529691541, -0.037854345117470954, -0.01576508096950106, 0.0022105317553486946, 0.0054100809533018145, -0.035930816301558935, 4.3361869764567464e-05, -0.0001378123007681147, 0.002077251725244483, -0.02753080117515074, 0.0008135671938509109, 0.0023982526988979547, 0.09641258645677668, 0.0010837689719276895, 0.0014566438603590174, -0.11948234876261679, 0.02108744804687695, -0.09694921976228223, 0.0008606289428613637, -0.1795498562787842, -0.06319448150508189, 0.00588891712707632, 0.07926214214762879, 0.07796613157935467, 0.001277716542983008, 0.0009555392190352787, -0.016097670740473906, -0.00491574414500726, 5.015158929559231e-05, 0.029075482473948925, 0.04439698339201656, 0.0012772365384655187, -0.025370133536729452, 0.0001432794318989806, -0.002424516851194223, 0.0023678877030451862, 0.0008900717631161981, 0.1711599684636243, -0.017420425525827846, 0.0023029364920660357, -0.08574394643547809, -0.024996621307900993, 0.17708053181148745, -0.04468372316350869, -0.1950155248499419, -0.033477560762066656, 0.11852863430648897, -0.02028621349754519, -0.10815254051238427, 0.06036856243151027, -0.012473520403223288, -0.08227906491619529, -0.10730919294703199, 0.00047049912512361946, 0.026660550714468944, 0.05008360256884246, 0.001073015001142082, 0.007113065393149317, 0.0006716015593346164, -0.03031832947637549, 0.0009150855443023153, 0.001801487740321611, 0.0863475702178344, -0.008026677134650086, 0.0024147349191909486, -0.011978752629351582, -0.017048065533796716, -0.08368252651111474, 0.016065355809748234, -0.10334635562064896, -0.07716908559944073, 0.04249667888588287, -0.02638332775603889, 0.0019960649915208555, 0.01579431002759304, 0.03831000110199056, -0.0025059832327440855, -0.01730508728515803, 0.0007635815631626057, 0.005320190644491359, 0.024339236087213636, 0.0020601872762634646, 0.0022154751199213126, 0.000247611018760466, -0.0367870765627268, 0.0008141580481730725, 0.001642642254397791, 0.033390123087251686, 0.001018542709391092, 0.031188287724466003, -0.21384501061894776, -0.04243250701813656, 0.09497051924924231, 0.019778112840285987, -0.2291998267678249, -0.04524042785904391, 0.044796366499621994, 0.09011341154566135, -0.008416264797874107, 0.018890525855030996, 0.05051072437024326, -0.023269655822090184, -0.05749040297272743, 0.002386337873189234, 0.02376634407636167, 0.07528007534488423, 0.000405270984486076, -5.245921529438374e-05, 0.001032490829065576, -0.013480172043372748, 0.0008411642955524824, 0.0018138937960379897, -0.023252217469537113, -0.04660103741079403, 0.0008670386802720575, 0.018277911863309754, -0.026970443932021776, 0.04803348520646346, 0.0014132193874614937, -0.12248285190233385, 0.0014346776767068222, -0.003345377069274946, -0.04381316774185357, 0.014594477991129486, 0.028179013996705277, 0.10212593586715471, -0.16180163033408507, -0.05891826918559323, 0.0005003937455964884, 0.002168721651669095, 0.153500371858005, 0.00045524588332051434, -0.02465285502391881, 0.0003882630448164142, -0.01050375215893802, 0.001647525238930432, 0.002011285644707026, 0.04631711017937787, 0.0015620549534700672, 0.026762559303205886, -0.11410360904983893, -0.0018204056153528127, -0.02021823596031721, 0.0023053605768454687, -0.12507983778059015, -0.0010450812038322627, -0.04264591347804817, -0.17582500679343127, 0.08909759688515392, 0.032305506210991757, 0.038504897108222205, 0.0442514261391459, -0.004926662104418753, 0.0020995602310361562, 0.002227326472953994, 0.034394942044500734, 0.0004983264693945789, 0.0018155008721247728, 0.02716305123694169, -0.008523579949489428, 0.0007453971524408588, 0.0016441673586051453, 0.09030104322780594, 0.0017345598341193841, 0.02554073384720207, -0.03636432284735984, -0.0291791089582241, -0.021407762877525344, -0.008102307501957532, -0.25577515564075753, -0.061581543197644105, -0.020079745424871363, 0.0628376197678251, 0.09391294501379618, 0.00221515309875231, 0.001806275811354757, 0.024586560072868482, -0.08637459631148851, 0.0004418508733798497, 0.00042374065670189434, 0.07796595454403028, 0.001691617321787412, 0.009821761486673828, 4.8928030569817046e-05, -0.02189489068583249, 0.0006854539147771772, 0.0014100586246582102, 0.03888529450394941, 0.00014907269946121826, 0.0023660724696282736, -0.09880792154621922, -0.02007401142681863, -0.013676765115748652, 0.0013160675270623007, -0.23672932138627859, 0.03159207366941293, 0.0713371244007447, 0.01301985146276318, 0.026147055614385458, 0.001121212620236891, 0.048241026375016885, -0.040578668246131155, -0.002814884960722483, 0.0019483224576668137, 0.0022646048868977665, 0.06913136171098332, 0.0017172465436093916, -0.01802120923235923, 0.002400798793082385, -0.024801063590450746, 0.0024474027445058302, 0.0014444250453861827, -0.01488034818420068, 0.0022910891954441965, 0.000528526123105027, -0.10191810795668929, -0.04456665977125596, 0.08299776284771293, 0.0014444745357824677, -0.13541039108086114, -0.04377991944041408, 0.08311066057764666, 0.026927943613147914, 0.09210481992061027, 0.0019203924660767236, 0.0358076662568037, -0.02721831415161704, -0.09986602751974019, 0.0009491646582497346, 0.026032875861021335, -0.021818063763846478, 0.001409560483974647, 0.0041260855595702415, 5.9498021476139164e-05, -0.017106060225420414, 0.0016056005872660394, 0.0005196687015860941, 0.08546828497062386, 0.027720411035494556, 0.016123445898142925, -0.11265085799536181, -0.01268261340640855, 0.013141205960457265, 0.0019365262398701086, -0.16403546689425394, -0.06303020006700347, 0.09944141788008691, -0.03547469221184379, 0.05712778648746067, 0.0005226442256442592, 0.0322221776796798, -0.06952813865515105, -0.02112912621000248, 0.0020693858196935977, 0.008370670963187846, 0.029764168745559025, 0.0019942352328140484, 0.0019899817277271668, -0.03387525614469347, -0.011878026233125533, 0.000258651631184259, 0.0011250253217512732, 0.033683604537403516, 0.001266558153208026, 0.004428994707527316, -0.04635338690519082, -0.000720612981945839, -0.031527418186243314, 0.02077495964470935, -0.12646734460201992, 0.06901073330293594, 0.08474844510881861, -0.12299800104429033, 0.014587427443052576, 0.004874473465036614, 0.05247212114218451, -0.05003994569586947, -0.03143060291583043, 0.0012473175031771887, 0.04811535254496836, -0.07273364249779825, 0.0023818946437387176, 0.008162235825381225, 0.0020707008781749698, -0.013347190961490405, 0.00021862245222133806, 0.0011261798312503326, 0.10184935784946748, -0.035453091439605434, 0.0006295411505170677, -0.040848497939420796, -0.019107093384460237, -0.02254837210005961, -0.0025969885756141724, -0.0389188509435801, -0.07906174419074727, 0.19585597100447194, -0.10850412454119124, 0.055702029945784895, 7.86852783837999e-05, 0.006477570098654416, -0.05324310949965096, -0.013017886776821473, 0.00046429466894916963, 0.006457073803033745, -0.10395021643434338, 0.0001789645860831578, -0.010304718027009647, 0.002395835510053339, 0.013686823635560801, 7.505949530862638e-05, 0.0004668193997219711, 0.001909988018953709, 0.0023011784004186775, 0.0015212413954421916, 0.0017884043894443415, 0.0024442668256721574, 0.0010224407967166045, 0.0014757769658023745, 0.0016142058251978465, 0.002086837788761807, 0.001119822221498935, 9.050424682945655e-05, 6.65128290198467e-05, 0.001146726307863969, 0.001572361642876523, 0.0018711188719553427, 0.0023761714569540656, 0.0014055778358618325, 0.001162396648421101, 0.00015241107513971, 0.0015336996136210905, 0.0006835661980662196, 0.001990611837935586, 0.0015179529168644745, 0.0015619141962766494, 0.00015925585628142965, 0.7068151917342229, 0.21866199261723787, -0.04698046200233121, 0.2277808822320745, 0.1645885173614393, -0.2226137522614974, 0.0019625850196575397, 0.056878095036016055, 0.059483733781885255, -0.29608126567118004, -0.22714916156063394, -0.08518936438309184, -0.13599561938037924, -0.10424320692878934, 0.2775749457013471, 0.020130333310297684, 0.0016760276193571477, 0.0010857281377061308, -0.21101922733352943, 0.0014146622434449442, 0.0018033399354337712, 0.0010442848260669073, 0.04531777600588792, -0.033363152038101765, 0.001781416739078049, 0.26778759645213124, 0.04342131508050169, -0.03118066607363049, 0.3989183486961504, 0.09698647622859873, -0.07191793560901331, 0.0006614882744790535, -0.010199009708049156, 0.1445509645183718, -0.3837142185322711, -0.25575470510020626, -0.1581200911670388, 0.0019102678150167043, -0.322012627106532, 0.04079328113361487, 0.003682573431327943, 0.0023554220134613937, 0.00011735643598730959, 0.44251609711903506, 0.0019500773975523232, 0.0005681315844248749, 0.002371652736120193, 0.19997682055257177, 0.0004746771208283779, 0.0021393163322832804, 0.16831897278334673, 0.0018357631092318822, -0.08186290329636745, 0.27848145040613764, 0.0021699555318366124, -0.3566438145883169, 0.0022422781106662035, 0.4273119694460701, 0.18706132598121386, 0.09433406670870775, 0.23424378004162075, -0.08686407101277012, -0.08342077467947025, -0.09629689254794248, -0.03833755732454677, 0.04896292898794376, 0.004023013066031932, 0.0015898947678746227, -0.2681735215774163, 0.002069563731418598, 0.015421809704211342, -0.07570820729551474, 0.033949857702590715, 0.000273802652163824, 0.0015243229267616872, 0.09725382220136235, 0.0006168402665353896, 0.0004806877972983319, 0.31756743234313195, 0.05955585866225539, 0.012016310728936622, 0.001025960620823008, 0.27308023162442985, -0.08570456940533529, -0.18685606725114617, 0.13515654199788799, -0.027401845770177565, -0.09245370069139387, -0.31510763057100516, -0.005533208600245552, 0.08964159216688204, 0.0005375447631506156, -0.003638758201549808, 0.1228310622256884, 0.002241384807273763, 0.0016230982540172045, 0.0018151962108203356, 0.015284935357960874, 0.0019400997605075207, 0.00028214597959897906, -0.36932309177222966, -0.04533216977905804, -0.04892459819153024, -0.34245914299184554, 0.24949478571338335, 0.13589946160964259, 4.750105441702914e-05, 0.5046141517118091, 0.08900017584128372, -0.05556838915051865, -0.08119919577147289, -0.07268330730587359, -0.0487237046507528, 0.002375479912247662, 0.20129774090954244, 0.22002415118590402, 0.0018728570881075795, 0.0020260135500779265, 0.10377059132254739, 0.0005427178680165539, 0.00019337095399948117, -0.07631269383122531, 0.03887491370476206, 0.00048397603790200684, 0.001393389034070389, -0.44868130527166356, -0.004397218351735201, 0.00020776386328698733, 0.039141061843122896, 0.12351566952217798, 0.1435552432843604, 0.0010959129264366519, 0.5357505081430628, 0.39250555083379884, -0.004076030262770258, -0.07505522341457521, -0.21226410853203664, 0.0022867043352141478, -0.1330127554816558, -0.06502608635495502, 0.04399028847018716, 0.001091035886306522, 0.0023029662704549202, -0.02658887531076229, 0.0010886663899635962, -0.05254773786080305, 0.0005661597214406312, 0.14728595892727478, 0.001065456183895002, 0.0012347496925592164, -0.2879369854581056, 0.000601776396655881, 0.0024186744494668626, 0.04225134225225879, 0.19755140664590218, 0.07373236035657792, 0.07776914988083511, 0.48435038638383765, 0.1430013166973627, -0.35633836780938066, -0.21791042054861814, -0.34467900431512094, 0.0012107016582523884, -0.10090680277487056, 0.6966234843957624, 0.15978745258002094, 0.0019495630214816687, -0.05095015104108375, -0.27139470860330245, 0.0022088813386912723, 0.03004324017756177, 0.000892936455429227, 0.13689003594211951, 0.0020932664449481914, 0.0017518890422110608, -0.20783000454697656, 0.0020131597852935446, 0.00043121307304032857, 0.17709749549434048, 0.22184347651076256, -0.27300511342338996, 0.04753333031274972, 0.36930342204812167, 0.38073587503506007, -0.2510964524532143, -0.05432791586406998, -0.07433599746493177, 0.001115184643116011, -0.10995703085739941, 0.1538999841997159, 0.07724137572862948, 0.00012443830834917255, -0.032014018649275444, -0.24446057072833235, 0.00018165641761213138, 0.015182615306624516, 0.0016111402462948012, 0.21059093361984096, 0.0022763858509659567, 0.0018310507611865052, -0.4290436324446691, 0.0002619048724871409, 1.0950479490751867e-05, -0.08312427756329445, 0.08086249330639361, 0.08514536502106587, 0.0009572408199121569, 0.7970888972324784, 0.18356259711390027, 0.08592607514033743, -0.029964421285036905, -0.14262918598906327, 0.00027665800054964143, -0.13158091372040212, 0.032158079801161504, 0.002838633160330667, 0.0009512208423968072, 0.057899845610427346, -0.1882833662030952, 0.0019278246956260065, 0.02183837426046335, 0.0020057202147768997, 0.06093501925821916, 8.725589750121567e-05, 0.0018106070080706365, -0.14440223148812303, 0.0009556870115548438, 0.0009186558481941942, 0.1108999077852156, 0.10052520485651811, -0.09781415246388821, 0.026997672560172385, 0.07538716679480213, 0.05531236235013519, -0.10050215923531722, 0.2640596235811477, -0.0994297203797051, 0.0017379959527692764, 0.0021133639093275903, 0.2949243572826131, 0.002112549578720073, 0.002276900233167456, -0.08745322687474168, -0.059987791129180096, 0.0014051245938856646, 0.0012954774371502116, 0.0011723600220248799, 0.0610765356114477, 0.00017840462408302902, 0.00032563302883789424, -0.2846088008317453, 0.17312260008190797, 0.001348025076789015, 0.1855360154881822, 0.04263558065216319, -0.2681113772080712, 0.0010672780685227255, 0.6386416081681437, 0.1940328877266181, -0.44580702689298646, 0.07444563697861382, 0.1991822920292163, -0.003239315756761883, -0.22727495192749406, 0.09923818807958247, 0.20080246992962172, 0.0007171877400641352, -0.22802781452401574, 0.02204215118766747, 0.0023038828408030415, 0.03656124539393045, 0.0005075922505474541, 0.0036376277166630415, 0.0017366938281485104, 0.002258273022355055, -0.06411570343528122, 0.001560580890598472, 0.0013213521479647633, 0.13792987252849243, 0.005400346600142478, -0.10408939710233288, -0.04107571011683221, 0.23272968365539712, 0.2217136824820136, 0.05380896409712414, 0.2376292388222002, -0.31065830885299667, 0.0002848638805951016, -0.2521498631581715, 0.0013174362005363724, 0.21521378679302364, 0.010329240718145517, -0.131477521941914, -0.07854068430355947, 0.0006040600633163505, 0.07414846942431069, 0.0011526567327842568, 0.19978286731465233, 0.00020850311059529043, 0.0010099334625326647, -0.27553283601987905, 0.0011030895164259977, 0.0012705196902436848, 0.36402900591696313, 0.1841551367668381, -0.2636625182973988, -0.053603586780625, 0.5181244773419881, 0.36352939868921263, -0.1467232477912039, 0.19881447379326922, -0.4772773717508342, 0.0012276406551733094, -0.312905111944509, 0.11065171637386165, 0.025049516976612025, 0.00034980581967291577, -0.00511046702534959, 0.09035151678368979, 0.0012354615295108238, 0.0025651814775450397, 0.0005309818327945011, 0.0852812061962035, 0.0024181614507361566, 0.0002979176314919376, -0.23549233289084345, 0.0015413372092603038, 0.0018767450853961283, 0.3706280151523008, -0.07440494359730071, 0.26323716149712645, 0.0006395172603201062, 0.43767438022001387, 0.15900983226236687, -0.035552931396043146, -0.22551317784485325, -0.19152640618594333, 0.0019524223835810524, 0.0012881839456448717, 0.032016027501248524, 0.007022080678243833, 0.001530517091281535, -0.07607425980199332, -0.09746300318300626, 0.0006501121110367895, 0.07221892598825813, 0.0011816424222795723, -0.001187975433247208, 0.0011090934082614334, 0.0019651239602883857, -0.530230997138634, 0.04793693287602177, 0.0021719244989739416, 0.2567345269589097, 0.06270962527948491, -0.5674247200548771, 0.1333694779543813, 0.5451883370445512, 0.105883646428125, -0.30282782003567055, 0.08090610436331869, 0.32439391647027127, -0.1566342285051986, 0.049444965302505084, 0.2209264971576833, 0.3446128007928956, 0.0009697188368517773, -0.07355763324323829, -0.1645613514360245, 0.0023742817886023846, -0.024667217167695692, 0.0006578075447732279, 0.06070467639923164, 0.00196042936996407, 0.001720329245876514, -0.2891542048765464, 0.02571615435584632, 0.002287620236451543, 0.05933788683631681, 0.03394718749699051, 0.26459271849199134, -0.041534603879730764, 0.275334007269055, 0.21668221470295373, -0.07459208835349984, 0.08233213495112678, -0.027049544728662153, -0.03532935175978169, -0.11006372980076506, -0.019416491606553517, 0.039128300555688, 0.0010346715267827871, -0.003824590397889344, -0.07542465793690462, 0.00014763732643377392, 0.0022586639998748185, 2.658077712823663e-06, 0.09278393796743827, 0.00012405848884065927, 0.0017842639392949093, -0.09112441767828557, 0.00044088852763094524, -0.08901536769846466, 0.5753193127365517, 0.11252799059831363, -0.26649553183685437, -0.051962507372199734, 0.6677552434310456, 0.08809712971429291, -0.10269284501956938, -0.2796727047803502, 0.023255128090631818, -0.05007226916407633, -0.12316234598662115, 0.06048045661866786, 0.17293415931034856, 0.0022223430517761883, -0.061170686390399125, -0.20530587821273588, 0.0002586906416990014, 0.0019481452536103516, 0.002034135143269802, 0.030633929414572388, 0.00010363669783744939, 0.0002203405590412081, 0.0687882379995017, 0.15047900612876214, 0.0004980514014813393, -0.0772119545305982, 0.07310772328662349, -0.12425992540847756, 0.0016931632855799936, 0.3588236266333497, -0.03942914226007733, 0.034485045354761726, 0.11793231586796167, -0.050018973765873845, -0.0761440743458028, -0.2952727457368536, 0.4738339244084891, 0.16030295449941542, 0.0007204635447917713, 0.0008267635036835488, -0.4490311065891534, 0.001904603145336196, 0.0626251952868349, 0.000287251350844294, 0.020193868919981955, 0.0012517002584881438, 0.0011007551540518125, -0.10086155126684013, 0.0003180997756877155, -0.07439438194664949, 0.35943371254499984, 0.0034368479457083595, 0.03296456301035267, 6.357067485100149e-05, 0.31279606145096334, -0.022672499480448884, 0.1407130489082358, 0.5251400234919118, -0.2554149088227434, -0.08049998329669532, -0.09605216670233954, -0.15427415852130497, 0.011247054895019648, 0.0015483046485472438, 0.0012637732304031518, -0.13187585770588045, 0.0018800560396149417, 0.0011763096517373145, -0.08526306026475575, 0.02564964094131605, 0.0012331534028502884, 0.0014895125131681966, -0.23789845063743034, 0.0020815798100846054, -0.06946575008883019, 0.09495361598328561, 0.059308904447151305, 0.06427652896020518, 0.035785519445509596, 0.7134849399700463, 0.1730115733870594, 0.06196154849994793, -0.1846681371702859, -0.2697101542658559, 0.0016512476776529058, 0.0003196096078719111, -0.11243635155820213, 0.2514499191314868, 0.0023560146237792943, 0.0014451670066567, -0.21480508701593606, 0.0008386591085766927, -0.019925253496470716, 0.0020798965548761883, 0.05980283628354106, 0.001688292790317196, 0.001625835562196567, -0.11609534603723314, 0.0011856897919317682, 0.0016113274744461586, 0.2671082102725362, 0.04996393373285713, 0.011099397770571928, 0.0016604800297505202, 0.6279956464466456, -0.1326972254486085, -0.168646550753275, -0.021855485518788905, -0.05176364740181389, 0.00017766928122910617, -0.11652868302920845, 0.11298139540200734, 0.003955603710701617, 0.00140895643560153, 0.002353412168391422, -0.16399798475160135, 0.0014199955027910432, 0.049218151624827504, 0.002075514993461323, 0.05232366157748718, 0.001448750288060437, 0.002273606052195114, 0.016701460711578898, 0.0012832671645853552, 0.00017946060128937264, 0.3413423864412363, 0.10866129546373693, -0.22688648622152524, 0.001132405232476077, 0.34712116486132466, 0.14367723936162335, -0.2536345069564345, -0.08327818592759116, -0.27521484036598304, 0.002127315471703949, -0.10690288467592846, 0.043938480529489655, 0.3191468618147233, 0.0017580141074732246, -0.06936117393200598, 0.07126609718901626, 0.0008782909024154958, -0.008117142455859422, 0.0022504939081423826, 0.03792368793666393, 0.0007434658162317292, 0.0015330299617455, -0.25157798421805, -0.07951140078349413, -0.03747693251365032, 0.3345263003565292, 0.022702569648999384, -0.01382769723621593, 3.320271578564684e-05, 0.43818600683230097, 0.1274884445244838, -0.24749316000375207, 0.11112230803291064, -0.14914767907846752, 0.0010049678976915128, -0.08088716844546269, 0.17545871840124552, 0.0424182656255482, 0.001973699857164425, -0.009878016755775803, -0.10547986892816298, 0.0009880255170675867, 0.0020671109895933973, 0.12038417708603878, 0.0176446256451928, 0.002354398547315145, 0.001519012991489103, -0.08341356295641425, 0.0021935424627727096, -0.00414268802761548, 0.13461213080922724, 0.0005486249752145566, 0.08859815422153154, -0.0508243670723124, 0.3319822574591209, -0.26631553306821565, -0.21748615040811708, 0.4042984502085298, -0.01598886935130599, -0.00325422948176553, -0.1495827947680205, 0.1359520060379249, 0.07767688189774924, 0.0010909008934414702, -0.12186151422328406, 0.16169334007479905, 0.002235866683804966, -0.03888810303010672, 0.0012043581377683265, 0.025946629502085074, 0.001594919104808943, 0.0004849045462268103, -0.2927731037507477, 0.12155225522686329, 0.00204665147240544, 0.09112364399345878, 0.05022762234939433, 0.06092899315782447, 0.006830409395124157, 0.05430064699730631, 0.18784339183242826, -0.5643555561088094, 0.3099357346040644, -0.1116947868888827, 0.0018848114426157265, -0.00631532460424062, 0.15396799022618002, 0.032370526422749235, 3.504950671132732e-05, -0.010545337067139612, 0.327418696509076, 0.0007621152714389383, 0.02804629665381162, 0.002403601418959748, -0.03213809124803862, 0.00017658352924524142, 0.0015383963523656781, 3.64980663495673e-05, 0.0018716771652787915, 0.0009102225454387274, 0.0018003839793994357, 0.0010870659386025185, 0.0007216741265078409, 0.0022445482251850063, 0.0010920123155608733, 0.0008883165530780754, 0.0024407723294797984, 0.0014818609753053844, 0.00031808432251184226, 0.0019065954361522756, 0.0012725575331830597, 0.0006836389924576272, 0.0006975443191380863, 0.00042055116772883084, 0.0015684857266350302, 0.0002876112362144927, 0.0013381527435074138, 0.0016957240968281482, 0.00156902807817056, 0.0006272322784580999, 0.0005786023901235062, 0.0001838534984195443, 0.1358245265230863, 0.03292219524956783, -0.0059333784098369235, 0.03562573930429723, 0.03118513091380514, -0.041485412078820345, 0.0017972464729339509, 0.013198152272625796, 0.013235106737269901, -0.05252076772301803, -0.03946729566168741, -0.01932906237969386, -0.020152602243151605, -0.0142006810371059, 0.04884913683438728, 0.008372693708693474, 0.0008865759316487755, 0.0023513512268937197, -0.02673929733399405, 0.0005316002549338447, 0.0021692453909023766, 0.0018954153693716913, 0.013241249027634825, -0.0056306831165008195, 0.001555325035179052, 0.047073832391044144, 0.008580049242412421, -0.0037010728978050813, 0.06083010045719422, 0.022381100573649382, -0.008556883391085391, 0.0017263500584386987, 0.0004415740984049281, 0.02815188316868073, -0.06632814872199827, -0.05137704519054066, -0.02437475493960192, 2.3451221338007147e-05, -0.053483948682498964, 0.010875018025227497, 0.0028187727997956587, 0.00025780895826602225, 0.00039634117434783676, 0.08932925544790891, 0.0017956610729602405, 0.00026470598425649137, 0.0010217477506097887, 0.03867095374992365, 0.0011727362387244746, 0.001722610688288189, 0.024646840992696338, 0.0014144006153603127, -0.013968293846460181, 0.059059377608339056, 0.002347220783206721, -0.046786519868576994, 0.001101938214579704, 0.06613274689663372, 0.035256746335021225, 0.013107100064842591, 0.0381793299004995, -0.01218743077556167, -0.011754820130176698, -0.0160990260620351, -0.005347756112881219, 0.012416773351685118, 0.0033572182076226473, 0.0014169688521927957, -0.04522863034632114, 0.000819010973349072, 0.004478414799841831, -0.011281719366155159, 0.008145987558782859, 0.0008765683313278423, 0.0003779128841864409, 0.007239679169068817, 0.001008907699337453, 0.0011049598991520828, 0.057014488909887674, 0.013608066332542213, 0.008400070587593688, 0.0015367039395251048, 0.04896586084440223, -0.013594367640567689, -0.033725222855212685, 0.02331746624140119, 0.009428221477223105, -0.013038271065377862, -0.049767203290808235, 0.004173690232528442, 0.019195375905031238, 0.002430761848699663, -0.0009797160276440674, 0.01738357938780795, 5.86892066011493e-05, 0.0008017404918697295, 0.0009377832764152603, 0.00392353975510641, 3.955442155495951e-05, 0.0020659087006536167, -0.05541924770840437, -0.006916396279932337, -0.0062814007669424, -0.06292240416972432, 0.04233545759862249, 0.03086524954785781, 1.279158399597548e-05, 0.09193394247548266, 0.020458748946494708, -0.007354029626505832, -0.009858679792092026, -0.016327235729877664, -0.006743548845606148, 0.002377388787034149, 0.03434528838321225, 0.03470412412102424, 0.0003988381911824204, 0.002157087539891381, 0.023993646484267432, 0.00205097016954693, 0.0011780015086450667, -0.011615379891479465, 0.010475066544694767, 0.002398708795686882, 0.0015113871914682916, -0.0747615283168975, -0.0017139369654460511, 0.0012397218760437962, 0.003401828187040962, 0.026962401164268058, 0.033519336044476974, 0.0011544886263285766, 0.09895605902246137, 0.060354480394490755, 0.0002752786520450308, -0.012362743075784544, -0.03480627550136542, 0.0006077345337935499, -0.021689794530032676, -0.001545797265275912, 0.00871025132592073, 0.000674829544033509, 0.00013973066139125645, -0.004253415959680742, 0.0016243935390623165, -0.008197499627293929, 0.0008827638684078436, 0.023695511581213618, 0.0013731879952311892, 0.0007442064138457647, -0.039649257712814155, 0.0009834012317592627, 0.0017565189315997232, 0.007538388306964146, 0.03533129252849154, 0.009969030878042611, 0.013478524909207151, 0.09163541351283307, 0.029821769807023224, -0.054943530385551095, -0.03462987314094296, -0.05639530088058789, 0.000799716525007877, -0.015304879545585215, 0.11151355458797396, 0.027459421267123016, 0.0012823299105125718, -0.00875877831444598, -0.043836232304171024, 0.002245198238101258, 0.009030495912492907, 2.2033088637822627e-06, 0.024000113113956723, 0.0017995510433206682, 0.002338333628619067, -0.026175744003379204, 0.0023766248022040874, 0.0017113364263810482, 0.03010557171937484, 0.03368090555891697, -0.04004511160043419, 0.00885026419657839, 0.06085019328642611, 0.06668501491265454, -0.04143915137120921, -0.007859116395160886, -0.012011145716300357, 0.00017686414421423048, -0.018847093097999663, 0.034052197035436334, 0.01626182831130581, 0.0015080132210839646, -0.004619898837874865, -0.03896883661554886, 0.0023643961199026954, 0.00615897023932733, 0.000923416826852074, 0.03661588051602607, 0.0007595343807049557, 0.00013166062933065665, -0.06421757803865984, 0.00041470930993766535, 0.002147447096748338, -0.016423501509748556, 0.019602854002503375, 0.015029352633326519, 0.002135473943209155, 0.1307785709632221, 0.03310272736852024, 0.012672415886848521, -0.008412688556737978, -0.022598007381119403, 0.0019925366545796644, -0.020328378215521328, 0.009901301843049264, 0.0019368416559699664, 0.0008124243244502885, 0.010573911140396113, -0.015477122194613483, 0.0010236602334688795, 0.004686271325606736, 0.0005585059377128629, 0.014273823196119488, 0.002290277669113408, 0.00011480861115527443, -0.02747863853809384, 0.0009763285799818352, 0.0004297429108015915, 0.024877912381069366, 0.019351221195192257, -0.014365787543383477, 0.007908204651661428, 0.02168921990978234, 0.01162134196065934, -0.016489376726963424, 0.03848408461290218, -0.013070524680033908, 0.00029383708498733073, 0.001662032201280643, 0.04890058737127107, 0.0024410200363058545, 0.000253162814379157, -0.01185657501775752, -0.005752885491658993, 0.0008561921071037499, 0.0017501355073712502, 0.0022867944617591873, 0.014106709206816654, 0.001619884298942101, 0.0017138487644171156, -0.04763843965982342, 0.02615007477601226, 0.0009795850084679696, 0.04278280961157344, 0.012539347092628014, -0.042552789517726126, 0.0017466251834517424, 0.10428806151205175, 0.03528326977586005, -0.07770011274832778, 0.015880962394160272, 0.038174885355268064, -0.0013891486641320046, -0.03716663809814597, 0.024520939099392597, 0.033728285925886364, 0.0010523399911985217, -0.03736606560759115, 0.0005340486605706823, 0.0012277405776437616, 0.007153081101798477, 0.0013553902675099163, 0.005772400368574686, 0.0023594271996303052, 0.0009911021673725696, -0.013149934708558351, 0.00241729847751533, 0.0023715176489622933, 0.021912964950666285, 0.0023723182711702846, -0.014449100384573657, -0.00522811020739916, 0.04824008514956154, 0.03551316337291534, 0.004013976396944087, 0.04755227774066385, -0.050524771619450175, 0.0017591576084775634, -0.039810936354462534, 0.005919949584900875, 0.041023124478103905, 0.0033847633075136346, -0.020360762511663563, -0.014179472970088714, 0.0004268531048661294, 0.014750155704980582, 0.0014271988091485968, 0.034949927287164104, 0.0010481792836637787, 0.0002957445687570938, -0.04801222068042244, 0.0006808511464891334, 0.0009472359615523285, 0.05954850192589501, 0.03260100567270191, -0.024712847104921873, -0.009019034958555694, 0.09281475503364646, 0.06702802780598777, -0.025887435016823203, 0.030196979142831083, -0.08756830652891806, 0.002155998743778548, -0.045036650652056344, 0.021174640836633445, 0.010071392325575622, 0.002247758123429021, -0.0004467635518351023, 0.011912624054916098, 0.0005955261001503321, 0.0019201533963330037, 0.002233566794332548, 0.014945827212514775, 0.00103098284856298, 0.0011345264121975323, -0.041986929636891955, 0.0019806410463849367, 0.0007653250227312714, 0.05276203927733075, -0.008588783329500313, 0.04793069673324503, 0.0021115665702808257, 0.08725993629773895, 0.032230093918033345, 0.002050546446550892, -0.03351261709995346, -0.0339100232256381, 0.0006607366607816231, 0.0003554524342253875, 0.00924157054198085, 0.0038682068798816588, 0.0023707877088490884, -0.012223419541848959, -0.02024400145847318, 0.00015401174519255573, 0.015509217229927806, 0.00036672609745554114, 0.002599379757617117, 0.0005662740277783578, 0.0002433287684772946, -0.07086215912445382, 0.009989375513982487, 0.0010767952261186205, 0.03702612707416747, 0.013122630572322406, -0.08095239304031614, 0.02321623186101346, 0.09095698148199872, 0.01816954816381048, -0.05589186270379432, 0.008885483012050659, 0.04892949230984607, -0.02641568439087243, 0.00592479704603511, 0.04178063765432268, 0.05134665022322717, 0.00015528093747782052, -0.009413572989045634, -0.017824117938916712, 0.0024606787050765857, -0.0010629595013189055, 5.48234259861529e-05, 0.017144929294370233, 0.002358287012736015, 0.0015771913652071231, -0.037592169033305825, 0.005861017158541425, 0.0014031024964357322, 0.0073367554597192075, 0.009681150011879438, 0.036355463991987226, -0.006766827557673806, 0.049143477132461484, 0.03969938884564606, -0.02129777402648954, 0.013941631152121563, 0.0007475395689609637, -0.005833518563703966, -0.015754429390236593, 0.0036125039855464053, 0.009821092410489217, 0.0016683183666164904, -0.0014570075590828208, -0.005677611440559409, 0.0011370002492573407, 0.000955394656527423, 0.0006661497944003739, 0.01898267738079698, 0.002220371695519484, 0.001376119162167158, -0.014400912174117505, 0.0013412959828664626, -0.011464361978514654, 0.10469256405935333, 0.02152346941583083, -0.04667082095845751, -0.007284092218287022, 0.10698284731634322, 0.025371894432085398, -0.020992215625207207, -0.038991015805344496, 0.004516059518482821, -0.007688725913621776, -0.02257297018103893, 0.01219513178299228, 0.028588428502557772, 0.000365289117980829, -0.009075931514617636, -0.03279145044510067, 0.0020195571386527056, 0.002205070806397013, 0.002312520066987637, 0.007982187399128609, 0.0013845321326656354, 0.0024002670892635607, 0.007879735430968843, 0.023761434120064463, 0.0002184761354490083, -0.004251025150901032, 0.01544123579994409, -0.02135837490619972, 0.00205415429574323, 0.05569579091655252, 0.001970116340038083, 0.0012416012098274186, 0.023260515284578082, -0.0025298436167353914, -0.011476421800176148, -0.04463227225227865, 0.07643583283815322, 0.028956961554607603, 0.0010370341631289115, 0.0003127787831504285, -0.07048830459694667, 0.0021265044978103975, 0.014373242217015343, 0.002077537719622246, 0.006166005752950396, 0.001342050609458956, 0.0003191381393299132, -0.02388663524663086, 0.001304623160284478, -0.010665345800912664, 0.05454402901286295, 0.003593003582869094, 0.015072414852448113, 5.1338733062200395e-05, 0.06128463932657029, 0.0010049023901095924, 0.02261080798590202, 0.08662871151990319, -0.03938601540307809, -0.014762570406700403, -0.016648269338816312, -0.017863749028655302, 0.005274640606544485, 0.0013045516137749982, 0.0015217649424993961, -0.015789339552828897, 0.001325983935025182, 0.0017579549966623591, -0.011550976820133995, 0.005533449516209455, 0.0012670233603363599, 4.960289145694676e-05, -0.040923565497312554, 0.0009939777774300314, -0.009673068222708851, 0.018510664421438217, 0.014687568089319654, 0.012900855562813928, 0.005724074211405195, 0.12252195942681982, 0.031318521485744676, 0.012456228813759008, -0.026985909773167897, -0.04295809902060292, 0.00048796916912439265, 0.0013136128308470932, -0.00859916410805231, 0.04189591532677189, 0.0010697066166806758, 0.0007695107899415479, -0.03781466705924754, 0.0015821524442532898, -0.0031500696363556745, 0.00041335137827841825, 0.012421278479574506, 0.0015467658566561426, 0.0008265216195314537, -0.013849482731237428, 0.0015288431159026907, 0.0001870758229383401, 0.043209564886458635, 0.011248334595758452, 0.011057337747089632, 0.001395407072742882, 0.11196909624616731, -0.011125854731846409, -0.031342299650111795, -0.008003423121643436, -0.013320908943430488, 0.002214112137377529, -0.020784809808580194, 0.02321751133388249, 0.002423233237982973, 0.0022334694459192274, 0.002036870113441497, -0.03282671182790492, 0.0018017251159105478, 0.011069955175078673, 0.0007274900015316176, 0.012775521693950482, 0.002410843186047292, 0.0007035593334601981, 0.011735971367468278, 0.0021817174465493263, 0.0009210579061287192, 0.04702969935988881, 0.023154543912337504, -0.03632595805671187, 0.0014299221969159654, 0.0659196657984459, 0.021505968962332176, -0.03978010123863701, -0.011330582588444993, -0.04000688294031087, 0.0023390134374589385, -0.015068205963650437, 0.015608534620262206, 0.04806155696556344, 0.0003512713094225556, -0.010602271630779425, 0.013772447163602246, 0.0004586324781155659, -0.0010806854104561106, 0.0017764496985337049, 0.008685934360651616, 0.001720777047888197, 0.0013654060876529405, -0.03655201344985269, -0.012454161403852387, -0.005560265810538881, 0.05393085729628174, 0.008082307372864054, -0.009022727244691874, 0.0016515783990942155, 0.08057305700886647, 0.034703411347247734, -0.04686452489424463, 0.01771234187136967, -0.02461161629796149, 0.0009544193487664024, -0.013670742914271766, 0.03445620481801255, 0.013118529792816974, 0.0022330824539627376, -0.003319391404732377, -0.008600357549366049, 0.001893227655770652, 0.0003733752454368081, 0.01937786167066153, 0.005916692387989088, 0.002220485262260486, 0.0015348532344406755, -0.015513327291615862, 0.0020093724655157424, 0.00013845146674186005, 0.0242241985675158, 0.002560893622704095, 0.015243784714871726, -0.0068450234828729235, 0.05991739464642615, -0.027382372034293213, -0.03748788988654798, 0.05536192188860825, -0.004672663086668701, 0.0008378925497926942, -0.023143804295831422, 0.025654252627794173, 0.01646303257228948, 0.0012596849384140566, -0.021471545154284895, 0.03922183589910726, 0.0015453212668739748, -0.0009646828964883975, 0.0007123500616744178, 0.007530254061513518, 0.00039842610864078887, 0.0002719959223856934, -0.050010012227712224, 0.017563371417528645, 0.0018669889104208628, 0.023982284598951634, 0.011379872320828304, 0.013590440990543648, 0.0027199721236138407, 0.02140937845070688, 0.038906164536037076, -0.08692103316638544, 0.05228317867233998, -0.026085801030070563, 0.0013318878867928233, -0.0001954549182029653, 0.027317863544560807, 0.007309701693968605, 0.002233383796085922, -0.0012412738552711956, 0.04668246721547397, 5.130168225441097e-05, 0.007900861331648973, 0.002085237922234133, -0.0037731703364211598, 0.0007358762108074084, 0.0006475857295682367, 0.0022755208918813076, 0.0013496376195225237, 0.002208334425354051, 0.0018467984284502136, 0.0018872772407195434, 4.9193523496415015e-05, 0.00010935600582443757, 0.0004660089658727632, 0.0017937776184212687, 0.00014026500508142412, 0.0011771815512353334, 0.00041888576428426394, 0.002053218159033061, 0.001799011968137082, 0.00021128511201768166, 0.0012646408831255898, 0.001068294433531462, 0.0006285840455769004, 0.000805250614181677, 0.0007745517376226544, 0.0017798072601355344, 0.0013435861826591507, 0.001098381442825989, 0.0005458544256436022, 0.0016076418071865504, -0.49094877617744426, -0.13813439143709305, 0.0328046713989022, -0.14763341282162293, -0.11126106159629351, 0.15511738113447557, 0.0009824824114260332, -0.040103073009523746, -0.04457259697841965, 0.20875351288711858, 0.1586383557074256, 0.06710361211436448, 0.09113067634109018, 0.06526049225117676, -0.1853687401821968, -0.01879043858390433, 0.0022534068167933863, 0.0017702677806549507, 0.13221119925781097, 0.0020698772153861047, 9.315148787628123e-05, 0.00040913930253106204, -0.03501334620211923, 0.026987916196116228, 0.001500533715576516, -0.18223971657231916, -0.027315645256591265, 0.02280384781451532, -0.25969186085456863, -0.0720696124089319, 0.039055520871453385, 0.0022087232596560567, 0.009612839930953198, -0.09927932538116328, 0.26097924235045006, 0.18558039709064508, 0.10910450993934308, 0.002159965588384676, 0.215077949659206, -0.02741488540935577, -0.004654608581349455, 0.000928237811688734, 0.0014670995262398927, -0.31118808421052413, 0.0008284873683823335, 0.0021159337607815775, 0.0005290838114423696, -0.13589861053093563, 0.0018846024329294137, 0.00105173390884721, -0.10465209313423773, 0.0003232524279548269, 0.05864860812081983, -0.1937498272981327, -0.0035988385314030145, 0.22375041457119088, 0.00189045637487549, -0.2779208581966331, -0.124865444419136, -0.06253778986195582, -0.15025120597894268, 0.056157495525453724, 0.05472007719944375, 0.06948971767671808, 0.026750137282207556, -0.03879609271646651, -0.0023408167631837552, 0.0009491549808051898, 0.18524125621002918, 0.0003389817598879706, -0.01063459741794906, 0.05034793279204935, -0.024199236918860532, 0.0005031027378074971, 5.9240095655745466e-05, -0.048574372520111174, 0.0002472611070750088, 0.0016978808490141525, -0.21371294344454256, -0.04370555814115925, -0.012989155820910868, 0.0022857527667863335, -0.18737523307591794, 0.057614562541002404, 0.12800047221399988, -0.0797050072696783, 0.005955527990389277, 0.06216651859621559, 0.20747447782158054, 0.0006539997909408275, -0.06336054326384025, 0.0008847775934799911, 0.004839970906507241, -0.08117853764074631, 0.000760650371900131, 0.00034295289092850593, 0.002103320680416261, -0.01139707559063633, 0.00023179539591696048, 0.0011352925690386595, 0.23867561923812078, 0.03307788338013987, 0.03368040982562346, 0.24324750727200742, -0.1627529642359176, -0.09841664535097064, 0.0012086502349593182, -0.3464964157560663, -0.06402135826374127, 0.038672524968489164, 0.05526717870191638, 0.05695090231993244, 0.03417948295986133, 0.0002475861954749436, -0.1307774015289861, -0.14102976432157105, 0.0015559427665842035, 0.0010633082560789601, -0.08615285498249048, 0.0021864247433670213, 0.0010558596899706495, 0.051980626789335606, -0.030012690846357656, 0.0003160301025268246, 0.00015120254608007956, 0.2966490214370651, 0.006677246775588237, 0.0006969438869027869, -0.023887370834665734, -0.09000295971964803, -0.10831488317458186, 0.0007917903338769131, -0.369659941272756, -0.25005884521307914, 0.007065541384080905, 0.054496537608791, 0.14569419617314844, 0.0016418852508643083, 0.09138426397499158, 0.03463651728393275, -0.029066861813825062, 0.0017278115532519845, 0.0018000089576605046, 0.01760618344629996, 0.0014592243742986336, 0.03634471970398286, 0.000290658100169378, -0.09223166696817192, 1.0881263013514212e-05, 0.0014742042467261714, 0.1935996354583671, 0.0011037664485669325, 0.0005196314573982801, -0.02816558413108767, -0.13044373512658675, -0.046959939851867666, -0.047666361110922796, -0.33455532507128094, -0.09962605883695481, 0.23512009384352242, 0.14338973222714055, 0.22456319956329687, 0.0006917303981435844, 0.06791231888422843, -0.4539671385219134, -0.1051845164277371, 0.0014473851739940933, 0.03543407972039699, 0.18561525302249968, 0.0005422573952583516, -0.02207095425667432, 0.0004666677655798676, -0.08998468502697647, 0.000981253132360075, 0.0011815274125537728, 0.13748950940712829, 0.0007826608209692921, 0.0008585273908213326, -0.11626393772985862, -0.13921404346035296, 0.17402881270269485, -0.031127734400099645, -0.24654615096392618, -0.2583071741528226, 0.17655967338046819, 0.03091932981307328, 0.05375981376208364, 0.00029113477604478423, 0.07603025037364267, -0.11079367816632606, -0.05657653456454701, 3.6851422054168344e-05, 0.024043618936047523, 0.16561694377666566, 0.000908742863220939, -0.011597106649430046, 0.00047890398704194533, -0.13767462243525175, 0.002104242287685383, 0.0016878884427825236, 0.2786517652562286, 0.0004498829925858127, 0.0017552360759461533, 0.05988922268074585, -0.06068372206017408, -0.058510506688952815, 0.0009426719497237251, -0.5256407729326121, -0.12404727600251568, -0.0540208874035129, 0.029580169066611005, 0.10037738208763228, 0.0004780894035818544, 0.08614212500639304, -0.025026726952961702, -5.46438283373824e-05, 0.0005754630622198961, -0.03512369126143976, 0.11069523223784303, 0.0022420789062469726, -0.0109596229181976, 0.00121844961640195, -0.043669139370381554, 0.0016011604565802958, 0.001754810486628416, 0.10474888731373272, 0.000645378599864232, 0.0007562394498186126, -0.0792647696263384, -0.06867869661816148, 0.06240379809238214, -0.019937369911982614, -0.062414251534519856, -0.04162430810100008, 0.07011141089647105, -0.16723490357756102, 0.063251585596188, 0.0002836346258544308, 0.0019286040779487373, -0.19420760248634444, -0.00021695669546032987, 0.002317975919969207, 0.05845351005655553, 0.041072411508433916, 0.0020155798934848694, 0.002241714728240208, 2.1667559706886478e-05, -0.04401652795664258, 0.0019769767976038593, 0.002280317768753151, 0.1909294429066931, -0.10609739053664036, 0.0003408287216857352, -0.13324673841987383, -0.031628905846066944, 0.17766825414120266, 0.0016031136611820368, -0.4243156235256117, -0.13156236433402302, 0.3019918466242546, -0.050622146578674906, -0.13443076117364333, 0.005850909021640326, 0.15203675600993882, -0.0770140835765123, -0.1293606766892863, 0.0015867064800962677, 0.15324197568137501, -0.008677540291745632, 0.0024488516607143232, -0.02254855363829582, 0.0003816803222404115, -0.009249439970035979, 0.0003960141279141896, 0.0006409843054711563, 0.04280796204618734, 0.00030235730921721597, 0.00012404202455248568, -0.08947766228962156, -0.005712722635337476, 0.06629448290742716, 0.03042662850757481, -0.16272894903041757, -0.1439991558249755, -0.02492603260469303, -0.16363945148093825, 0.20657880709234538, 0.0006459403660596477, 0.1681458940030694, -0.007692711942497281, -0.14607352955830227, -0.00847101402882565, 0.08818614463696338, 0.06063798599140127, 0.0010789124670621479, -0.051768996020491995, 0.0015057970062371082, -0.1310029985374966, 0.00019980028729703138, 0.001007677505185758, 0.18652906015902132, 0.0005793488996496631, 0.0012492580449774981, -0.24139253943413697, -0.12385956835567828, 0.16058401656665156, 0.03736960046630083, -0.35582330552016733, -0.24456439591867987, 0.1079345440700172, -0.1261525002041437, 0.3342421211188919, 0.0001503158063519919, 0.19988441143364305, -0.07184941425808716, -0.024547704299121988, 0.001715487663555899, 0.007844984577802456, -0.06773722615773416, 0.002295220974955979, -0.0006467988614846623, 0.002120646223327163, -0.05321006605775889, 0.0024091766717467297, 0.0011608457832831068, 0.1720448696597876, 0.002071201210541889, 0.0008074373061191157, -0.24077324271090947, 0.04622339791378588, -0.1803925502675723, 0.0007164875305936386, -0.30904508086216403, -0.11198192163250756, 0.017499509722656657, 0.1485481457496639, 0.13382756135831153, 0.001052962389621195, 0.0019656508148504816, -0.024058732418387206, -0.0054143205339362305, 0.002109956689583916, 0.05265093320040786, 0.0755595290861014, 4.70044514414259e-05, -0.046695635305697133, 0.0001962796820334186, -0.0019142577062823767, 0.0020804655053909553, 0.001754114528484335, 0.3454026775692846, -0.03268866946675187, 0.001835438451859397, -0.16962030479121598, -0.0421415427089575, 0.35984596960765924, -0.08500054118912091, -0.36406503696200776, -0.06572333784160839, 0.2102972508495239, -0.047842597858030037, -0.2130454300130106, 0.11051957971405944, -0.02806514151971593, -0.15033558314548207, -0.21787340949556647, 0.002230204890181214, 0.04971264974452852, 0.1007044610857277, 0.002331086685345841, 0.014923359881120365, 0.00010032810976856357, -0.04955573755561812, 0.0014384232834671392, 0.0007840305437724317, 0.17890141832516637, -0.016435125863926234, 0.002127752954852843, -0.029429822325810505, -0.025143150336773265, -0.1716417924972965, 0.030241905359934155, -0.18693513294558556, -0.14466031836312315, 0.060850870779346714, -0.05294179106636204, 0.014083629574137162, 0.02697362618998751, 0.07164238053088216, 0.009359773900064454, -0.026847765232110445, 0.00014127944634014406, 0.006727024050963002, 0.05169656076239341, 0.0003808679874967933, 0.0006947388679102863, 0.001126209015776663, -0.06317608949411108, 0.0016993232343161166, 0.0009589922498186022, 0.06281075285061609, 0.0017208085418089635, 0.05831428418490378, -0.3924860717428777, -0.07558853620686688, 0.17557397408783013, 0.036991280871034905, -0.4359400047491953, -0.07064466648197977, 0.07170387141610461, 0.17593033423384374, -0.01571590222104954, 0.03629390787572534, 0.08763891392913056, -0.0410424667515303, -0.11072552742293448, 0.00047940881250587515, 0.04310175095115841, 0.13939416189920367, 0.001864142618369407, -0.0012928406255864194, 0.0018952862676981986, -0.020864979287682474, 0.0023965448335204675, 0.0015657701168086348, -0.042808514259590265, -0.09316437360243171, 0.0010973181627059031, 0.039626381101821866, -0.04820799641896732, 0.08966433702838819, 0.0018782681677661326, -0.23427648388555028, 0.015051386261889272, -0.016878118792994622, -0.07870498156634102, 0.033985232596903774, 0.05201005874968044, 0.19470071258785998, -0.30978320173031715, -0.1082336877662941, 0.001546835039682682, 0.00028021946244619506, 0.29353943633637614, 0.0013891169860484607, -0.04159674623503632, 0.0012729959916247704, -0.01568983365006228, 0.0007303917077731663, 0.00012145791717647324, 0.07481514947248338, 0.0016013303724122774, 0.04962523494669319, -0.22343135858962784, -0.003518162020638408, -0.025852486096467064, 0.0023762959941869295, -0.2212479688451329, 0.00823577520971595, -0.08883571015064934, -0.3387909155163821, 0.16926629179835453, 0.05777001287286759, 0.06834476174131164, 0.09463942237824537, -0.007503464850495502, 0.00060684598973685, 0.000453618347207288, 0.07467716580391343, 0.0004698832756161767, 0.0014523220889073082, 0.05358470076828915, -0.0164554399539523, 0.00038725907393266087, 0.0021038799287638557, 0.16511837141928948, 0.001809981111458197, 0.04524225280777103, -0.06160172636381121, -0.04651214255742916, -0.03719919413707767, -0.01909397470882026, -0.4774875565640776, -0.11573405183305849, -0.03817985770244794, 0.12045600246946085, 0.1762758012012638, 0.002042612818295521, 0.0011608329105307253, 0.06047509179425962, -0.16647959940887488, 0.0009748052833602689, 0.00023699879451625195, 0.1421390064764256, 0.0010518772170466607, 0.01685090012065117, 0.00197653178514854, -0.03801745279668342, 0.0006532974522812587, 0.0012506925967072744, 0.07916895565125617, 0.0006701332580809502, 0.0016751481369956518, -0.1903066574953349, -0.036456969632817915, -0.012391599581105393, 0.0001573533901890576, -0.42662691474971504, 0.07535536198632517, 0.12337397089590373, 0.016865231117090936, 0.040812536585221916, 0.0008350449820367563, 0.08481726273582958, -0.07340513897749983, -0.003296317272585469, 3.672859456769429e-05, 0.0019637718233578567, 0.11778726012814518, 0.0009464671688114239, -0.03168326906318761, 0.0006666050189515036, -0.039595605938051996, 0.0018062741520568815, 0.001982689650950279, -0.01433399356352069, 0.0015325122810598715, 0.0010714681561964682, -0.21504500487099856, -0.07727094638970405, 0.15351215040521057, 0.00015050410817465872, -0.23945290658008248, -0.08601178831815857, 0.15920636317051523, 0.05392537538045088, 0.17772916416295573, 0.0011339162564326932, 0.06994683275598733, -0.03904458010399404, -0.19891069092609212, 7.072337210046876e-06, 0.047657379971997385, -0.04399040862647179, 0.0019966413856562586, 0.008776591118339234, 0.001958582920126528, -0.02678314500366277, 0.001313264009036809, 0.0012925343058993247, 0.16743530377352467, 0.05160359013443789, 0.027679450010372347, -0.21790737863189086, -0.0187215034354094, 0.012765586201592271, 0.002185752295732672, -0.2975511781246703, -0.10184275347361617, 0.17373141199752123, -0.06965536189060688, 0.10351150117027222, 0.002083351680147698, 0.06012421840005927, -0.12431625563146116, -0.03436994430633728, 0.0010272059902398539, 0.013388985978663252, 0.06863987612976588, 0.0015390716527190534, 7.17648934421142e-05, -0.07118117285999334, -0.015491566866106296, 0.0005068458257068957, 0.0012344867215733813, 0.0557894659771757, 0.002058307617118178, 0.007468159681517176, -0.08627783431031034, 0.000879625930923263, -0.06257328313551831, 0.03544571689503634, -0.22678341407449304, 0.155968156877183, 0.15062350011023515, -0.2519906021132408, 0.023731934995367333, 0.0046357874211118665, 0.09925493251250009, -0.09229337917267391, -0.054408085268456585, 0.0022710010324714187, 0.08523650845360331, -0.11866785913265608, 0.001428075683621998, 0.02282397676808437, 0.0010954169110124134, -0.02180235119251285, 0.0016499326362984644, 0.0006825250778373143, 0.19080180906031755, -0.07045239876228138, 0.0022106415408915986, -0.06375085742406911, -0.0331043148727416, -0.038943567181071184, -0.003919184695459335, -0.05634586866161519, -0.13677327087989688, 0.3746509199591825, -0.207435115407935, 0.08897163881197272, 0.0020961993910076507, 0.008677349753302263, -0.10011431655759324, -0.02204836862389241, 3.200088435802527e-05, 0.009999581289415058, -0.2112458697686397, 0.0005866423062247804, -0.0201176364897162, 6.406691221756819e-05, 0.023699766975145677, 0.0016433514877510571, 0.0005843116621575049, 0.0019068687072531375, 0.0018725268056410745, 0.0016812566359717307, 0.0003970042142860987, 0.002190054631516829, 0.0019147448483596097, 0.0016268330423497024, 0.0023898911900622167, 0.0021259582414646042, 0.0021407906388467746, 0.0019010054520462757, 0.0015258873898139833, 0.0009509309093033399, 0.0009872800626557214, 0.0022354450934297847, 0.0017318830508703056, 0.0010083178378110607, 0.0016761326186181898, 0.0011662098310809181, 0.001856879365084603, 0.0013050500650495125, 0.0011052123536108697, 0.0008972147816883361, 0.0020992949863106415, 0.0006496127311242202, 0.48392702661111314, 0.13598407305127527, -0.030383994243781565, 0.14501594116923494, 0.11012013375606061, -0.15405005731869062, 0.0017839278029448391, 0.042347996722221566, 0.04569568384649341, -0.20583159418673339, -0.1551439926372814, -0.067651829051532, -0.08615650646221375, -0.06052338544778105, 0.18049943980112207, 0.0211150214764683, 0.0009019174475513695, 0.0009652225689159049, -0.12742431730936338, 0.0008641970665472291, 0.0012383523091227297, 0.0016881635450843315, 0.038065728815187834, -0.024831209488954252, 0.0001199547087563236, 0.1776410132676376, 0.029947193705254428, -0.020201910859443305, 0.2553513375531642, 0.07080582638571142, -0.03888430844140395, 0.001371701059012225, -0.009445864985427288, 0.09989385295932253, -0.2569970144857506, -0.18366131646931158, -0.10709403873403253, 0.0020165344399169136, -0.21056822330277386, 0.028921252966079093, 0.005672585238656856, 0.0013442976221510689, 0.0009653082797194157, 0.30624168758175574, 0.0015075541177177224, 0.0015918264479930042, 0.0020991520274124004, 0.13542620518203136, 4.290680802151096e-05, 0.0020828472346012712, 0.10180920966644638, 0.0008103803446245459, -0.055817047633938945, 0.18888252893023783, 0.0044751524038501135, -0.21746933811250888, 0.0011309461483677424, 0.2705398941924508, 0.1239269787408716, 0.06155293221204944, 0.14779208717159417, -0.05454229625478816, -0.049386376150609715, -0.06488317413618684, -0.024091478860969417, 0.038574909301142137, 0.0052907360321956635, 0.0014837117809886951, -0.18299842356387777, 0.0020883816147541884, 0.013652702750793324, -0.04676022140738962, 0.02581335614380933, 0.0017644159127570844, 0.0015504266343737648, 0.04679791647671295, 0.0004926963741927392, 0.002136678173574145, 0.21071415476276878, 0.04578327901819358, 0.010089125581457983, 0.0013606006625692829, 0.1848956248825794, -0.055379577320105094, -0.12649086861875147, 0.0760777482667462, -0.003749190678033417, -0.059801643286631255, -0.200903444676517, 0.0030587205628423327, 0.06321234870241804, 0.0005810070679071321, -0.0047693796237978274, 0.0793501666875599, 0.001720591208018377, 0.002283702050786207, 0.0002497641098505199, 0.013293999754201034, 0.001058177779607434, 0.000367564243959905, -0.2329329603211463, -0.029539471521548816, -0.030067382700996237, -0.24033248944986427, 0.16188351479187618, 0.09653744697581823, 0.0020428228590402353, 0.34105937754690296, 0.0657909321275873, -0.03868854635358316, -0.05343963337025159, -0.058022481399921465, -0.03195898445266041, 0.0023043235855292835, 0.1280175590040183, 0.13930563884233135, 0.0011791226343383506, 0.0020041292030411103, 0.0853499018023171, 0.001064543014293115, 0.0008636197051562399, -0.047325884989345805, 0.03231299210514927, 0.0010561287436395574, 0.001842175048222537, -0.29143792433474774, -0.00422200675010632, 0.0007912306516145988, 0.02347832090424831, 0.08976136388951295, 0.10574448590457665, 0.00015284405641579723, 0.36537180214147075, 0.24492618580402, -0.007190726834257278, -0.05200690609311847, -0.14218145819523217, 0.0017177279034953233, -0.08862898303338201, -0.03171274099709806, 0.032549227531262805, 0.0005670972760322356, 0.0004673813567404582, -0.015771865114306564, 0.0016699289577592272, -0.03413476007640648, 0.0020271308615212665, 0.09177589534930881, 0.0020164149242352775, 0.001613147527594494, -0.18789439686133017, 0.0019503516072499024, 0.00016875545107612508, 0.027918034447648996, 0.12889354861251973, 0.043016082168845005, 0.047859747478898484, 0.3286577057394204, 0.0998824626004429, -0.22929371954714212, -0.13713992762772337, -0.21787696260064324, 0.00032550606897269993, -0.06526605517980365, 0.4448342537149412, 0.1056077978625257, 0.0006702733197720378, -0.03278835567052837, -0.1825584294485383, 8.678641124415001e-05, 0.022586169999561246, 0.00031164925021192605, 0.08876529102302141, 0.0012279143527969111, 0.0024624894696159095, -0.13479086449673813, 0.002410938957126625, 5.851175003815501e-05, 0.11432217142320042, 0.1388924765963208, -0.17051244311946903, 0.03289269447436394, 0.24133937293753244, 0.25402019065733883, -0.17181516261043356, -0.029072689924187673, -0.05151929485490516, 0.00035321434954812533, -0.0719211340853361, 0.11034922219836793, 0.05595632080814604, 0.0013361393794781508, -0.02104940424545191, -0.1624544805378225, 0.002363861454395209, 0.013852699065951874, 0.001707968352533162, 0.13615851493670936, 0.002452479336451692, 0.0013039723831736435, -0.27087093373533455, 0.0004406783914367873, 4.0645568987238586e-05, -0.06019463719885662, 0.062401081413618394, 0.0581292791142432, 0.001718662066221593, 0.5150946220003157, 0.12133587881164479, 0.054349465446322125, -0.030338790945642867, -0.09815816986716273, 0.00020247259284222795, -0.08298045998708198, 0.02501414599385627, 0.003961077329451036, 0.0014889356547439275, 0.036176055739054656, -0.1056116787050439, 0.0011449863838522297, 0.01447454933670614, 0.0010566338104925931, 0.04415891203807591, 0.002127159571486763, 0.0008571844829694994, -0.10522846954450446, 0.00017087877678966998, 0.0012077013937741082, 0.07886699764358533, 0.06741625524871173, -0.0628694393162036, 0.020948320502357315, 0.06427886844064702, 0.04200809651917917, -0.06901317646992597, 0.16272505043402916, -0.06010666175615055, 0.0018517057211152824, 0.0009903694451231144, 0.19037677083196447, 0.0029126864453634022, 0.00026602210670679323, -0.053810345008727056, -0.03762771293085012, 0.0013060290753120535, 0.0006119330435011899, 0.0021203203174318588, 0.046148799776001725, 0.0014436686886310547, 6.423755550422773e-05, -0.18820232729322534, 0.10585895808043348, 0.0005107706353961337, 0.13089760220748023, 0.03337433362924903, -0.17436266003180395, 0.000990002951555266, 0.4162538781452494, 0.12995746707643183, -0.29692684778091055, 0.05265097005528722, 0.13176563493295806, -0.004743411511955186, -0.14829501405078793, 0.07823002841302118, 0.1273071738618485, 0.0007407007793239251, -0.14919125224078075, 0.009238052225739653, 0.0005233080853591971, 0.02200379725052224, 4.683433603842168e-05, 0.009890699857033865, 0.0010281102028936152, 0.0004308570273345234, -0.0419424294732565, 0.0023587911076155934, 0.002208304491551044, 0.08624604519170087, 0.008099216216081019, -0.06647795730138048, -0.027463128535064274, 0.16387942540745276, 0.1397568253330895, 0.02520268414972125, 0.162867714980658, -0.20193651503260646, 6.924028687942436e-06, -0.16223357223727866, 0.009398821239986851, 0.14548430230766846, 0.010617824130465062, -0.08392607089842058, -0.06080412393349043, 0.001532596755953036, 0.05320038811060492, 0.000991550611915943, 0.12903787949318402, 0.0023099294392935773, 0.0017316206972168345, -0.18281394175027157, 0.0017098768445229003, 0.0001746066450167747, 0.23545705694666103, 0.12299586510644231, -0.15782251825351762, -0.035077905701702695, 0.35027415950523916, 0.2400421275288607, -0.10475395793382192, 0.12314482744277763, -0.32992735224834613, 0.0011418270535836017, -0.19052743312101253, 0.07130406289795321, 0.026919284204953934, 0.0005359314703945751, -0.005225369635716915, 0.0675117864634647, 0.0007776462694872136, 0.0033487719781679507, 0.0014308821724914847, 0.05299377454735321, 0.0020967036523416144, 0.0004496628822613802, -0.17195344349636746, 0.00034990678530545335, 0.0023861222288787402, 0.23273371446380992, -0.04404736575402731, 0.1759770979306492, 0.0013632848782435126, 0.30693616856013717, 0.11025698185325437, -0.015668059153497373, -0.1437172407359173, -0.13358891566865627, 0.00024137131446719972, 0.0018020242096512, 0.027657036247375342, 0.007614396130616687, 0.0006379720291249148, -0.05031195562085165, -0.07623551467828416, 0.0017845465534384356, 0.0474043494527172, 0.00022392165358815154, 0.002976790060743249, 0.001524177867323951, 0.0006775307791699191, -0.3346285660617838, 0.033436570990564615, 0.001480337268443621, 0.1646135094461571, 0.04307835894097737, -0.34996386309853456, 0.0832029744077354, 0.35957215916285734, 0.06518051825034007, -0.20689437294434643, 0.046531846948511556, 0.20880382710830164, -0.10724970078714995, 0.028222646145100408, 0.1494572811218251, 0.2123076123962393, 0.0017470580585282095, -0.04704765570266729, -0.09532900430753753, 0.0023058640434081355, -0.012647384790524142, 0.0010427257142223798, 0.0496314362691144, 0.0017315526605981581, 0.0021249910097235415, -0.17248337922895463, 0.01897993893007841, 0.0021706649051381303, 0.029040080892182792, 0.0271513388625199, 0.16572076768957034, -0.028589448518498768, 0.18499982274992213, 0.14503264857336728, -0.06131817194030287, 0.05357709621220246, -0.01199584207484505, -0.023820625944176457, -0.06828193857952325, -0.006811688610319557, 0.030368544414368016, 0.0009392758632335704, -0.0038694809448543933, -0.04931334340403136, 0.0008998460849242, 0.0004771419501751481, 7.111223907387671e-05, 0.06412666416140697, 0.002309150912436146, 0.0018629196811528375, -0.06102364888130093, 0.0003008076593019251, -0.05504045088945988, 0.3858936501981969, 0.07593942343210702, -0.17541665877876178, -0.03519297813490298, 0.4263251673277829, 0.07060122034588102, -0.07233123671816458, -0.17001953873465964, 0.01654898266002839, -0.0319547034071824, -0.08565862684879987, 0.04050201243693561, 0.10939797748767387, 0.0014168512310190832, -0.04032175533593252, -0.1385378701672462, 0.0022237826707015083, 0.0017902111803625405, 0.002159568965666565, 0.02395638432811439, 0.0006367212504759223, 0.002165399336554964, 0.04066754485296008, 0.09284389365716751, 0.0008332501854083688, -0.036903111672172584, 0.05025486624231863, -0.09161900312852876, 0.0012964059571754793, 0.22975740628619296, -0.012436529543138529, 0.014775042810562087, 0.07554872862714508, -0.032731329162294334, -0.04722033704394741, -0.18819628763796517, 0.3048164583708477, 0.10744561194322409, 0.0024125745243349745, 0.00029780728656837193, -0.28606226700108744, 0.0010055057172726016, 0.04210186221658043, 0.002313631318581294, 0.018286557844034795, 0.002411502422550268, 0.0023488361749370345, -0.07623421277512231, 0.002387603041008765, -0.04497646198937418, 0.2174533943052048, 0.005586077317268198, 0.023515015192447104, 0.0008100738925564247, 0.2183242184216096, -0.0029538690383515216, 0.08717041464661118, 0.3311098455977024, -0.165654981883827, -0.056437179409352674, -0.06727690465734203, -0.09064692028931191, 0.011022771829317466, 0.0018878292513234368, 0.0009697625841674185, -0.07152697761503697, 0.0011002388756625775, 0.0010352666951978665, -0.051287646747849476, 0.019191677772920267, 0.0018035936037237032, 0.0008608370102613392, -0.16174682197262047, 0.0015162376586637773, -0.04334491866591919, 0.0604947193242268, 0.04784996321683386, 0.034414272393252496, 0.020005433464077613, 0.46721951342210816, 0.11271262719719276, 0.038209166555785046, -0.11710333383921095, -0.17045282310282864, 0.0012131995609509364, 0.0007349835622152756, -0.0547564921631444, 0.16420878061502966, 0.0016623711359022412, 0.002355741342697071, -0.1390616079457682, 0.00045866714577681874, -0.012639641561678981, 0.0008114590733300554, 0.04080175305435232, 0.001582860983521233, 0.001139050505465373, -0.07678822875040751, 0.0010874869367515877, 0.001002614584570031, 0.18804717346541566, 0.03622596191477789, 0.01413095708857439, 0.0002170225280824388, 0.41850136688384315, -0.07092570559990045, -0.12191536837412857, -0.017925905286809183, -0.04208714125634323, 0.0009198806747059547, -0.08197074202327889, 0.0749370327775134, 0.004045590016716396, 0.0014489012643107207, 0.0008931144545029372, -0.11809597768573714, 0.000547256439060317, 0.034566975395900375, 0.0006589564136190289, 0.041474177461365294, 0.0020982741733644385, 0.00040862643662236575, 0.014783575210139883, 0.0007973428527673832, 0.00132031892571535, 0.2084931725232233, 0.0756648598002354, -0.15215060209397727, 0.00012684679352632208, 0.2358376765874688, 0.08513416788224533, -0.15452624393982378, -0.05227483684475012, -0.171280882957135, 0.0008363532780938569, -0.06698756689576996, 0.04000365462963075, 0.1968709339562592, 0.0008384178649546361, -0.04303210928423816, 0.042963123281693445, 0.0005930335114439079, -0.005940358962899071, 0.0014325964036321888, 0.02922443678007444, 0.0018426206919620566, 0.0023362985819443518, -0.1619114889757718, -0.04835820551095014, -0.02574026060967807, 0.21382868097049096, 0.02284298547872885, -0.014014458213311284, 0.0007873918057327108, 0.2942954964724206, 0.10296274359805244, -0.1716690237672573, 0.06995163092216777, -0.10243464368362139, 0.0006670669864011976, -0.056122250813570404, 0.12346567928783869, 0.03628471630028268, 0.0013048978503714264, -0.010471203856483997, -0.06789968691334841, 0.002185086424680132, 0.0008717306476803903, 0.06924679059584084, 0.018105359037721754, 0.000788949088085708, 0.0008021828216995873, -0.056173687927623846, 0.0016399383787625438, -0.004099249325357104, 0.08284694240057237, 0.0013659012752172343, 0.05970828478542955, -0.03376423551768715, 0.2245717663641973, -0.14888566983758778, -0.15007664086373215, 0.2434704716081166, -0.024823171747487105, -0.003063524999881652, -0.09711406646137082, 0.09394863065644773, 0.0550371319659812, 0.0004807401185645721, -0.08216335763586635, 0.12036625485248492, 0.0015464434126609811, -0.020561426047555977, 0.0016276898582048382, 0.022910091867323536, 0.0008634528940961688, 0.0022265018923652204, -0.18679240333961675, 0.0702434683829912, 0.0005066204806524688, 0.06477451563460378, 0.03583495496708835, 0.03714750066528647, 0.007650332150416695, 0.0585586049320166, 0.1361577134554607, -0.3652830470820092, 0.20500667236729117, -0.08799107739689636, 0.0010177935429123495, -0.00659132682660843, 0.09674729511392684, 0.02400968876414532, 0.0023989405199797, -0.007471309755403285, 0.2054643381842762, 0.0016913054724311141, 0.020372309379237643, 0.0017666237492029568, -0.02093010166314101, 0.001594943592475574, 0.0015356012767044369, 0.00012552191377776973, 0.0015309272294281224, 0.0023235725627006854, 0.0005649138648823542, 0.0016748392864803332, 0.0016560641799530397, 0.001433013474912, 0.0016700746300506298, 1.7239507998231868e-05, 0.002212936006815641, 0.002304658349138878, 0.0017178713288105462, 0.0002977539342180526, 0.0016069520153426115, 0.00036800438275534923, 7.382023236533774e-05, 0.0008473373372290413, 0.001017562409508806, 0.0012032231014706377, 0.00046168620280346906, 0.0020139796110046344, 0.001507774657648908, 0.0011836832005481957, 0.0021232697776306132, 0.0005742216929469785, 0.458296387290288, 0.12576991668736093, -0.028649094321518142, 0.1351541839450924, 0.10432240392022397, -0.1462727871443871, 0.0006760751420523679, 0.03974819757772507, 0.04432561907419907, -0.19398551094485622, -0.1466201937818087, -0.06376927381076249, -0.0822527093100307, -0.05801998433159964, 0.17028859299769475, 0.02037322298816426, 0.00056455941818454, 0.0012382171460693342, -0.11842148551222516, 0.0007659630223014664, 0.0013732691824683483, 0.0008752426717964889, 0.03617271292980632, -0.02399718195825058, 0.0009159241879324063, 0.16743418698532977, 0.02685547210464247, -0.020425256225350883, 0.23866573378161213, 0.06892339039139934, -0.0339869374065612, 0.001965588400911133, -0.007425694404264759, 0.09454944804486423, -0.24233376405383897, -0.17552030497848356, -0.10057278622514752, 0.001881827674651256, -0.1992160854433984, 0.028641663228711964, 0.006756160294475399, 0.0008324675223781026, 0.002206272376815381, 0.2894259922257524, 0.0002462673777247484, 0.000884155663880959, 0.002429765531314828, 0.12658683657675654, 0.0024631989812429478, 0.0014626394704081052, 0.09513879296304145, 0.0001224366415607702, -0.05132894946750417, 0.1801078227358238, 0.006382690978497914, -0.20159139014992883, 0.001331877553623117, 0.255703365965526, 0.11595596665669715, 0.05699053302820871, 0.13983159980058685, -0.04853018425642546, -0.04635219819004145, -0.0620704719197328, -0.023108987591828115, 0.03747865464143212, 0.00585970884978762, 0.0008974675913965673, -0.1724343925161257, 0.0005734828262540231, 0.012835819237812244, -0.04497948506938285, 0.025225210602009135, 0.0006647605482208951, 0.0012220364389130668, 0.04050798713668141, 0.0016630715662860976, 0.000999439103873451, 0.1985644718040224, 0.04212387608269793, 0.010651317303267275, 0.0021528085463770183, 0.17597937472026695, -0.05071582329909538, -0.12016177493509307, 0.07185876580931758, -0.0007077428869924257, -0.05594943837505588, -0.188314943278946, 0.003393859206676048, 0.06202538589496574, 0.00020781893857305437, -0.0025169218389608753, 0.0739916840715758, 0.0008143015649855236, 0.002225480896301164, 0.00016917983884128115, 0.012037766309870428, 0.001706035517345792, 0.0009636708813271801, -0.21884510213907368, -0.027601307773492324, -0.027533665779747512, -0.22847950631242236, 0.15022138467858498, 0.09020967483097019, 9.148332656132227e-05, 0.3224303381335489, 0.06088754583696955, -0.0374535513689466, -0.05026490960192622, -0.05728748026462974, -0.0299171471752004, 0.001194450062518016, 0.1201578558027355, 0.129559063353137, 0.0005484297136283025, 0.0021641795056195116, 0.08111241511010935, 0.0008521804319139376, 0.001684651360326326, -0.04534138084883176, 0.03031155212903297, 0.0024163909299066678, 0.0023525321621663594, -0.27516111281021116, -0.004872672719248669, 0.00027195084783400816, 0.02272617064235567, 0.0845290398071996, 0.1012424343271657, 0.0018108345977595516, 0.3442649461378295, 0.22874919405982158, -0.006054776569330776, -0.04909531766492523, -0.13436891045042842, 0.0014864086347958845, -0.08228325530798442, -0.029595067751233897, 0.030560335864632592, 0.002037812556365173, 0.0003205357722972385, -0.01481479483419581, 0.00025879208969945537, -0.0321098765037603, 0.0020425471259589737, 0.08628235154133354, 6.508540904855675e-05, 0.0019023167333156563, -0.1771710405413745, 0.0021600369328079335, 0.001553470711653982, 0.026899989120152328, 0.12187824132259867, 0.0386342660263752, 0.04489267248398467, 0.3106624403851729, 0.09472650812910981, -0.21417315403984952, -0.12924012529571346, -0.20473156000535067, 0.0021303342888213906, -0.06267473164791197, 0.4170020522798006, 0.09925096966004486, 0.001993160232843595, -0.03278212838052243, -0.17115284355803106, 0.0012109600597020552, 0.023370823552720153, 7.467917604111914e-05, 0.08439679414203018, 0.0003319875793219283, 2.1512890738449502e-06, -0.12552765725928985, 0.0019430093478267538, 0.0022932725485177267, 0.10654837707355166, 0.12930934223908475, -0.16080568816205293, 0.032698470475568696, 0.22634906591403717, 0.23837376512595088, -0.16085898473559904, -0.02617382629605644, -0.04944291575611346, 0.0021294423398524457, -0.06796966007464772, 0.10570798791371928, 0.05435835842802039, 0.00017708558832516352, -0.019807476513718537, -0.15243995848836098, 0.000277563303670896, 0.015043789511223956, 0.0020691988322381256, 0.12796137616322367, 0.0018158249760967774, 0.0024505217242272942, -0.25507857442948406, 0.0009330714804779423, 0.0015708151028440158, -0.058343542043479385, 0.05891996146208513, 0.05315633267145054, 0.00013022407388192306, 0.4832106704597239, 0.11593276686470434, 0.05027797485865387, -0.029168573822451194, -0.09294077287705603, 0.001449070218977965, -0.07767163560182963, 0.023195181459045804, 0.0027672997413329577, 0.0024208132463375263, 0.034872036384266315, -0.09777724429042174, 0.001929003906492064, 0.01279758854928648, 0.0014904225011437649, 0.041980335629586016, 0.0022633626211715943, 0.001608866508151602, -0.10015725182452456, 0.0021394194245287533, 0.00033409852992355844, 0.07396914945763194, 0.06306136347705828, -0.058555571133227714, 0.02028532879718412, 0.06250151859095442, 0.04002593979462831, -0.06332920651466037, 0.15095907910252573, -0.0559440335871128, 0.0017703333357065466, 0.0017078816790779916, 0.1789420542284245, 0.004196012780545707, 0.0010849865662558619, -0.05169463885085201, -0.0354138592256531, 0.001222886957948877, 0.0015818531015624792, 0.0013083063417736749, 0.04379293053708579, 0.0014195405055112409, 0.0006659183320982703, -0.17682404590647238, 0.0986033475462999, 0.0009124804424958099, 0.12552766628002504, 0.03325686448314531, -0.16379636261517178, 0.0021199885077907814, 0.3907717674147604, 0.12295702617282457, -0.2796266550318814, 0.05011814795379191, 0.1256515334457413, -0.00391504938570828, -0.14034785099999036, 0.07468905742999411, 0.11913988779638032, 0.0017634595161746243, -0.14013385619803478, 0.006975699594529698, 0.0009570763120537811, 0.022646193500782112, 0.00024935637170870413, 0.011860890586028818, 0.0013165268314080682, 0.0020657849690449864, -0.03965567031721606, 0.002111403638067471, 0.000733246233199309, 0.08024060966422132, 0.007031734650292259, -0.06203408666640526, -0.026469149591880497, 0.1556023810459225, 0.13142880953695185, 0.021656889969201367, 0.15327362561133476, -0.18955277503389964, 0.00046124945578802804, -0.1535724978336004, 0.010376614030500232, 0.1378234313480182, 0.011207700168904067, -0.07979364836402393, -0.05843401241070108, 0.000186338254675254, 0.050283087231097166, 0.0012744690333193883, 0.12163984364241928, 0.0011384102599305023, 0.0017392473936445791, -0.17234087321489153, 0.0018717553460408812, 4.0763889032169784e-05, 0.22201048183655278, 0.1142051783997279, -0.14548381356941945, -0.03315482224191249, 0.3299707724514038, 0.22561477687577058, -0.09871425528663799, 0.11574942256105572, -0.31194686268815885, 0.002138496931265563, -0.1767143999405969, 0.0681517898306856, 0.02568735281601426, 7.522616930910343e-05, -0.0056336523866540285, 0.06302555392618003, 0.0022771485882541152, 0.0035055562809332684, 0.0013234549827160214, 0.05125418088350285, 0.0020820457609962866, 0.0022899832870499604, -0.16137080860391909, 0.0017279561791933742, 0.00018889612376805418, 0.21728722420190655, -0.0411340736853974, 0.16633115951597735, 0.0003666553477419433, 0.2918831911227752, 0.1053293874563963, -0.013211567631958522, -0.13414542998374307, -0.12604825631784444, 0.0007894409961425349, 0.0008677199777337944, 0.025102780694424533, 0.007230014325162256, 0.00023372005507119956, -0.04716840884960752, -0.07126560039245065, 0.0003230410458075345, 0.046052701089301804, 0.0010353374760580872, 0.003658122699454078, 0.0010371473663769054, 0.0011328578155951, -0.3122718852261145, 0.03140044844181554, 0.0023411104810141603, 0.15284929230205474, 0.040849866563090406, -0.32655352649373715, 0.07986582162195242, 0.336766589520098, 0.062062340762929866, -0.19473464114239566, 0.04299780755050027, 0.19397337606709938, -0.10103599862083712, 0.02569966643444412, 0.14047102028279349, 0.19709709801974457, 0.0016739178240175632, -0.04199984719801587, -0.0884829916256807, 0.0014959630225803177, -0.010303495558547817, 8.367263362186184e-05, 0.04903293963523933, 0.0006884885608091766, 0.0018749248497808167, -0.16159297385579424, 0.018407115677850736, 0.001609322509108963, 0.02588353065070302, 0.027826057891920487, 0.1547048362944076, -0.02683796241943373, 0.1763268044401013, 0.13494989597516677, -0.059180765094708515, 0.04923587034832595, -0.01072071102322763, -0.024636424492383062, -0.06388105828146687, -0.0049181523316507965, 0.028535000156747287, 0.0006032400674251992, -0.0035926082175553693, -0.046503515344174066, 0.0012429292811112055, 0.0004889780925426855, 0.0010172231416353116, 0.06246017427108851, 0.0006165063444177534, 0.0005695230473024111, -0.05796813654975977, 0.0016961059894241796, -0.05047712833315486, 0.3627232500920109, 0.07287207965074587, -0.16558870100113834, -0.032357882906055076, 0.3990034402902969, 0.0684073748040811, -0.0690633336444744, -0.15853731711466607, 0.015800767542210454, -0.03095479869857245, -0.08091141126623386, 0.039972481505856715, 0.10296893986242457, 0.0004969264176050221, -0.03792513597524101, -0.1292128176496629, 0.0020613026068002625, 0.0014500521804619308, 0.0009333595545345065, 0.020863361667689966, 0.002009996481325968, 0.0006334946291452154, 0.038215243388335506, 0.08634335943405054, 0.00245599614206374, -0.03457747171698441, 0.04716777065085629, -0.08756461537897561, 0.0003708216016295066, 0.21742648596044895, -0.010679322927519256, 0.013391719519780737, 0.07258603293298226, -0.031794666868635114, -0.043701558072867346, -0.17573881634514196, 0.28646083611873874, 0.10078845302535337, 0.002324503980985217, 0.0019550885272464416, -0.2698861340008283, 0.0016952059121773974, 0.039184344193558165, 0.0016758636501375376, 0.017996149260590698, 0.0014618637632409584, 0.0015678695201795099, -0.0723826582400581, 0.000348324947714439, -0.043170319726701954, 0.2030925879561021, 0.00495660050593654, 0.024027961381842752, 0.00012059174470766482, 0.2061729483362787, -0.004071732107726295, 0.08094278344080261, 0.3104026523868075, -0.15584940343931925, -0.053295193280060826, -0.06313548407950012, -0.08287988360213806, 0.009224801416268788, 0.0008671733047505386, 0.0015824912434646604, -0.06630946105746942, 0.00032506780374444454, 0.0023726213974060834, -0.04622667879287497, 0.01849265146870681, 0.001322199801505017, 0.0018912902235872578, -0.15366457680991216, 0.0014565371890304963, -0.04159529686106515, 0.05707845162026346, 0.046198821168689376, 0.03198313778570685, 0.01880711644830042, 0.43996333963147466, 0.10624639363366561, 0.03553067258738884, -0.11046600658317225, -0.1608670758907606, 0.0002466972795977148, 0.00019511659170686084, -0.04880268061902575, 0.15314867620796405, 0.0006917655768183882, 0.0004627474182684461, -0.13113517155005142, 0.0014627065257904175, -0.012160967484335213, 1.7762750987112127e-05, 0.03788847662850307, 0.0003500101052408371, 0.0007889086543488643, -0.07325304446619514, 0.0013587841181166484, 0.0010943085371993072, 0.17653362224682134, 0.035091248364368235, 0.01353482970973749, 0.001346403576129444, 0.39548677380718555, -0.0649532494605933, -0.11467332045171859, -0.017762957736221267, -0.03955620820133636, 0.0022008146854845473, -0.0764283369160205, 0.07162947199158248, 0.004857325203700702, 1.803480101166689e-05, 0.00029227597531261354, -0.11183460771454572, 0.0017327011986506822, 0.03145492893168165, 0.0012754541140386731, 0.04144145353245138, 0.00015094823487827355, 0.0006433439598017504, 0.013810198394172942, 0.00201954457713783, 0.0006838920414759685, 0.19358889592237694, 0.07347566062046643, -0.14311524816116883, 0.002111871338634035, 0.22323180895002298, 0.0805943248111402, -0.14484351362404235, -0.048198269540164214, -0.15960254558284773, 0.001738877748474787, -0.061418277634705316, 0.03876425276447508, 0.18372843758721363, 0.000734108088496957, -0.03944318419427245, 0.03986752943356368, 0.0016274057092912208, -0.005403106530424068, 0.001119344956472323, 0.027293635407180487, 0.002432043113668553, 0.0008420890407031928, -0.1517068193979288, -0.044833952581865906, -0.02420123428495888, 0.1997878778955816, 0.02074173337706803, -0.013851750502079454, 0.0002631374815911775, 0.277151252919764, 0.09883959732271143, -0.16174170649100716, 0.06416053619639168, -0.09645448712248826, 0.001112988183737561, -0.054028139961757066, 0.11676442361302657, 0.03504983633264224, 0.0018449817478667838, -0.009755183566372965, -0.06301418746769519, 0.0006329236078978727, 0.00215702756585426, 0.06571636152231834, 0.017313793502235143, 0.0017185419086188632, 6.787565608256379e-05, -0.05311314697959238, 5.377093029351192e-05, -0.005047158359320636, 0.0789437299533339, 0.0015065385515405792, 0.05659371803811335, -0.03138166171401355, 0.21268289040384689, -0.13670353190633308, -0.1400137608862715, 0.22769749309373918, -0.023614349840531727, -0.003099900705314046, -0.08899912596198277, 0.08750016548501724, 0.0538387205510426, 0.0007432379063750305, -0.07769228796646133, 0.11394100474212984, 0.00033235961323104175, -0.01778535647901744, 0.0012931197124315898, 0.02405216972216979, 0.0014939166043119775, 0.0011532895464267132, -0.176215940870082, 0.06518485924379268, 0.0013277190184892399, 0.06294418091443765, 0.03449115400061557, 0.033962556435954104, 0.005847187281827068, 0.057878228263394754, 0.1280530113570203, -0.3412128156410614, 0.1923789886597994, -0.08419776634747658, 0.0005018675766150121, -0.006125517444944378, 0.09184809886510921, 0.024829834366876666, 0.0005932259866478086, -0.007959312874715307, 0.19220555321943128, 0.0007610140425889995, 0.019321331127978233, 0.0002944989903849248, -0.020173617592554347, 0.0016218230209883576, 0.0003937521552057022, 0.0010049015192305528, 0.0011958158491907841, 0.0021954695827319853, 0.0010617566432677035, 8.75777356195278e-06, 0.0012744695745449737, 0.0013910956409187141, 0.0020564035103257322, 0.0019181391031314362, 0.00021520105216450675, 0.00173211200191772, 0.0018812275981172453, 0.0014603877932732135, 0.002051255534573466, 0.0008974006768916959, 0.0010047231734834803, 2.0498178120807426e-05, 0.0006995990478835977, 0.00015682689295328723, 0.001635577861386411, 0.00045288355336290694, 0.0019681746091697143, 0.0022865518444831656, 0.002288707692280848, 0.000567469535036326, 0.1739033242848904, 0.042548840477339166, -0.01052554986729515, 0.04637755124938008, 0.03914354143129594, -0.055284408776729944, 0.0020765194517275254, 0.015519171581217656, 0.016965878926209068, -0.06751511937857994, -0.051239053707675, -0.026039963640261305, -0.026285135344441882, -0.017944510950175394, 0.06331820919942743, 0.008841724186587251, 0.0011170509540365523, 0.002178254343083864, -0.03578848037021835, 0.001105734717259521, 0.0019507009323647348, 0.000163403689297164, 0.016415390526618195, -0.008597708957055384, 0.0001957696558760271, 0.061959299403109756, 0.011664030645706093, -0.006495063384938311, 0.07870575902052133, 0.029951041226211547, -0.01007611373870119, 0.0001833071594275277, -0.0021435062124785624, 0.035938939787031735, -0.0868188349862842, -0.06678601558316885, -0.03046391938809392, 0.0014696907952020202, -0.06906971744222107, 0.0124280096999966, 0.003424813596419144, 3.544259747190946e-05, 0.00016828015945154727, 0.11312684309805038, 0.0015807929413699092, 0.0012811820611076975, 0.0007179243979533698, 0.049320165423161526, 0.0024408869326986594, 0.0007041164988144193, 0.031905427464367704, 0.0008936347831400289, -0.01767607054323132, 0.07525191468403652, 0.004217557195260668, -0.0630914776200614, 0.00022646548264921987, 0.08611199419164225, 0.0434224461733379, 0.01711476956486964, 0.04852713103308779, -0.016481128990567955, -0.01534354959227663, -0.02171651393195147, -0.0069859780697936365, 0.01701900880337891, 0.0030153256145742414, 0.0008568167468184316, -0.059877541928388664, 0.002317745409139504, 0.006100078352373055, -0.013717261508691255, 0.01189220262516149, 0.00021634031733830757, 0.0009276628984073734, 0.008477623760999893, 0.0007603034768156944, 0.0007520358735218718, 0.07196550756689334, 0.017372246472949156, 0.007710893105757313, 0.0016273889976346802, 0.0633596079594979, -0.016272542826057577, -0.045145633633213327, 0.027973447999100513, 0.009581221979039198, -0.017523854364719364, -0.06427570469114521, 0.005171877768763073, 0.026400306861011184, 0.0009680057942008331, -0.0003736890038707268, 0.019925012101375837, 0.0007460721935866918, 0.0007466664641778731, 0.0016799235029161036, 0.0064894379296626436, 0.0006948625048560549, 0.0003943890764207556, -0.07391348242656944, -0.01009897426444643, -0.009604443800078445, -0.0816248587691784, 0.05359152915593848, 0.037209429397631215, 0.0002993415565033128, 0.11817647851730516, 0.0260006118883328, -0.010082261671945949, -0.015993001725053076, -0.02196193751407897, -0.00923039919145643, 0.0012417812152062493, 0.043733295426827266, 0.0441386026289324, 0.0013796446541825273, 0.0002898910763922483, 0.02945679260043122, 0.00023735649225261474, 0.0024339471265657805, -0.01402576491723066, 0.012753151087554117, 0.001113484304600035, 0.0006310810816563241, -0.09596994286092185, -0.001916746992978452, 0.002296268530881204, 0.004424585449742768, 0.03568558942151552, 0.04080289686714288, 0.0024031481996386155, 0.1263955655810164, 0.0780938633196894, -0.0019268927894969304, -0.014917605086267641, -0.04579068336709311, 0.0011021874994878497, -0.02932574278068031, -0.0027468862960215233, 0.010846085196363037, 0.0011892034800471774, 0.0015331102296793958, -0.004199950687133714, 0.0021224311412507114, -0.010302157226111587, 0.0018500263075847758, 0.030483033512153278, 0.0006164488025207826, 0.00045939952864264635, -0.054515180602403526, 0.00020691239375543257, 0.0005779436737751521, 0.011963738987924171, 0.043662785881270295, 0.011492325590565622, 0.016323045452175312, 0.11648301126963907, 0.035506215767570404, -0.07189966281592691, -0.043949815719491615, -0.07278870495003767, 0.00011088503381570793, -0.02121070874984979, 0.1421495051416629, 0.03526925986687335, 0.0010823334390441502, -0.010464926276279037, -0.05930334785750592, 0.0004929024191555391, 0.008910709933887961, 0.0019922600786754716, 0.030945373739234717, 0.0003158613857713088, 0.0024122201546026988, -0.036883665443283406, 0.0004105912715868975, 0.0011309485010848556, 0.037345601192556116, 0.04380559735776689, -0.05341866464205087, 0.011497498854399171, 0.07807781111819208, 0.0868592539702757, -0.05470025546430159, -0.008647281062641012, -0.017200651640400685, 0.0021216829521090376, -0.022078339088387144, 0.04164818091843333, 0.022132871187394335, 0.0017697563049180226, -0.006563822551593155, -0.0527710769554389, 0.0013063772917409873, 0.007059650628265956, 0.0015636095577162411, 0.046310266086249746, 0.0006292390835456917, 0.0005705423205156679, -0.0844498793759798, 0.0023776628130645003, 0.0020302021320528735, -0.02361122753150065, 0.025508787434403556, 0.02002049644231601, 0.002044090218242084, 0.16670669544387526, 0.041913485875886516, 0.014774378459403043, -0.012944482156042105, -0.03184313608908709, 9.631538749007584e-05, -0.026872139142798953, 0.010194861351599617, 0.003211304126761959, 0.0019182812444344286, 0.01470934290263994, -0.02111561382754621, 0.0017048648732712703, 0.006287694745923166, 0.0019084968203952346, 0.017258768952763025, 0.0002807051179193476, 0.0009603810205348625, -0.03659438525710067, 0.0013805749151500786, 0.00028138865770074406, 0.03153188855416812, 0.02465280488423186, -0.019147948229758818, 0.009572864704254534, 0.027535716448938936, 0.017156854776018395, -0.02216423567930809, 0.04808836438045955, -0.016109265956119175, 0.0008402627692484283, 0.001818500926451156, 0.06155474014876659, 0.002570561898158106, 0.0023414434021499283, -0.017661852599160442, -0.007870079427182661, 9.159047639462921e-05, 2.0572168476398982e-05, 0.0020251266275418374, 0.01766143573295973, 0.001344038002611245, 0.0003029815279110262, -0.06357314617872523, 0.03429062434404065, 0.0012102228049062495, 0.051399065587344785, 0.014336329115261235, -0.053905730836377015, 0.0023813447136160964, 0.13410770181775541, 0.044530756280496964, -0.09956365101005751, 0.021636271352144524, 0.04958828604506889, -0.0012479912520918712, -0.049692051459920415, 0.030093696788879708, 0.04319102903605016, 0.0024000468544677035, -0.04782082876881295, 0.0005304713501408138, 0.0012829877581557248, 0.00935640625770227, 0.0007813880934717071, 0.00586318129391447, 0.0007104538359387181, 0.0004784326014296597, -0.017058809161636726, 6.653023079183137e-05, 0.0007217275742018009, 0.026465617329935763, 0.004926658490921065, -0.018658887986985992, -0.008439106839268495, 0.05931990541272108, 0.0444408241550762, 0.005262728001563675, 0.06033343565609702, -0.06552837033936736, 0.0013537703149010165, -0.0519240709355948, 0.008811959746082008, 0.05236419528296068, 0.00504842814660044, -0.027173274975760445, -0.020284718960645595, 0.0012389735191840672, 0.019941792264583674, 0.0020243499437410106, 0.044293359528882636, 0.0010126092187080068, 0.002240232894559035, -0.06131227247250421, 0.002131470505935528, 0.0014705665916701274, 0.07470408370198107, 0.042008070610901185, -0.03675942958846643, -0.009647649811352865, 0.11917533261997375, 0.08567062611334304, -0.03348517604770254, 0.039064638791083274, -0.11225412830835599, 0.001792266642103979, -0.05776595059339889, 0.02407863089926378, 0.01221420132932833, 0.00015927755370788565, -0.002287787849749143, 0.017870289142201137, 0.002272701053404516, 0.0024033606013530487, 0.001795529954761999, 0.018129507445229436, 0.0005017386396316243, 0.0022185041703634417, -0.05616283476502151, 0.0013332191465532737, 0.0021963951696220285, 0.06972099858834711, -0.00955251500956904, 0.060853189215946256, 0.002055701537176815, 0.11309247152712842, 0.03956944144632573, 0.0005247594436456286, -0.04490031172386019, -0.04559549082622895, 0.0022492122996652683, 0.0006903473679978236, 0.010999138534055358, 0.0031236857737212045, 0.00033829266668801444, -0.01596999837413256, -0.02647786944568615, 0.002135053832561727, 0.01937914339714448, 0.0020900569288735986, 0.002257359204566906, 0.0024271584748785154, 0.0018067570576441538, -0.09407718341553456, 0.011487020861742265, 6.111320076266453e-05, 0.0484399707159773, 0.017793952286676983, -0.10325902720949402, 0.02833722677212161, 0.1180885627934156, 0.022476142706958382, -0.07160917648670284, 0.011657774051226928, 0.06427934464036449, -0.03498233919232998, 0.0070400781190071175, 0.051630557650845434, 0.0653361312340898, 0.0001567752826909099, -0.014589747758689313, -0.02650777268859593, 0.00019637218312745298, -0.0012422832922596892, 0.0004322743986931829, 0.02141197230077907, 0.0018617955262482271, 0.000678054645556362, -0.048823017518021025, 0.006688602448699199, 0.0019587253095244917, 0.009072112276698468, 0.01187553420952909, 0.04681169127284651, -0.009077183430254687, 0.06442103864903136, 0.049761341625169084, -0.02656142748220175, 0.016143439815798157, 0.0008791866864206152, -0.008480099252583233, -0.022428535378455752, 0.005576996393208943, 0.012021989437703615, 0.0009908257784633267, -0.0005899656532969663, -0.009472914392816471, 0.0023924266397513457, 0.0015515652424320514, 0.0017172677930899877, 0.02546939857065153, 0.001965052039057466, 0.00023536854269500042, -0.019752491330586965, 6.481962572403924e-05, -0.016056008608902408, 0.13476837459748106, 0.02760176010159892, -0.0591267191964949, -0.01007949242745331, 0.13728381520438857, 0.032135407702338796, -0.027666736311218566, -0.050806924700934224, 0.007486105642629711, -0.011119837102782902, -0.02907117701682037, 0.01572002768540117, 0.03519050807906529, 1.1766151283982338e-05, -0.01127905057153446, -0.04388962409338229, 0.002006818919098956, 0.0018259014684506604, 0.00029022317591695796, 0.009795494599767756, 0.00041565508483718444, 3.8523177754354784e-05, 0.010658991251184177, 0.02927952680153462, 0.0016318544367314922, -0.007535076078029536, 0.01944294826839962, -0.02866471329205955, 0.001414663770714336, 0.07319610451094208, 0.003589814404866524, 0.002964169752006078, 0.029688714916747454, -0.0053087451044238326, -0.014706540543170036, -0.05740336172406607, 0.09906415459171573, 0.03708187059426766, 0.00040551508032342116, 0.0011685013399259161, -0.09141379540640127, 0.0015910716963296156, 0.016902400809994753, 0.00033808846997653014, 0.008498471666375925, 0.0005521639938360301, 0.0002817267913501034, -0.030304473889670253, 9.700383526879484e-06, -0.01509822468912295, 0.06889341402702753, 0.0017421121703459098, 0.017250953031644395, 0.0006710436749823574, 0.07786443679110332, 0.0025769518175445334, 0.026823056471502307, 0.10940033615154819, -0.05173709549571767, -0.018911289625731555, -0.020737921768393053, -0.023176856208788378, 0.005866762475864655, 0.0009821594301234744, 0.0002560108351783425, -0.022755239482614566, 0.0021366584867897817, 0.002362950206493954, -0.014563031854832353, 0.00833951464068411, 0.0005621724524806635, 0.0008525374259377157, -0.05448437356805067, 0.00029460676108422634, -0.013551506412399592, 0.021150608473663332, 0.0197862365230351, 0.015424031042069871, 0.007736301228607221, 0.15825635491413162, 0.03978874691051527, 0.014997806715188768, -0.037781257926057875, -0.05611136485844495, 0.0019600869037730453, 0.0003250855973774609, -0.011204312378645541, 0.05402172202059637, 0.001860909281631664, 0.001760723743823128, -0.05003308763746474, 0.0003289120947924864, -0.003107568469035433, 0.00035685282909766027, 0.014494400220730943, 0.0007485441362350097, 0.0017973399642446503, -0.01812282759781989, 0.0017504907658415917, 0.0016196394460153039, 0.05678615767568098, 0.01431481022616041, 0.012109159908456334, 3.026480287161265e-05, 0.14569834990594163, -0.014989723098013372, -0.039975890679799835, -0.008393168624479422, -0.018237406997977868, 0.0003115349324482592, -0.027991206831712058, 0.028833492150280225, 0.0029729753941668147, 0.0013006123492405105, 0.002061658787014957, -0.04318977262414727, 0.0023804976324237888, 0.01129521686259849, 0.001401526092134972, 0.017510454406342538, 2.161922008127577e-05, 0.0006694386287095503, 0.012301232594124745, 0.0005060702184317695, 0.0024479478513374053, 0.059349957002314206, 0.028799127050693582, -0.04826019456300141, 0.0002369385488445646, 0.08509490405280563, 0.027594814680903447, -0.051134668152246036, -0.014848368749345182, -0.05209465792439644, 0.0013691878207833066, -0.021026951499841934, 0.01916489209700502, 0.06327733204605593, 0.0016251224159997716, -0.01254788423067904, 0.016795020764799294, 0.0024244908745798457, -0.0004692046264625771, 0.00038571081029423307, 0.010875139368661703, 0.0007102528323172602, 0.0011509194513497937, -0.047877700757911555, -0.015371024411857235, -0.007168168734855947, 0.06973746723707332, 0.008966554275357056, -0.011710555574943736, 0.0014888041093882446, 0.10082311159730918, 0.04284917512363451, -0.06036086787513968, 0.02222821344066353, -0.0332147777300772, 0.0006972547462789581, -0.017675515451653454, 0.044978482874985834, 0.015995596322072207, 0.0023888964068869956, -0.004291867890505569, -0.013252806252379838, 0.0004548037524594318, 0.0013492998444995243, 0.023634236049399942, 0.009474126585634372, 0.0010564762612057584, 0.002224572906074415, -0.021295101079522608, 0.0008577304812892667, -0.0010160293012795273, 0.028915961159715703, 0.0010610489134482229, 0.020026367372374298, -0.009570108049613989, 0.0787771530979343, -0.03703789881852744, -0.05116550514530526, 0.07094611377252327, -0.006935776512074453, -0.0010865114783942418, -0.029666353096067695, 0.032831328163816745, 0.021555750485469982, 0.0008210949068389609, -0.028299036029116733, 0.04899238510508676, 0.0014395975732617839, -0.0020629882284704925, 0.0016446382421819409, 0.010777764182592095, 8.996041023197052e-05, 0.0012507755775618297, -0.06227217235799852, 0.022385694868500124, 8.139561118054135e-05, 0.028268105172682603, 0.013982426480053198, 0.01830942496701732, 0.0025982290832635923, 0.02723583128801022, 0.051251474978796376, -0.11342612546415615, 0.0687018816823108, -0.0334219694040825, 0.002339264706308257, -0.002013540040488017, 0.033996541800536066, 0.009959558359854633, 0.001407947695695404, -0.0017936777294294568, 0.06008217783763326, 0.0008854830890252677, 0.009642758614111046,