{"layers": [10, 2], "weights": [[-1.177892428868952, -0.2007817507336367, 0.03713682312977135, -0.3611578937661421, 0.0021868250076211558, 0.39707008933303867, 0.006246496827776043, 0.008632846856945176, 0.003979933690985567, 0.4495047133972065, 0.24925348404881337, 0.3399659354045806, 0.17744930585859034, 0.005249085819135322, 0.0023202425419218795, 0.007326290929703317, 0.008315226792166463, 0.00985334565860938, 0.26839701585445824, 0.0023001259458007343, 0.004922278038011722, 0.007699205407382674, 0.008005632959123845, 0.03139269381083928, 0.005257110545869908, -0.36682325621673584, -0.050857865704101855, 0.02645364862150107, -0.4190559568086617, -0.04276909411146772, 0.11019989492917782, 0.004149438973985213, 0.08486317499274451, 0.008012048564418199, 0.26028496658706907, 0.43252627700779556, 0.26088264908114, 0.002203428837772796, 0.31727158703337344, 0.0421322659573309, 0.008837200603600994, 0.0019024244650225582, 0.0035658815098319305, -0.4238140152122635, 0.007546924634920621, 0.003065876550736459, 0.008199618143480749, 0.006732982600120207, 0.0026889288760820395, 0.006418674451643073, -0.11669434429990092, 0.0002065209255782916, 0.14165790856824784, -0.14984281760976062, 0.00234149993448544, 0.13987016157936863, 0.009181741066530382, -0.40311946774934493, -0.06582756420209852, 0.17246209509205584, -0.007080000933162748, -0.020289646299480078, 0.06740647397538883, 0.13136549256819582, 0.03927568289286903, 0.003779617722523111, 0.00635653752238943, 0.007886429164474488, 0.2658231610594987, 0.0012171662071506376, 0.008381938156663002, 0.057830704481047025, 0.006313490946370698, 0.005268802887347559, 0.010071823562975198, -0.08899007223807603, 0.0066800105452349155, 0.0065243752562436155, -0.05397528656774354, 0.003949929083818777, 0.03291593540431882, 0.009987777870535994, -0.3584890166749661, 0.0076070368749771205, -0.1222819818241113, 0.2631238970422741, 0.022352351652128295, 0.13785978535158597, 0.3039624457335993, -0.007861992874798043, 0.039205851739944536, 0.0034589600291962475, 0.035933321214228355, 0.03179665561800069, 0.007692593074605589, 0.002080515025024083, 0.0031357103728870592, 0.007804113795339523, 0.009129716926600298, 0.0036115283171679552, 0.4153482163020316, 0.09809348245205303, 0.035680575295270044, 0.19738234686069528, -0.033059227710023974, -0.016003118224175897, 0.004953396329153567, -0.7812500249118367, -0.18436046273720372, 0.11902499905915775, 0.09092615202836118, 0.12353282123177863, 0.12521303971350636, 0.007899739924143293, 0.00935786041340002, 0.008366071904900099, 0.00660641605608478, 0.009727670294516025, -0.007085950109358527, 0.004243148601747939, 0.006059291196022464, 0.056717304432251155, 0.008902703403336768, 0.004986657270412392, 0.00010677869424493342, 0.08684268870281778, 0.0023058453683771976, 0.007295208375126753, 0.16033716278934584, -0.0224825709556718, 0.03770701396365932, 0.0027033270620930943, -0.5142876679416991, -0.002499164813336988, -0.07623106321995525, 0.09146684675184326, 0.3105996418472027, 0.0006939894853061864, 0.06029291516530064, 0.05913655973076799, 0.00930586378381223, 0.0038616830841354923, 0.004390312703390601, 0.06274860004270326, 0.0021817831453844723, 0.05872124360677467, 0.002878690862595476, -0.07192242414164428, 0.009168035387556547, 0.004803752382048632, -0.03884330601881585, 0.0006206536517641668, 0.005213603162365203, -0.11004203461726209, 0.007769784915697045, 0.06713847814495863, -0.07879469373484801, -0.5182000308090534, 0.0827272269728142, 0.264355027390827, 0.03609704120705712, 0.18718680027202167, 0.0076435639825797735, 0.06917209027574996, -0.11032137592123382, 0.010102261249301026, 0.009953771860377842, 0.06144187805187234, 0.40074402147235616, 0.006861120640921513, 0.0040021957589029865, 0.005373071813025502, -0.07828433983494763, 0.006683047092230541, 0.007549038031433217, 0.029398496725104237, 0.0074269403043150314, 0.008453676219338438, -0.043742650461010224, -0.0002425860774387316, 0.08335408329382876, -0.065623253198497, -0.5520804997968185, -0.04504974445647495, 0.5718289760264613, -0.15009976209078504, -0.030120317091636876, 0.007032770921706679, 0.07363976183633396, 0.05741317097309803, 0.0032827449218149523, 0.008598704199822295, 0.015481835289388667, 0.26847174657046713, 0.0046140556331333155, 0.00497605737972022, 0.008833606105498349, 0.00910933807798242, 0.0050395753091658346, 0.006923428868245628, 0.062111990853330704, 0.009490369004271165, 0.004419872546335168, 0.08951823564126639, -0.045351733291895804, 0.17394834059348077, 0.008408301576571471, -0.3481514298514893, 0.13708897523869437, -0.1448550292033104, -0.003785025835857845, 0.2567434412689879, 0.0071029568010236325, 0.007442239729175372, 0.09496857778383683, 0.0002428692483875793, 0.010012764011458978, 0.008829027810752432, -0.08056966149265933, 0.009806083896801553, 0.06035754883019476, 0.004473888384467418, 0.013923474934883268, 0.0027444470164206857, 0.002157352322576974, -0.010951729201986934, 0.00023019159586357065, 0.005448675210345042, 0.011420616023564392, 0.07270879257981087, 0.17311221652378708, 0.001975579045139847, -0.08169382343366435, 0.055627819986655024, 0.17318267352766503, -0.1339298438305098, -0.18034734860997592, 0.0029540532502279997, 0.0011158150213851307, 0.10078963978318531, 0.0026233516820772813, 0.0015791415771819197, 0.07738472392791348, 0.06443322040357956, 0.0036696488258491002, 0.00018576523743771224, 0.0030800032539881, -0.10256840126115052, 0.002157529410223009, 0.008248833603839609, -0.06216178399054007, -0.12629984457251045, 0.0010754961513407305, -0.08522635602839518, -0.015627880721527657, 0.035334783778955735, 0.004694836444922014, -0.38015721771412114, 0.016016205970999568, 0.3978388885861739, -0.0189186365155153, -0.23728086260962267, 0.0361485421268846, 0.13456095832657972, 0.1991330453912745, 0.00927527316508926, 0.0001782790166284488, 0.18726863961202397, 0.22457035283242355, 0.0024962227627448076, -0.07019387483025198, 0.0001634917712663206, 0.024881134092993806, 0.008336655790067728, 0.009423079185514764, 0.06621180094727465, 0.009876025494066286, 0.0034359940874392693, -0.21564272684702399, 0.004538629351751306, 0.11709436955203543, 0.00919164085896811, -0.5217421608071484, 0.05484074853909963, 0.07877327117764646, -0.06294808360698027, 0.32463282693464224, 0.004033785183367147, 0.10915539260790692, 0.08211363725230401, 0.009955823697645914, -0.05639816915924197, 0.14972343108094643, 0.188732125742473, 0.0013267709097630836, -0.05985618723809429, 0.007583053690381101, 0.008475017555498126, 0.004143451737096027, 0.007202639720545402, 0.2113231014601847, 0.005901079879701736, 0.007821169044852054, -0.2860765674518069, 0.0035738670668120655, 0.1283660190449207, 0.08828334620325802, -0.5788083992827501, 0.13143249286338082, 0.15322406712731393, 0.1172591003699364, 0.37763679049895715, 0.0053142056718079944, 0.09726327657840804, -0.0905226617993989, -0.06295771311965719, 0.0028608157974108588, 0.008034832594298826, -0.0012716232604165717, 0.007473223348066279, 0.008208087923671257, 0.0034900807628685795, -0.037204900124480245, 0.0063079468957940865, 0.008160943960166015, 0.1658412568776292, 0.005517564101389767, 0.0008239265467894107, -0.18893180474641852, 0.13966597672690428, -0.10805424824656293, 0.0007542196012797603, -0.6067808800446495, -0.19757430812931343, 0.23342013292190394, 0.26409169324485154, 0.2696762995269281, 0.0009517893267027049, 0.007251189505739736, 0.051533550182345705, 0.0045148372139131475, 0.009642505083467819, 0.047399566689685396, 0.17350577380539295, 0.002621149399551342, 0.0083741900667854, 0.001831945365249774, 0.010242180993655795, 0.008820349860047, 0.008647828451362662, 0.2709227948887438, -0.06327821665687544, 0.007056344955401786, -0.2217852468402707, -0.002953092886344398, 0.31287402216847104, -0.08243718806247792, -0.5756113821934417, 0.10051348588193795, 0.2732007365231331, -0.03621661423105733, -0.23316480128411102, 0.17110487324798232, 0.10144938919188021, -0.043789485484548994, 0.08490556930152972, 0.0030319935181077583, 0.07179397974897132, 0.19256435805349226, 0.006590978963172738, -0.001967472718874193, 0.006208315990161669, -0.07007925886859738, 0.009804613268872027, 0.008881227789926685, -0.12144208229627487, 0.0032535381473153425, 0.005787172509814137, 0.23652722998073092, -0.03155764818809578, -0.028526529625753427, 0.006089804807614409, -0.29106885153019624, 0.06270141872547587, 0.053780643724287744, 0.12236986504774065, -0.07392264011479442, 0.030864368986930128, 0.06010240744953927, 0.07992504827940838, 0.007370703973591458, 0.0008064760527068827, 0.025666017349012464, 0.12987244148869645, 0.010049438577873092, 0.002441383547424413, 0.00814668171379139, 0.009696144508554393, 0.006283622570728332, 0.001297108610476181, -0.22067714198490143, 0.0005095120363321429, 0.07577933634048814, -0.24732065843048529, 0.0074910474526493085, 0.1686113223698381, 0.08827608160560353, -0.4498099533558195, 0.030509745322984796, 0.28834599385560794, 0.14454931534144325, -0.04022157732018364, 0.06697690067801113, 0.09698464106296334, 0.12906467574101316, 0.004691079016539413, 0.0011587099308869606, 0.0037226376931790094, 0.1811581657440068, 0.003961671613639449, 0.0077317305648434064, 0.007589313047229301, -0.05406688544734099, 0.006002328362175018, 0.0026015666396208004, -0.1507869449622472, 0.0079085674227981, 0.0014197086849734681, 0.14072938349221212, -0.035876266581788885, -0.04434231821667926, 0.01001269110736556, -0.47962027336497803, 0.027336772604282515, 0.2726336142256963, -0.14528536887792937, 0.025447618027032742, 0.05442396172801193, 0.2887444562148777, 0.008485005381865031, 0.0069935852885178035, 0.0016018847625488505, 0.006952420721536466, 0.2999709665578742, 0.004321824677199113, 0.028679404034064323, 0.007257458734575236, -0.04162466179143442, 0.004027031920184916, 0.008964038576517442, -4.701964347925808e-05, -0.036134738253566924, 0.07936248842921735, -0.19164688601803204, -0.01747589833730068, 0.18161321151676693, 0.0025814454094098428, -0.4563862956777063, -0.04437986959566151, 0.24516926352665686, -0.16952562214389755, 0.08945149437872045, 0.0624128090419493, 0.08943105296327528, 0.2270971094341641, 0.005391820565541473, 0.005109051026671869, 0.010002027007382877, 0.1500842353540447, 0.0007253921061128101, -0.021099002592968145, 0.07291970274414375, -0.00286684586215103, 0.0032016803155049778, 0.009983493492575341, 0.16716951340625694, 0.0012211151290977202, 0.025598015509677278, -0.09055465938782431, -0.01692284734377065, 0.06958151412412872, -0.08170340853313107, -0.47949554275209816, 0.0169412392223671, 0.03342084833953549, 0.2558077065141114, 0.21168588065046529, 0.007972401553272527, -0.016896418158246017, -0.06787554941381599, 0.003395277303413597, 0.0016229051371151213, 0.0034632338760882853, 0.16650164879471768, 0.0008092166600509183, 0.02987856682785613, 0.00104769783151167, 0.03055742424426902, 0.0007253551332854925, 0.006787066168632633, 0.07972973795507192, 5.424245173733969e-05, 0.005082027409199202, -0.20012072160130134, 0.0780793947137782, -0.24932524427980238, 0.007538965643982279, -0.6005767132391873, 0.08537483415696617, 0.3098120712941199, 0.09284735552995549, 0.06371249087297555, 0.0009785815399145762, 0.20288268148948702, 0.17954782663903165, 0.0036353254577493163, 0.003948051471057111, 0.00971438703367397, 0.24175183706430492, 0.004260892102841609, 0.0010052113719560098, 0.003539005457382603, -0.034839495744686984, 0.008709491913342556, 0.0011819461987835115, -0.131342751909535, -0.02111728894002139, 0.007086595060489807, -0.16758802705031753, -0.0008139798772177655, 0.2001753139586186, 0.007712203352043703, -0.3210219967796045, 0.03156641894722012, 0.04520142097940578, 0.11705585308887713, 0.11718731767765567, 0.008638804560588378, 0.015419016401886422, 0.06544834686626971, 0.006282781835814972, 0.00946310204891725, 0.030111783884751515, 0.22367012920605006, 0.004324354920643854, 0.043716108753245664, 0.0032349258661316196, -0.0013523319955738569, 0.00023202436853671598, 0.0035232887644114845, 0.10697903747543956, 0.004904140394071433, 0.04171081091700607, -0.11701609258050698, -0.03659797597948364, -0.0754906611054696, 0.023679660912527687, -0.3630540457542583, -0.022296406235706438, 0.2267090108733868, -0.1683789635363659, 0.12707216736261814, 0.007303804071712386, 0.054974583908584354, 0.23207069334855487, 0.00478127762362839, 0.006428776034802902, 0.08801928199489954, 0.19637065818491153, 0.0065302973560748675, 0.007983721752751636, -0.02918217591227422, -0.03371017771230416, 0.005279732372156793, 0.00044385806312424654, 0.06783519562447969, 0.0061324467656538725, 0.026063472238857587, -0.09418600092196992, -0.037926924408536684, 0.08182258948742842, 0.00903348256690541, -0.420840343730147, 0.2793396480171645, 0.23735212743872133, -0.2750583208900558, 0.03179343208940301, 0.031789739907724726, 0.11849002697727025, 0.08566835669211478, 0.005522347030442943, 0.0028788410304419203, 0.1658194428531749, -0.13954098984788213, 0.007885512321368048, 0.09519502204395348, 0.006528234643772588, -0.006038401329544074, 0.009836202923739138, 0.008050057309156014, -0.09712269160456687, -0.03221889388804463, 0.008614319752388435, 0.13353159855872676, 0.006496465798945087, 0.04545840011763214, -0.004884373108155318, -0.1505693573383533, 0.01683328287582893, 0.23724929409955417, -0.1760651169544625, 0.2834337669388147, 0.009132221189213608, 0.009298176048217888, 0.011466085311105134, 0.00984271281725232, 0.006557316718908659, 0.017078386093414128, -0.04901762484500532, 0.003694348862300511, 0.0007813065691452671, 0.007330895361073748, 0.007038331966536538, 0.006363984775321212, 0.0002049689384226002, 0.004357865006836173, 0.00647192249488384, 9.970141045015595e-05, 0.002212195660726719, 0.008384051788643924, 0.002997163890161437, 0.008453480153361531, 0.0021926989113401738, 0.0063386782728721966, 0.0028780504376679523, 0.008191539716019625, 0.006797122142826762, 0.003161203124029734, 0.00914832305462778, 0.002179450419234982, 0.0038966651826779107, 0.009698045163375984, 0.0076542254554156685, 0.006456870277783645, 0.004870312959659929, 0.0077735987928327175, 0.008478139278440289, 0.009098184872221046, 0.004604677830061338, 0.004586111755234206, 0.9123156284507724, 0.15135920852914708, -0.02319972736673769, 0.2674838298491968, 0.0004230474315660443, -0.3261819864687556, 0.004550301117607503, 0.003321607357676397, 0.0005873705475293928, -0.341549386300971, -0.20250936955923615, -0.2729089639541473, -0.13468902820909073, 0.005589313275266286, 0.004821747150622129, 7.329126957507868e-05, 0.0018410231335792714, 0.006197631553636335, -0.21673793327475058, 0.00762638281085508, 0.009111677793201722, 0.005377116756573938, 0.0025266126262512615, -0.017227291222138754, 0.0016818886496157478, 0.2717763869507918, 0.045231049781354296, -0.016066390229073094, 0.31352322268959903, 0.041897413575415474, -0.10062591672994992, 0.0100889288793606, -0.05347043578176927, 0.0014323211359439597, -0.21537684420115763, -0.34194645120746137, -0.2063878106557117, 0.004485431001538788, -0.2350129645387239, -0.022386716975531813, 0.001491087621820228, 0.0057120755767148725, 0.005198117466005871, 0.33746662288784607, 0.007487022534011986, 0.00277249765370183, 0.004852978961150766, 0.006900376489071909, 0.002221019473683023, 0.0031167989806767118, 0.085497895126184, 0.008980572167949265, -0.09334251730139789, 0.12068396999531106, 0.007593505023902022, -0.11804992367873655, 0.008192316144015112, 0.3101503270658738, 0.058326833824990675, -0.13353348835026288, 0.012764982864027647, 0.015281908385652833, -0.0453238011376677, -0.09558841984977219, -0.024868297185106737, 0.004183781600618407, 0.006788582526007121, 0.005694910509837119, -0.22213867597577305, 0.00021173982285364878, 0.00035919883772454113, -0.03503399908751943, 0.005991584078891935, 0.007480981479661922, 0.0010319292277232244, 0.06203033900979686, 0.005996525401222598, 0.0045525469031887835, 0.04410383117701674, 0.002621208684558197, -0.025853812664619426, 0.007131419386298065, 0.282964366500203, 0.0021076019000889038, 0.07404005668970903, -0.21110408904998662, -0.022155644368132513, -0.09036519396689709, -0.22629217592313874, 0.01664413563070111, -0.020980393416178758, 0.0004513271273848612, -0.023831722915743665, -0.02727267768940858, 0.004921009642460696, 0.0025140808377140523, 0.007864601440026953, 0.0006775083215292898, 0.009936492002038428, 0.008002167214295364, -0.32899777719845164, -0.06244425841060464, -0.02235940245535309, -0.15134866405123376, 0.028413178423701824, 0.007850979155755236, 0.006533168680872955, 0.5987948633091508, 0.13889080444505586, -0.09215526577371674, -0.06437949041315033, -0.1061932145484765, -0.07954582537426005, 0.006627957304693072, 0.005223718926720173, 0.008527956989936053, 0.00844258308791591, 0.00021938160071631577, 0.008185266064695608, 0.004955910648484447, 0.010044041298863953, -0.038948335017380334, 0.005805177024168297, 0.006757978619474251, 0.0027451454341973847, -0.07567639891752292, 0.00033279701976366154, 0.007460016544032833, -0.1249217438255916, 0.021569250587352044, -0.033733468857638456, 0.002703862417298135, 0.4026264856230115, 0.004240249828148722, 0.050013662324856746, -0.07212731363137005, -0.23585130583037017, 0.0015800266329754323, -0.043256461673768204, -0.033023730489712064, 0.000880341567839531, 0.0016756074222396007, 0.004318787466945346, -0.04901963494663197, 0.001005004198586683, -0.04393307414211609, 0.0072416985873710584, 0.059423274065148676, 0.00020762515736884196, 0.009409331743092527, 0.019191293140824496, 0.003793965101773404, 0.007880387785846548, 0.08900604411335683, 0.0009928976978866165, -0.05466060680026998, 0.061986840685195894, 0.40318924734066214, -0.05425398810479266, -0.21460531914121656, -0.0309068226048766, -0.1543426023313408, 0.0024203876212094662, -0.047871394545327246, 0.08392966406992508, 0.004423819445754158, 0.007842309743281841, -0.03930548317219993, -0.31375918723458385, 0.0035695074991552314, 0.005420822753836757, 0.00392196075611132, 0.06802374926681622, 0.009543476503061145, 0.006709968308018115, -0.028667814618498325, 0.005025856209732242, 0.0050645798976205764, 0.031995711734752304, 0.008202265317776429, -0.07407425031455853, 0.057295162587215294, 0.4214367611414886, 0.03880454442388392, -0.45036756773700554, 0.11964844220245274, 0.024722246807604445, 0.006818441638637696, -0.04605732299554021, -0.04383551662401114, 0.001727823789554996, 0.0051059599809858336, -0.008344942189561146, -0.2142461048896232, 0.009518294475002593, 0.008245539432121097, 0.0013141101464974562, 0.0007955664625027607, 0.002964081898492649, 0.009043529168292461, -0.06598683464877521, 0.00881279289100447, 0.0060292193839163915, -0.07474910871514838, 0.03584032481535302, -0.12936235304397956, 0.003329204644668417, 0.26660551562576773, -0.10465277496204921, 0.11038738633399343, 0.004972012690872638, -0.19227749936472557, 0.00950666627009918, 0.000463725792414885, -0.07390407131679787, 0.004253808987190312, 0.005277501002668917, 0.0032498462414718896, 0.07761162590178436, 0.0063901371711845584, -0.03938189332323466, 0.006787459257328237, -0.005113968656977011, 0.0066468045177623, 0.0019294537870212425, 0.0023890957544172673, 0.007589656692031942, 0.007371809094392059, -0.0036259331774077, -0.0544328360856197, -0.1354629224138879, 0.0013639863753212708, 0.06333485126585064, -0.04409511956527918, -0.1518931071049404, 0.09858321895231194, 0.13917830188815616, 0.007291206227530157, 0.0013716431447079677, -0.06618547210394171, 0.009071526824177766, 0.008995570970595276, -0.05141622077338484, -0.057462964506218045, 0.0078106040445430425, 0.0020723478517354803, 0.006821357657020023, 0.08158110697677098, 0.003983483838177195, 0.002847567253094854, 0.03617903037055496, 0.10008272383835223, 0.0057501207826894446, 0.06301574273851875, 0.017694271458110658, -0.028985350135267193, 0.009664097380342471, 0.29847789662413987, -0.007923921179273721, -0.3098988451609018, 0.017680452736817287, 0.19472514621580592, -0.023088987005408183, -0.09813721027484307, -0.13554831629114217, 0.006091635214582103, 0.007772314209067902, -0.15136675114135648, -0.1914361121261957, 0.006086862948178097, 0.060916923432932445, 0.007052702451850291, -0.013774041654625497, 0.007039767735201152, 0.009351808935634967, -0.051438186207085596, 0.006311426324076491, 0.009701868062858172, 0.15097935055203623, 0.005639164888252406, -0.09588036836334324, 0.00818314203719104, 0.40656909684975623, -0.04775207560452679, -0.060217342282501134, 0.052002612915682866, -0.240233127060415, 0.008135163815979344, -0.07217091278065249, -0.06173803121655019, 0.006947103628244526, 0.05610591579362494, -0.1068984603203939, -0.14759727811287626, 0.009039966509115127, 0.058920555215778304, 0.006363348969973562, 0.007394966914202431, 0.005491072160386046, 0.000746834736659834, -0.17087284885078774, 0.006400493866111699, 0.0024603793641595688, 0.22429921830913607, 0.007393030643870854, -0.1040511393520672, -0.05901428625704238, 0.44586777711992065, -0.09372474805906825, -0.10929014243379771, -0.0801016900907846, -0.30909142887282126, 0.008076252085483585, -0.06809841166421131, 0.07540578035050424, 0.05317108851838877, 0.006959458403078305, 4.28476723437176e-05, -0.006708181304535085, 0.007415462149459328, 0.002285297713304739, 0.00745770760641625, 0.03226376283394533, 0.0046708551838377105, 0.0038827128001547337, -0.13331759109010927, 0.0017675253793541365, 0.0023893130727140693, 0.13951756485853167, -0.11072509299550098, 0.08324857091223076, 0.009606798109453451, 0.47061320045696503, 0.16137947127597183, -0.17455059265157394, -0.20027924135458244, -0.20917041336687467, 0.0011511007053805298, 0.0022498171543467813, -0.02886344233926541, 0.009679471784047666, 0.0007431224074963214, -0.03373252249783982, -0.12982466699675718, 0.007669060903911184, 0.0023627494499390417, 0.0054649077691980566, -0.003936813104874183, 0.006377338566859605, 0.0010592046625916933, -0.20792574523086726, 0.06045639845850821, 0.0037787484695752105, 0.17280491829701813, 0.002030178623080879, -0.23498959568930503, 0.06470527933533606, 0.44000711463131637, -0.07127356727410375, -0.21566929161496023, 0.022001057933542838, 0.1777944142654797, -0.12772999287646628, -0.07147097142391566, 0.04484807596008364, -0.054575020354082425, 0.002980162243395314, -0.05331588741719348, -0.14258919082748728, 0.005513153613658415, 0.004119920855149231, 0.003204173789397684, 0.05404060592164425, 0.002760331237058281, 0.0050288961695877715, 0.09333137333934585, 0.008855230118564261, 0.006289286240681827, -0.1881620219324774, 0.026765871412495704, 0.014310605002439995, 0.007246296184313407, 0.2302883125175307, -0.03385823971278534, -0.046725500886373325, -0.09034905608475695, 0.05284400967634699, -0.016698121988567512, -0.03878270827061539, -0.0627182895391682, 0.007863971808139227, 0.0029684971170374284, -0.018768097199341853, -0.09868338720644465, 0.0038147868475666446, 0.006691771106110885, 0.008904276575830598, 0.00036794259444020724, 0.004535936538718243, 0.0016869501794406407, 0.15594710179505214, 0.004687915164359951, -0.04583416822291018, 0.19245146244878994, 0.009754858585842416, -0.14663848071232716, -0.05528439483052181, 0.35208423281300555, -0.013435304575186673, -0.2221160912454362, -0.10069458330198477, 0.03493247430584717, -0.04019628295750303, -0.0697119445135984, -0.08863128443672334, 0.006853332595001849, 0.009175336906826606, 0.007718533062325222, -0.14578368999807326, 0.004932941092828773, 0.00974564149911268, 0.007729294166785905, 0.053065465048386766, 0.0022953000544102915, 0.008814164242733359, 0.1014234434063224, 0.006774442043875326, 0.00948512512640215, -0.10448747693045181, 0.035750902095426036, 0.025845133334069414, 0.0010694522690446562, 0.3646617384752015, -0.00957383157362007, -0.2075398151626942, 0.11840958692272968, -0.02120552364029029, -0.036736088167452025, -0.22287517625101644, -0.004936880997645878, 0.007199221976556345, 0.005488106069097909, 0.004622472664506207, -0.23017997376045518, 0.005745909845172836, -0.018177830641419833, 0.006942278434694117, 0.042164527804611385, 0.004296834656014017, 0.009309863754040859, -0.002699484106676232, 0.03453732687749803, -0.048255519521703046, 0.14031602608886604, 0.02752891337422545, -0.15155458823589282, 0.0049720276830797034, 0.3570101593019944, 0.03426295173900905, -0.19409427523563505, 0.12633805961083486, -0.06488727812396501, -0.0493754370539903, -0.06374032921953489, -0.1771171388981814, 0.00760752585735138, 0.006327449038832582, 0.0015755831729983548, -0.11901553979944988, 0.0004334349273808998, 0.021460711310081718, -0.045411380820445706, 0.010541650132746752, 0.00484305127410292, 0.0022093230592304214, -0.12586957050875633, 0.0011142128428578493, -0.018318879445523725, 0.06018355440110027, 0.02344205666401197, -0.06418839564640086, 0.06697733566040723, 0.37283037727371987, -0.006306763828122682, -0.02615811017078698, -0.1944584553981287, -0.16736953397045268, 0.0027914348046774095, 0.025330896764469747, 0.05551889897964044, 6.86246961832031e-05, 0.004302879606338683, 0.0003141106810125903, -0.13675434594612848, 0.00783882322306946, -0.023119850499946255, 0.007335121210592819, -0.012409261354164512, 0.007042563609390152, 0.006145962152364048, -0.06868488748174165, 0.011516465965921667, 0.007384816561249423, 0.14573509543876106, -0.05689130850196917, 0.18643596467159032, 0.00014027807572062912, 0.461733734683925, -0.054877273542423735, -0.2407845761028355, -0.06362081045120149, -0.05040834488757814, 0.009827733192825943, -0.144594652200416, -0.13454227660337154, 0.00820074345859313, 0.006010855516057273, 0.009487627520486486, -0.19558174993776659, 0.006672896117315774, 0.009072016798629571, 0.0037198246895254025, 0.033658445141425054, 0.002930774845032497, 0.001438932106334406, 0.1022105692253952, 0.022095828589047715, 0.0008854327896114609, 0.1157318041223425, 0.003449920119002427, -0.1625295713808037, 0.0043763123823519256, 0.2568623488881208, -0.01826476199809028, -0.037458933372360045, -0.09259325395221711, -0.08990317874096383, 0.007071720248658258, -0.006644940346983374, -0.05501322201423918, 0.004466676318701028, 0.00787519654706653, -0.01813461883603607, -0.18608040909892878, 0.004270611013395499, -0.03153362638611694, 0.0014806420901097481, 0.01005355755697786, 0.009986277646320407, 0.007922696716366176, -0.0887087344844177, 0.0009993638782715983, -0.022980245087221088, 0.09343850557952177, 0.037024256023830464, 0.04975409700284513, -0.016634967061263977, 0.2838269845256152, 0.0146016983511244, -0.17673949276314854, 0.12377942354653383, -0.10077483242905942, 0.006266191496610102, -0.028727774588366322, -0.17778420463297567, 0.006817027491561488, 0.00012447426330146504, -0.05734144010952505, -0.15254693850567533, 0.00035254618908655633, 0.0070447344290885915, 0.02745811492685941, 0.03344692310092814, 0.007681289697020836, 0.0026259888670652678, -0.06306971197741537, 0.003383884096344101, -0.020787162367617185, 0.06872278880100365, 0.03300259381204195, -0.06939713053258946, 0.009333617116153768, 0.3263934636760806, -0.20667346800718372, -0.19530723631408067, 0.20769922227399992, -0.023330040753623684, -0.024742369693214503, -0.08328215778340715, -0.062295624500028735, 0.00276704194978438, 0.007050746046058006, -0.13030243989476034, 0.11203379032804112, 0.005046274454851366, -0.06192332331167622, 0.006290682130593383, 0.008741608215731002, 0.01009189849272904, 0.003145401863776446, 0.06602417171801066, 0.026917463118734778, 0.004450006941101028, -0.10956764253363684, 0.00594702002795841, -0.038905256057946515, 0.00716414691547802, 0.11923774217554524, -0.011153467146344034, -0.18143256865869606, 0.146939653159349, -0.22070990492441425, 0.006384855470662178, 0.009012394269533748, -0.012723085362640559, 0.0008529517967893902, 0.0017966553210766636, -0.006541475199071682, 0.031846636948180934, 0.005867344366216, 0.007285494283123885, 0.004434569912959597, -0.0012972281734305664, 0.009631005364733908, 0.008419721801317847, 8.702497289799597e-05, 0.006231302972645078, 0.005409164170878487, 0.0065613956511380985, 0.008866677984346434, 0.00016715341549534396, 0.008741191216903936, 0.008660382100134749, 0.003699659420333356, 0.004222293405202736, 0.003370799756276895, 0.007320993216801519, 0.007408656771242825, 0.009563643234477144, 0.00940695971850876, 0.003382667684704096, 0.005911226696300167, 0.0047694453941515835, 0.004535990940838035, 0.00444704094685763, 0.0028199352394158396, 0.00449876998913106, 9.52093036713208e-06, 0.0005519156950657726, 0.0007040630835536261, -1.13076624664981, -0.19198006214783125, 0.030615822038258553, -0.34083489292993613, 0.009764242336049103, 0.3816936663607173, 0.006526225783673508, 0.003791797858312663, 0.009985261399952169, 0.42883758956426243, 0.2435045915991204, 0.3313010819412242, 0.16913651488664677, 0.0011418671972583353, 0.0016051120728104449, 0.00803895235288415, 0.00677863441836573, 0.0018955109129641199, 0.26147871095041814, 0.0015055615745973336, 0.00037792039692771825, 0.009724929005525441, 0.009565608740345694, 0.0333607184789185, 0.0023343770997378047, -0.3421710155826197, -0.05035932855000836, 0.02248074918422665, -0.39933016837324653, -0.039095145103028216, 0.1084514018601214, 0.0037155675519475956, 0.07580675986485189, 0.00282690883898287, 0.2513733954617193, 0.41848221824858106, 0.2531685752268459, 0.0017711773977352936, 0.2996271530335915, 0.03847406418824045, 0.008366131164619496, 0.003970340838862931, 0.0015027379061773691, -0.41179050450652205, 0.006753146630696223, 0.0072736954118028455, 0.003579463403608718, 0.007584976015968233, 0.006482427364465616, 0.003263415676244062, -0.10929057194570824, 0.0019329871986875804, 0.12997607011371434, -0.1464441539147029, 0.0005620673594488173, 0.13644512467022504, 0.004559892522601114, -0.38970703945849383, -0.05715050261027198, 0.1694612368797211, -0.014685850644380175, -0.01284298689812773, 0.06126437371410422, 0.13158129904189816, 0.03460052706594762, 0.008855077353588595, 0.002463737865263786, 0.006057486416535527, 0.260083132316225, 0.0026818622865088897, 0.0013193992089000693, 0.058148492078860664, 0.0017383530951136255, 0.0012983402793424652, 0.007337938713585093, -0.08754130510220974, 0.001045410460457941, 0.002287793124776571, -0.04550431001767605, 0.007263892379991058, 0.034328969535441727, 0.0006523945958703638, -0.34250029550605715, 0.0009874837437303125, -0.11066059462752414, 0.25241756058809384, 0.026653345527988658, 0.13077392168542057, 0.28974081441887617, -0.006575669757055459, 0.03403487872584303, 0.0039998592012046395, 0.03701660959825639, 0.031219835421517583, 0.0020297244432143, 0.009904959504721063, 0.007001919944868912, 0.0038231055518997436, 0.007427586032944691, 0.007675475068045401, 0.4021333945131116, 0.09251682838896147, 0.02914891060718573, 0.19219893333614807, -0.028396163834185122, -0.014841061831117736, 0.0020435353900285953, -0.746572297109124, -0.1759093049187019, 0.11352692776669028, 0.08517748866701734, 0.1242999589487578, 0.11792815405377946, 0.006945806446363107, 0.001857469567725272, 0.008379175977286737, 0.006385251713364532, 0.0014826931263935167, -0.008836302282662153, 0.007300417926651279, 0.008035909525065128, 0.057049345609371985, 0.0003828318936976811, 0.0069212113663427895, 0.0070039491054181184, 0.08186470802660796, 0.0024635418686148186, 0.003865321238615525, 0.15970773577370487, -0.01960272920638065, 0.032984391652842546, 0.0030974334097549614, -0.49388810961786905, 0.0015410194656739948, -0.07403423047113594, 0.08589908992800775, 0.3007700986908458, 0.0038081446835817622, 0.05803715760787858, 0.05839494606380953, 0.0018709435005134262, 0.0011025963859248088, 0.006852255708686204, 0.05985664151549153, 0.0028081788162663737, 0.056350613559575595, 0.009051611881161116, -0.07515554700796277, 0.010089617608594776, 0.004876815688963438, -0.03778848310219133, 0.008365137237867732, 0.008001706249226763, -0.10184297331907087, 0.0030681166375577493, 0.06073211317937363, -0.08017161096903358, -0.4942298717991711, 0.07378815000143178, 0.25467681526593994, 0.03788199742754423, 0.1854067187334964, 0.005256725119073196, 0.0639772359486341, -0.10455160960027676, 0.002022431954294492, 0.008493915179777612, 0.06345311629358436, 0.3828070531803476, 0.004522063243488648, 0.008138923358720906, 0.0023270731253780116, -0.06817322539769906, 0.00846216936053243, 0.003735831617102064, 0.028282584652838425, 0.0037314806781016323, 0.008646439802640094, -0.04303554329301347, 0.004553032237734193, 0.0844093727636643, -0.0608062338132147, -0.5216852461355631, -0.04152242221017456, 0.5526316515260529, -0.14162140945836088, -0.03136256168770093, 0.00720867796141533, 0.06830575894848935, 0.05545651095921518, 0.004091155686057632, 0.006936204478760189, 0.021698025833940215, 0.2576553740874805, 0.008376422488786632, 0.002811297423020538, 0.0071477412069362424, 0.005623844846383915, 0.0004730251980152036, 0.0005947369304002271, 0.06373700676123453, 0.004591149306519782, 0.005341076937872688, 0.08689766517781428, -0.044689119962777954, 0.1605934541804464, 0.005195512658660428, -0.32563215925910793, 0.1305813534786657, -0.1413994671531979, -0.005946933644124955, 0.24410241138106467, 0.004900058959539315, 0.006178367353859487, 0.09206080715259327, 0.005576764438917668, 0.004089277694496242, 0.0033097039487915195, -0.08629095573833147, 0.008346890190308305, 0.05301778065729787, 0.008719285498478642, 0.01584027970715642, 0.0004854143087262704, 0.008241978159304926, -0.004726162542969788, 0.006632640553375819, 0.008145717385138874, 0.014981707507059516, 0.07465581687688405, 0.16832192534744453, 0.0033948162194760447, -0.07643644133218593, 0.054736052242895884, 0.17063926108646973, -0.12297552163293947, -0.17089028521432378, 0.0043603330355730585, 0.008545106838782611, 0.09464621651176867, 0.002720011106376401, 0.00656224699684244, 0.07222336743382816, 0.0678138717987213, 0.005681266474794289, 0.0070039549378986925, 0.009082735950302274, -0.09470603199608763, 0.0042198229107905105, 0.006297694284482093, -0.05676553456201854, -0.11427002078883756, 0.0033538415158867467, -0.07746653359729118, -0.02297304410066592, 0.03309216831916583, 0.0022828412352211844, -0.362420041080464, 0.016265134871891174, 0.3856396668430869, -0.014906063772797958, -0.22691018715269026, 0.03700791689625364, 0.12785097891546623, 0.18279887690289232, 0.0019020923627536136, 0.0007500375580957242, 0.18131586904577215, 0.21728900644398702, 0.0029600976694389293, -0.06506955867699304, 0.007468628746660708, 0.0192411146548767, 0.0007317304178799127, 0.009301455485388743, 0.061139509347230725, 0.0003477261467130175, 0.0019667670497089144, -0.20487525036045096, 0.008010425099086605, 0.10942915505208908, 0.0042689091238994285, -0.5002605449050537, 0.05236438736353005, 0.07989070332163954, -0.06052409413473745, 0.30693159594775954, 0.0029999822661008085, 0.10532175539067744, 0.08147220027718365, 0.006510389165296524, -0.05658179186675929, 0.14540465961409316, 0.1751684742638633, 0.005129439407092419, -0.064487905332575, 0.006886380144555345, 0.007337573694898467, 0.008676024049494786, 0.0035749799679224417, 0.19631930538651812, 0.004396524859411626, 0.003910778216115883, -0.2722692998061187, 0.004050325804004684, 0.11954545236357501, 0.082055069766446, -0.5569722914123519, 0.1218409343752933, 0.1397631805075409, 0.10790728184027476, 0.36409618643798863, 0.009698217983138776, 0.0901168140668366, -0.08548898780512276, -0.06102777206550483, 0.008209271108324064, 0.010928110245292534, -0.0034815643066974937, 0.008466549091225536, 0.003029980650315186, 0.0002697437138627917, -0.03340594949616106, 0.008858393683893007, 0.010070398573309498, 0.1626949183233417, 0.004414130514773153, 0.00979431923523323, -0.17830817651763264, 0.13711128566904804, -0.10556253670427293, 0.0091375467253483, -0.5846126053979019, -0.19086294817959526, 0.2233188334838763, 0.25579476505174437, 0.25611506482914626, 0.007560518332114594, 0.0100209998486035, 0.04475348617088173, 0.007873697231228712, 0.001932280565541786, 0.04895308114494615, 0.1636143551567515, 0.002563021025007439, 0.003309399904885488, 0.008580955088004907, 0.013789596396088663, 0.005858807504144105, 0.005821381296121709, 0.2617275895679533, -0.061240467483929376, 0.007945648032287197, -0.2095787978342005, -0.003152133931808203, 0.2970350649102857, -0.07311655343642562, -0.5554961602479795, 0.09541798027326653, 0.2649723427412907, -0.03145918926941722, -0.227692016451578, 0.16413723367593583, 0.10046422904798227, -0.042522526575438854, 0.08531030627968243, 0.00011671799853286871, 0.07043672324730643, 0.18141670986906058, 0.0034417921842488965, -0.0023664422659005523, 0.008257958306407184, -0.06627541758768851, 0.006415806692585701, 0.0007793073734691881, -0.11665467122368287, -0.003362312494293074, 0.006220441625880293, 0.22808380294523714, -0.028199713155088797, -0.028830776353449262, 0.005972246667279026, -0.28272442809992115, 0.05834423105600939, 0.051929710169809754, 0.10978566840632475, -0.06686153752463009, 0.029763984429003184, 0.0515985255064239, 0.07495498881892909, 0.00455518215326416, 0.007598764849776705, 0.024114146272943525, 0.12629145409797005, 0.004286841165205174, -0.00038868908705064193, 0.007387833659702804, 0.004059190151123347, 0.008787196560265276, 0.00851143305925481, -0.21181373474880383, 0.007351632718576613, 0.07599397582138613, -0.2400655552660843, 0.0068903601852517505, 0.1654821091420589, 0.08586819662937811, -0.43346150365252933, 0.02312236085550448, 0.2760615351855646, 0.1354232868443223, -0.04331662704774338, 0.06355515426014295, 0.0940481577344104, 0.11599823473834715, 0.009136733679624306, 0.004007069276918364, 0.008928664965432341, 0.17365948388061203, 0.006330349454717916, 0.0031825648406197306, 0.0018002554140616703, -0.05886649978936513, 0.00931457708495278, 0.008644013988078084, -0.1448618337501121, 0.008023190543143205, 0.0010189329083027036, 0.13078752156294485, -0.032081380061807586, -0.04545389930909391, 0.0028261755475490883, -0.45429565174225317, 0.02601647579243108, 0.25333636151496475, -0.14027790908992468, 0.025873655271504706, 0.05903371684407957, 0.2793042819581561, 0.010038673023260945, 0.0005466509541840927, 0.0009039563401723385, 0.006377693152883009, 0.28274348358821, 0.007991372705924123, 0.028525121102612374, 0.00992086399188233, -0.041322429225354, 0.007688253745222659, 0.0037350005921290433, 0.0007124991445421393, -0.02665759732728292, 0.07503581453099498, -0.1783882835949501, -0.01773895919141128, 0.1751605193757185, 0.003814455803628114, -0.4380449374332678, -0.04904642232556013, 0.23740581367931404, -0.1624863177674416, 0.08993114226743816, 0.06102509832450545, 0.08915717033915085, 0.22126364781620123, 0.00867460012196524, 0.0005900939996425763, 0.00844972341099649, 0.14729697621237706, 0.009839055444746052, -0.020954654756560137, 0.06884323148452183, -0.0016887912296668654, 0.003395534761164565, 0.009005972599397434, 0.15680940705985777, 0.0024229340316317518, 0.027376444084834573, -0.08236364657345659, -0.02101872545792941, 0.06648238602069213, -0.07318666510239284, -0.45857920479479347, 0.01262793862001159, 0.03630347792669413, 0.24483983053925323, 0.20015151265555284, 0.00630363339657911, -0.016642014878181875, -0.061212701513172166, 0.006685667885175908, 0.0015081900901989958, 0.004544200876616392, 0.15809319576036962, 0.008128078571114037, 0.028888805953838907, 0.007225087609301725, 0.03148824636532485, 0.008797396281686447, 0.008916079458185058, 0.079201319446649, 0.005595942811520445, 0.007259566763554874, -0.19534105053333092, 0.07131791055147586, -0.23679359915702658, 0.0027524030601126593, -0.5737215751039751, 0.0779002801010016, 0.2981533501264466, 0.08720932643348901, 0.06492840010698586, 0.007164641384386188, 0.1982227308812812, 0.17330293200439478, 0.001841950252452018, 0.007494559119113488, 0.0020718512967655587, 0.23471650779725173, 0.007969689366702334, 0.0030339245304924537, 0.008837247029740244, -0.026233351712778283, 0.00175619673833604, 0.0009010964670716176, -0.12336168961580476, -0.022693779898580745, 0.00934643384070603, -0.1547600292466867, 0.0019756830520882914, 0.19158705781156096, 0.00650798556411465, -0.3144672344299163, 0.028325365217991658, 0.04327726321545937, 0.1121814068786964, 0.11796898979384589, 0.004444201447372347, 0.01837977748105546, 0.0667184484181505, 0.0017687497143821262, 0.0023080126888795176, 0.03455933804661259, 0.2189341996199981, 0.005132067446932198, 0.045792888078520305, 0.007641911816276829, -0.005384905766317787, 0.003467573063526127, 0.004210600101543781, 0.10923504431553868, 0.005133996947837715, 0.03766798507599561, -0.11351999244395838, -0.04301999977999834, -0.0692335061378122, 0.02467681522926365, -0.3467017830880596, -0.019624281110593497, 0.22055854489733798, -0.15757296732528306, 0.12627213187374278, 0.008615855689194695, 0.0507013967595723, 0.22646197439117438, 0.006028563305131015, 0.003062356171199998, 0.08531499554510741, 0.18469680420805365, 0.006088173394288839, 0.0027917265026402996, -0.02971157110076554, -0.027129199563151192, 0.003069878757507327, 0.006584141876899616, 0.06683138896463008, 0.008726010564958395, 0.031917275994309095, -0.08737398233217654, -0.033750761173477514, 0.07977781142223934, 0.0029035149107184176, -0.4078874849843219, 0.2696462842466025, 0.23103899370838957, -0.2665027729563414, 0.024764010707271494, 0.03507541245365114, 0.1163737536592675, 0.08007388619986108, 0.008906468166451015, 0.0033830962425692667, 0.16288416359186644, -0.14008236429579776, 0.004791820676455815, 0.08874008744973755, 0.0005952360128510584, -0.00478875714218211, 0.004802241815948006, 4.447627739828364e-06, -0.09201252002280579, -0.026306861942424195, 0.0048448947988603995, 0.13085275600772117, 0.000730695238309063, 0.045835526220227574, 0.0007639948242985191, -0.14255356700726748, 0.015264717429751079, 0.23024077762522624, -0.16694359424157681, 0.26769539989507696, 0.0017495017970207047, 0.002057797008773109, 0.008519083879323826, 0.005161882900268974, 0.005931267219139171, 0.017211274596381783, -0.04671000053768837, 0.009445954351397905, 0.0005598449700936152, 0.009658313943056676, 0.012474017218613239, 0.007788292032842206, 0.008636293829409059, 0.0013168131405048912, 0.0061151492794237474, 0.004354014185784733, 0.0022488745678992715, 0.0009296960471820358, 0.0073969609527297555, 0.00881249766297369, 0.0022602853544118734, 0.0017579622898576787, 0.007127441680380147, 0.009132610619883106, 0.00016552530811522056, 0.005959341881972464, 0.005415621150638544, 0.003275309150455513, 0.0008934498156814997, 0.0005808334058125149, 0.0086392675800132, 0.004988159834748923, 0.007119202351657802, 0.0014388180939797685, 0.005713370513541663, 0.007876632845959082, 0.004870613480937039, 0.004677408373130664, 0.7338834434827101, 0.11894448378209972, -0.011016281200450768, 0.19848333556165285, 0.0015987969378127354, -0.2677966221976369, 0.007701534508931964, 0.005933993213199757, 0.009529847622471806, -0.2667080465279486, -0.1621355885795711, -0.2200334364417114, -0.09804641205566893, 0.005931987204912844, 0.012315752668957602, 0.007150624861844224, 0.007525126508416932, 0.002746968939715254, -0.1731578605215712, 0.005680223702712135, 0.003948138324193028, 0.007799740330935853, 0.0041855924742262764, -0.014907841663901111, 0.00017343157766567277, 0.20941405714543262, 0.03477324327713542, -0.010337180922525134, 0.23722037875472635, 0.03416552071603456, -0.08332002187711247, 0.008326409573574995, -0.04645989209818682, 0.0016627074105027067, -0.18074758389178514, -0.28066702373480773, -0.16006393268479457, 0.006870992053429509, -0.18380868751906992, -0.020988409329323554, 0.005691607733536621, 0.0038473705261866994, 0.0019069126696666353, 0.2781133202560659, 0.009076458209092836, 0.003786986511212715, 0.005065438899304116, 0.005458884540507989, 0.003934122039843782, 0.009717772419667783, 0.06394221493151493, 0.00510263822839746, -0.0705031979638385, 0.09762141348047337, 0.008397995989032904, -0.10024911656143173, 0.006904660027724269, 0.23427806286189262, 0.04133684904638836, -0.10346709559745365, 0.004692291642950805, 0.012228664573958933, -0.030283909687964433, -0.07244993310097579, -0.016232657315101134, 0.008666624348278454, 0.003667398239892413, 0.0045345872045511205, -0.1843262584467684, 0.009703227412807876, 0.009046630393974592, -0.023887861990221637, 0.005980010889541088, 0.005676016950003152, 0.00996220098330745, 0.03835277205132729, 0.0037047877180660296, 0.0029034210648375266, 0.028930484907328004, 0.008117986035969192, -0.021634428827169636, 0.010038875920141965, 0.22102065746882152, 0.0064202262677847555, 0.04519263475658479, -0.16675499454663634, -0.01524556657255215, -0.06892412987123718, -0.16928734698333464, 0.007326212577824921, -0.011454431075211229, 0.003089335939698579, -0.011083427995058187, -0.031070238386242417, 0.0020799652646640524, 0.0035762709871618573, 0.00736533247047202, 0.003603222971510432, 0.006531801485833164, 0.007246631402839858, -0.26722875349041847, -0.049464648536149514, -0.014887123744980796, -0.12504768955430126, 0.023935428077001088, -3.533562391088762e-05, 0.0050352562419975115, 0.4687663687456829, 0.11011341693063215, -0.0806061545446433, -0.054371951963592076, -0.08540572233398339, -0.057538415516032164, 0.0030121341831135535, 0.007457998824896227, 0.000216746814829263, 0.0008768815321497247, 0.003871030500002823, 0.007117198176088781, 0.005773785065395754, 0.0028911357973731644, -0.032656923302001525, 0.002971620664363608, 0.0011305223518712694, 0.004386701007587016, -0.06561278349175745, 0.00028278946352756467, 0.0041015388719351795, -0.09856436382733999, 0.02046433689265946, -0.023175075534848846, 0.0031792285478970074, 0.3095035196522096, 0.0072972181834229455, 0.029084904855409342, -0.06505955754971479, -0.186051810339397, 0.0021813992393396, -0.0336333722688174, -0.023351447974578915, 0.0011986585875414155, 0.008505256077965491, 0.0035146567929335865, -0.03841364853480366, 0.00395013502641873, -0.03470439457680575, 0.009676517995240315, 0.048056930192634226, 0.009498672539322591, 0.004253489227219517, 0.006375938630545266, 0.005246596896137116, 0.0029909178250031635, 0.06508556735579471, 0.006699736994790892, -0.04953807242462987, 0.04835403236891881, 0.3209056946412477, -0.03420306971836341, -0.17570439493828557, -0.02760322393499182, -0.11957676284217209, 0.005840891176939123, -0.03215663550861858, 0.07312330317138108, 0.008393035881928218, 0.0004820328969028127, -0.02633795621779812, -0.2492118240741746, 0.004043385459372557, 0.0015821484755314556, 0.006562684271989945, 0.04608523016050313, 0.007386723181450998, 0.0007146988027980208, -0.021263720086649777, 0.009105756826207066, 0.0073123732008876985, 0.021128260763236376, 0.00557312288228003, -0.066753138401022, 0.03824378439319774, 0.31043797611867097, 0.028712793496806104, -0.35332309365392944, 0.09665378269719131, 0.021576053353923198, 0.0020065192641939766, -0.03646553412978179, -0.029298288526042392, 0.006646230648146484, 0.008530440208362472, -0.0018721515261175931, -0.16836033263489758, 0.010013461308496537, 0.004464985704729104, 0.007739729785260299, 0.0017373044472808582, 0.009538133853398464, 0.0036344054847008847, -0.06309787190456007, 0.0041542231406343725, 0.00817588217560744, -0.06326774340641646, 0.03412307837592894, -0.10998502323690762, 0.006769141721766729, 0.19882062736519457, -0.07621071911757561, 0.0821752485104472, 0.00431455789517225, -0.15218797025397945, 0.007221471807708813, 0.0038323278014126315, -0.053832539693440304, 0.0037440553252984276, 0.005067478045820443, 0.0037493506890714377, 0.06791623453027668, 0.0033091842802353143, -0.024459821252088707, 0.0028341106353425324, -0.0034121265617342257, 0.006836237007400915, 0.0022615374501909567, -0.005687415948336015, 0.004451057851157661, 0.0032020245265354944, 0.004431097513034011, -0.04083568396313362, -0.10905732321416246, 0.0015135149497946577, 0.05500734869697263, -0.035094239694973446, -0.12935906923699503, 0.07826624226454598, 0.09982708544309028, 0.0007903286868683295, 0.007274667768763618, -0.0561194388669661, 0.009225465240805572, 0.0004315824238554283, -0.03135972739751434, -0.05862538278269246, 0.00045373371014142467, 0.005282980917493548, 0.007442065732648897, 0.06211019386020358, 0.009955123082078288, 0.005517131187612591, 0.01748316395445461, 0.07611637898677572, 0.0010832804858983284, 0.0495532285632925, 0.020378525849210502, -0.023340902670517173, 0.0034782118191190306, 0.2297716088624296, -0.003405894723951038, -0.24507659460761713, 0.016805435551071786, 0.1525875118710739, -0.018889451950428213, -0.06854688205212657, -0.10417785007868072, 0.008828817798185928, 0.0046189765449121, -0.1237615134358718, -0.15658638820566878, 0.006164604820215116, 0.046972325941191585, 0.0016765041099213885, -0.012597318117726904, 0.006536960853447673, 0.0036203542960086895, -0.047271089471881265, 0.0004205677479633414, 0.006842339895039943, 0.10087049658026401, 0.010093986275359389, -0.08009616023662512, 0.009657887969191998, 0.31964195125074524, -0.03634227765801778, -0.05756608284033839, 0.037550081218543585, -0.1908204267307342, 0.005769945992165137, -0.06340209864683354, -0.03984251763169172, 0.003075791121053039, 0.043972325184994956, -0.08322315321249453, -0.1182831894376791, 0.003945620306695696, 0.04551986522168104, 0.007408826334927407, 0.004715243495264652, 0.009902942331310454, 0.007231290418314264, -0.13268939666777904, 0.002486523260879799, 0.008250622779382329, 0.16523887417463, 0.008936462348236413, -0.08777913724989282, -0.04662644490197942, 0.35405583534611185, -0.07134245339238113, -0.08438891538529891, -0.05847149147570997, -0.25488348202375843, 0.006688202437964695, -0.059000109255905105, 0.053981638075226844, 0.039544796187108405, 0.004041996208184174, -0.0033549826770923673, -0.009887559175377493, 0.0015753057461132002, 0.0004947131710961023, 0.007204015063762522, 0.02799465319792116, 0.0049933608694354556, 0.009192323414790579, -0.11430544781944899, 0.005682418895019697, 0.007876262976395315, 0.10109434155836475, -0.0814417027957244, 0.0614049038380168, 0.006874959042365482, 0.36990068640906465, 0.12156184335065981, -0.1404894956272871, -0.15190130590311166, -0.17234307446906333, 0.00012351461452264715, 0.0032691224400490148, -0.02587180808635329, 0.008937110808357263, 0.006525072466715013, -0.0283081772847659, -0.11012728619948689, 0.008818949529495032, 0.005011547497415552, 0.003499811305456442, -0.004221760403029682, 0.009939270937141954, 0.00621022661008252, -0.1507525712197841, 0.046882602324644654, 0.007671827407475292, 0.12675885149450822, 0.0035125833681214414, -0.184585150602708, 0.045911197939657034, 0.3347864569236143, -0.059663070770023745, -0.1720266041274549, 0.00858367789355019, 0.13272193426204937, -0.09966589649191368, -0.05334535367258618, 0.03721828095558376, -0.03867981930828315, 0.0019727838043753438, -0.03371987594595053, -0.11052828753154686, 0.004760258386194409, 0.009009375607104197, 0.004822270592271364, 0.05035875434759754, 0.0014638515070782955, 0.000834329081677197, 0.0669209638772283, 0.00626344994115039, 0.00871260921864784, -0.1526619944204039, 0.030219279790040545, -0.0016830592625564657, 0.005789413907793543, 0.17405689537232302, -0.024927662448136944, -0.05075035968082491, -0.07103775487641548, 0.04256430329963602, -0.013388085092504132, -0.03298582990510354, -0.04061849803841908, 0.010020309849763829, 0.008412308954457198, -0.015743134200981522, -0.08051629080181998, 0.006593218109507371, 0.009104263656658429, 0.00475818859877239, 0.008806924378003261, 0.0006956844477996507, 0.002022544784903913, 0.10898834567790103, 0.005221953493994551, -0.03453965366424506, 0.14837994543277827, 0.006520411044450295, -0.12691232115674314, -0.037719759533150495, 0.2671690248752552, -0.010585099330520552, -0.17874344039337312, -0.07793055527507228, 0.01592170391490517, -0.03317958766680979, -0.04675760224489744, -0.06504789444271725, 0.001610952602838036, 0.00029004508965404965, 0.004688449987664168, -0.1199306258692522, 0.010066179592652382, 0.003329643112199186, 0.004791439340696737, 0.039088014596579936, 0.0071434826905416565, 0.0016036434851020422, 0.0708577088952177, 0.006265765035321697, 0.0055840694407701405, -0.08511391133866647, 0.03326661903575113, 0.008741207322466237, 0.00487701564200957, 0.2779839420776063, -0.00818215012097985, -0.16214996702108653, 0.09084984219770977, -0.026991646131962248, -0.02958583444202604, -0.16611624708009914, -0.007708671781937782, 0.009557077313528102, 0.006643001959641535, 0.0004163044967870227, -0.18163723174964586, 0.0055675462087893535, -0.011939962116123071, 0.006084678056240951, 0.03992909695008535, 0.0030633083933275917, 0.006514217064608326, -0.013654759909780247, 0.02922011811734451, -0.03534969510721892, 0.11162415319342005, 0.024557840985561994, -0.12288390885644661, 0.0006949113984623294, 0.28168967818598584, 0.028269918317582743, -0.157682837459201, 0.0925678775968291, -0.046797073007153474, -0.03500778593818388, -0.055017867808653066, -0.13620011986937489, 0.0034461262421526615, 0.008980807431362162, 0.006759585621714094, -0.09936082036835098, 0.003539397696548907, 0.016736549885713322, -0.029904649096415947, 0.00971678184752514, 0.006907664661549233, 0.008953691665250956, -0.10026166584370654, 0.0016388317335255327, -0.013334002027942292, 0.040491839623573736, 0.02321753610361463, -0.05513347267114358, 0.045855565980496456, 0.2955923576873916, -0.004924392298871285, -0.023617167702939285, -0.15258209564751093, -0.13822297885907667, 0.008042024816392386, 0.022271937930390923, 0.042854695958038626, 0.0005962343876350294, 0.0038351629704457156, 0.001792058457744615, -0.10788168928375694, 0.00581472010672056, -0.020185366453963845, 0.00018326398644589927, -0.00579834460691847, 0.008830217728812952, 0.007164131859506115, -0.06115753065622435, 0.010666155920502617, 0.008861634581699923, 0.11032406036422335, -0.041484576430886676, 0.14281330608800052, 0.005615802323660385, 0.3640108902483064, -0.03926921856846905, -0.19245871672232995, -0.042529816281385295, -0.03845685694813859, 0.005219242327752361, -0.11217976231219438, -0.09960114799563638, 0.001007030683927477, 0.008772291525395918, 0.00016181942927344576, -0.16363530518921798, 0.004499294868148564, 0.008220592506668501, 0.005512217813430008, 0.021754931900976163, 0.0045875903979713155, 0.002065415460022293, 0.08559338923792008, 0.024756548516066984, 0.005524440758984179, 0.08153638248273797, 0.004613758718960514, -0.1293769631848743, 0.0021438305391877264, 0.20761068789920561, -0.01671218143762461, -0.036724444410583715, -0.07735718195072987, -0.06436728622188467, 0.01002650936185123, -0.006986110143432824, -0.043915125661722, 0.005669781826396796, 0.0020771281161698556, -0.012923598121820432, -0.15447850779909061, 0.0035286887182044984, -0.017636790375176473, 0.002938628205926948, 0.016018446844459664, 0.007205296015395058, 0.009612377259637896, -0.06782422848790802, 0.004280713543488632, -0.015000298909214161, 0.07364430701860208, 0.03521910353717881, 0.03224707849920908, -0.01263757664978241, 0.21986226345576948, 0.009805112023031505, -0.14451511387774027, 0.09420777210664094, -0.08303506029666685, 0.006178246699915279, -0.023964247122509028, -0.1362473486526105, 0.005369076041937171, 0.0022301837588832953, -0.04428752100902228, -0.1177733663970655, 0.007889891421544984, 0.007871953921892832, 0.020063249985619366, 0.02175538448476771, 0.0034159566065768373, 0.004276041409998282, -0.05651140913668993, 0.0027260633129146017, -0.018579017438698244, 0.05468072926116347, 0.033909117115837425, -0.053930465595330615, 0.007898761929270848, 0.2513813719648842, -0.1668053778558971, -0.16024466247687558, 0.1464001472934399, -0.015828193746833818, -0.01098325614639578, -0.052030323367745004, -0.05361946673234636, 4.82172784297492e-05, 0.007698840001822676, -0.10137416766799272, 0.08963916320560965, 0.0003889843626025807, -0.05000784147983106, 0.002595638834803389, 0.009468760573688634, 0.006745186443172196, 0.009908132203992434, 0.04320087693471346, 0.020372121481500045, 0.007533384591185927, -0.07883170497925682, 0.0019160662059565976, -0.036752380798216085, 0.012604977697898756, 0.09171121219866804, -0.010223511185988712, -0.14457890727317893, 0.11581131409020137, -0.18027731760042273, 0.009969742482120236, 0.008230861084232, -0.007999293014151478, 0.009860772601819442, 0.002036298510031704, -0.006899371626826834, 0.01788933409386923, 0.007326629620186692, 0.007563376856114528, 0.006918851452381079, 0.002516303698320708, 0.009328854312390892, 0.008861548815938577, 0.003249012704592429, 0.009950815134233479, 0.003538558423308303, 0.00744983556269591, 0.005826597859568321, 0.005378648244943749, 0.0004551398534437389, 0.005524949451302455, 0.0016850201323603585, 0.009086811455520552, 0.004700239475852269, 0.009850041302296364, 0.0016552571549611065, 0.007907751151484187, 0.00816173534448883, 0.002378857719945755, 0.003890534825401715, 0.00452884004505772, 0.009197546273482142, 0.0019798518835688465, 0.0013907253511668356, 0.0022033583143099226, 0.0016841979070151283, 0.005274506986627696, 0.008393428003349778, 0.3098129915170528, 0.04167136215180866, -0.0013473759577383834, 0.06553924096712452, 0.008535860919322518, -0.1389443606339791, 0.00506966610028981, 0.008831105149361859, 0.00034593631633655876, -0.1138707459422031, -0.07021937048664191, -0.0982339782507542, -0.03449204347091418, 0.008227372550760973, 0.008005967418078875, 0.009157370671630393, 0.0034117569598268982, 0.007295505868104078, -0.09024744469678299, 0.0037367829582115246, 0.001142449530444347, 0.0031163259885685253, 0.008947246769369959, -0.004545716170543502, 0.004112046241747596, 0.07586177941101963, 0.01983665073702647, -0.00159786653438748, 0.08564053788360557, 0.01962557743817577, -0.05223261797424122, 0.009595196454295888, -0.02290380291844962, 0.009949194234715948, -0.09219415479634221, -0.1303627098821765, -0.06694841096984706, 0.005708701574902705, -0.07713608239797214, -0.0011830549806399891, 0.004592680323751912, 0.0035708024788187395, 0.005587856424438846, 0.1201317378589438, 0.007906880431362782, 0.0013165459634615756, 0.00016552488584575462, 0.003761936497280055, 0.008206295767900733, 0.006103242849126667, 0.018791518009912682, 0.0016632395069923632, -0.030467146786262705, 0.03615279765064068, 0.004223532790678002, -0.06989868350486625, 0.007446157088419272, 0.08867845256170329, 0.02192658299806245, -0.04792800700538869, 0.004586315572756716, -0.00796199092714787, -0.010623923245212845, -0.02843999460287403, -0.008185881694988621, 0.008830885051626916, 0.008904208289656738, 0.005018904380870787, -0.10282291160469018, 0.0013126782757771993, 0.0063773710595458446, -0.007863469680676596, 0.0012359333463074038, 0.008081582057135652, 0.00502811523627164, -7.139228646725692e-05, 0.001915313108567157, 0.003171006685939824, 0.01035555085445344, 0.005800244748518019, -0.016795569717124315, 0.005839467492418861, 0.0934361762674591, 0.00041332605331584734, -0.005108041515804456, -0.07503034142568256, -0.01068567498918942, -0.02838521726698423, -0.06710731374733975, 0.004043356131308121, -0.006754398151223126, 0.009417434488938217, -0.005237261972921891, -0.03134676975011604, 0.009631137819272056, 0.001050971266289443, 0.009850177907433495, 0.004252599375308257, 0.008982503159680681, 0.0016577204942634554, -0.12175358261879206, -0.013173002002249365, -0.008367366130178393, -0.0691621982809254, 0.009576281534197406, -0.010950959707555885, 0.0070019878206421995, 0.18088958219235288, 0.04020463396592457, -0.03575687715888818, -0.022275944198169077, -0.04285669916040109, -0.017271009586500446, 0.004203318589950295, 0.0016573013582313972, 0.01007639745323802, 0.003277997879634693, 0.00018273093293786466, -0.007981833308438937, 0.007839218103850834, 0.01010044378777628, -0.01186468389791458, 0.004594864299738246, 0.001302945533926776, 0.008937587570759532, -0.049717877773899244, 0.0060349105395918765, 0.0035705139125560108, -0.04682521746425121, 0.015017069716661792, -0.011130036730298231, 0.006296708961804428, 0.13033011190698437, 0.01019942452629699, 0.00015079393464459856, -0.028914459124511682, -0.08705022280862602, 0.006857963221990363, -0.01062352223534811, -0.01070389802654247, 0.00018447422963959435, 0.003238407181020594, 0.0007501181851207336, -0.03212031162134235, 0.009300002200976064, -0.013031816521673106, 0.009797397392061877, 0.02003901305132095, 0.0026295397948974497, 0.002956733865581081, -0.008710218460786625, 0.002514481008972137, 0.005016011289590662, 0.01759551116723237, 0.009899974576933234, -0.0459261658847671, 0.018828286593477666, 0.1402509298282755, -0.00928765129288121, -0.08092071565842408, -0.017630897316054675, -0.057450004702572825, 0.0023411138839214383, -0.011700086917622214, 0.033969761599100964, 0.00983204033159613, 0.0015083289746797277, -0.011246621046922218, -0.12138307317894108, 0.0027938385470633554, 0.008336194125856204, 4.751761395450896e-05, 0.01822800623774535, 0.00869498208260896, 0.007986843477119044, -0.005180352721296011, 0.005350676580057726, 0.0010357661172752098, -0.0024525876263699516, 0.007962070110522424, -0.04010652485063681, 0.02246022252215272, 0.11704488145348745, 0.013858779448153459, -0.15906228813286638, 0.03369643589485989, 0.005640156831097995, 0.007201478861451403, -0.014270554750332396, -0.01526572343996424, 0.006034646187361212, 0.009406459255244248, 0.00030861172524986654, -0.08338354999842781, 0.009800893609744626, 0.002790098016671746, 0.006051110877703903, 0.007611689077800384, 0.008385072329863068, 0.0076181722890635815, -0.043995561651018485, 0.008775145142465045, 0.004387523636720181, -0.03772695956089819, 0.019214906188872827, -0.06164528191116255, 0.006188979753929833, 0.0730761745088445, -0.03386221128075071, 0.012172022622678412, 0.0020943507980355266, -0.06435234810902353, 0.007303848677069434, 0.008718993372776753, -0.02858017715439611, 0.002210684339219505, 0.0028344969774008267, 0.008890397707892008, 0.0369587349699917, 0.0043004577150161415, -0.007494238843194557, 0.008308327827486984, 0.004768989681609655, 0.00013017094068751127, 0.009035911463349774, -0.0177205538982247, 0.0072164535711075105, 0.009135018603530613, 0.0038660619352439, -0.020698278978776054, -0.059680042837758546, 0.0034747004588337404, 0.017656798862564993, -0.013160347725201242, -0.06477027555702888, 0.0256107575049987, 0.0295034029984493, 0.009087921135156718, 0.0062883029109803545, -0.024550916726031855, 0.0018780058732164142, 0.0009356143947805714, -0.011763996502108536, -0.03244805194050903, 0.0068702237696818425, 0.004166643319450127, 0.007249604406346289, 0.033569490891551736, 0.0021027486962598846, 0.0032737992179660354, -0.011433708434653501, 0.03297377361378053, 0.008877080445234924, 0.019733171879725793, 0.008927308756338062, -0.01262059729916667, 0.004579234650416643, 0.09584920261681938, 0.0006561876705012879, -0.10696814460247214, 0.0015128561247285588, 0.06292990340493276, -0.0015687229538112882, -0.02374412597205953, -0.036879949217410946, 0.0039230419735772175, 0.0020942964130984667, -0.05490647781215388, -0.08525974093808933, 0.006255220744009547, 0.021785947822267455, 0.0052849629443908475, -0.004553601385723097, 0.0010305677574757345, 0.0011183105976093003, -0.03343439220643358, 0.0030283089893678385, 0.008397857699413756, 0.021930792716574464, 0.0040438039134428885, -0.032970815376245056, 0.001646991909810817, 0.12603191203630143, -0.013201229734069776, -0.02909535420343299, 0.008202878596187995, -0.07278351461747487, 0.008208887431731074, -0.027958360126759355, -0.012630374195637048, 0.003586184161927733, 0.014311971149480535, -0.033131914889361354, -0.06018358349185542, 0.007552128248667835, 0.022440890035670683, 0.009784802260710691, 0.007198917417196503, 0.008194175854728732, 0.00041961137883031794, -0.06967122984817364, 0.0014799101052755178, 0.007769267908652577, 0.05789830436534205, 0.008816864629447458, -0.05711630428758743, -0.01939181776843377, 0.1434546109230116, -0.027838480682221466, -0.03944423498204106, -0.024194379582142496, -0.12466012699443438, 0.000422304019166777, -0.024357144239079354, 0.019340276628101182, 0.018191749782532993, 0.005998829565335168, 0.006079333980590721, -0.019283301266634086, 0.009208732064617677, 0.004044538301024369, 0.000527562998137145, 0.017996006113107012, 0.003285894149913729, 0.008590943276183993, -0.0554145450075489, 0.005770549607096647, 0.0007190737773695409, 0.028358302495907775, -0.04050483353585221, 0.013347674089782054, 0.00078455191874389, 0.15284585702072637, 0.04970141138574781, -0.06171887538608049, -0.05740061252819269, -0.07937374829291817, 0.0033661765897962303, 0.004588068185447662, -0.009911286343784189, 0.003202405154529483, 0.0070779240234750485, -0.008087004571077583, -0.05686345340754177, 0.007280221828084303, 0.008449447997267686, 0.009564788146634926, 0.0001231455332699619, 0.0013050470257360248, 0.003457184376322258, -0.06292909709271075, 0.015182946279034727, 0.007059803467413266, 0.05072621921446941, 0.006361184350666639, -0.08077536235640786, 0.02674737950240812, 0.1198106264004613, -0.03108961576449186, -0.07633715152956205, -0.016063265070785388, 0.04213544523443714, -0.036509984840961636, -0.02000710630757756, 0.020948975689138616, -0.01645543071445603, 0.009582340107254627, -0.016895186924003113, -0.05643540891961983, 0.001169999617191165, 0.0031110835160370917, 0.004559396918327163, 0.026849156737841457, 0.004874255095046287, 0.00987312180096455, 0.0164808388707083, 0.010272697994253815, 0.005774486244419481, -0.07328589834835844, 0.017418064979454705, -0.023200248351702965, 0.0066583241962405795, 0.06805407989793345, -0.008339407748593864, -0.036035903018136514, -0.03219527403986854, 0.01027590041055436, -0.0009252253684446902, -0.014461608344351376, -0.013721836988936361, 0.009089467111867063, 0.002128166261508225, -0.0037812558216805117, -0.029955002160220734, 0.005223692492295608, 0.0022193526552271906, 0.008680155555788546, 0.0061653132122252135, 0.002136230738928088, 0.009474560674033279, 0.023890052356363992, 0.0047969908681429665, -0.015579587168813724, 0.061162013043030546, 0.004949990089146273, -0.07686459534738332, -0.018822501239711083, 0.11117559912098213, -0.0009359464212250394, -0.0847300691951179, -0.02983507646304097, -0.0007253194788500685, -0.011880671659307862, -0.017596506888089926, -0.030341520816959868, 0.008404425066219544, 0.0011427638343540405, 0.0035756053449031277, -0.06390137805839753, 0.006662163611891582, 0.007014077538184783, 0.005363172395495507, 0.020060717787101435, 2.977462424147056e-05, 0.0015544192566604134, 0.008298662234686149, 0.007234688165888682, 0.0005396586664374112, -0.04111298566348496, 0.01790406688832815, -0.008012184311683948, 0.010100368329240031, 0.11184540692967784, 0.00030698025832919245, -0.07232705302264707, 0.03883984430944653, -0.020350034407238662, -0.009154335959817878, -0.06682857526180658, -0.0017550404531960144, 0.004468173203869208, 0.008816037344670246, 0.0036564724762563113, -0.0872234520674608, 0.0026979903041782676, -0.0024541561339615375, 0.0029481043178407338, 0.018483304548090537, 0.009035948661659533, 0.00016370205557253342, -0.011866379504447197, 0.015301796568670997, -0.01485510382047884, 0.039736928832669105, 0.014874543207715453, -0.06109465553796485, 0.00958789893374872, 0.11107905140658157, 0.011263707049748866, -0.07791210588751923, 0.026281267644315466, -0.021276941590839718, -0.01993779733887825, -0.017308304185327854, -0.054808316063173, 0.006380801837537424, 0.0031682882320736593, 0.003317802391838885, -0.0675228337814458, 0.007984189882766609, 0.015850828784667786, -0.012361915484142123, 0.0035239449500732373, 0.0005530948768018455, 0.008098444716629542, -0.0506385466682818, 0.003207892203745501, -0.003354850007325257, -0.0072310869086683075, 0.015119366009181725, -0.029103476513403007, 0.02414395198349606, 0.12405884250079253, 0.00478342954056457, -0.016769061284117714, -0.07008640976994758, -0.06658036387565867, 0.0024074822588448378, 0.011167481373702113, 0.012293187236261787, 0.002723418430638488, 0.009900128439451988, 0.004855835294631473, -0.0658192919443093, 0.006024509787615888, -0.0044303823318346935, 0.007622555898779208, 0.002577639969229561, 0.005388438975805381, 0.004494231599868686, -0.02605814395106236, 0.0019544795482630034, 0.004256518458960689, 0.026629383084566423, -0.012904970734065444, 0.05315065341183071, 0.0011979869626786083, 0.15213952322317617, -0.009754218400202996, -0.09004128853892343, -0.02542453398871769, -0.031157146944119737, 0.004475281893458316, -0.05090958622668967, -0.041952371022497666, 0.005833414801477823, 0.008263628049301655, 0.006572798762328654, -0.09294046002026264, 0.0027434922615380167, 0.008358916124402427, 0.00021663855130878908, 0.017909204551168723, 0.0031379321500496532, 0.004416223280465714, 0.03525911986870678, 0.010211229749374153, 0.004683016927611483, 0.00818235903351183, 0.00446055732160306, -0.06482790142259284, 0.009217912070688453, 0.09251714938637068, -0.013167933234970725, -0.029102457190341165, -0.034825048161907214, -0.029089768617700625, 0.009800331797400159, 6.289635698950099e-07, -0.016867272810155966, 1.1238200094730307e-05, 0.006125627675555496, -0.008655063193003371, -0.07153135776726714, 0.005003897752519337, -0.007229838028509893, 0.008871629544054934, 0.008990194518131694, 0.009868149094737058, 0.006034254087846208, -0.036741529626757245, 0.005433482703916445, -0.006228451908863286, 0.029303288492812753, 0.021436538508835732, -0.019554840998585465, -0.0060750294323692255, 0.08677948062082926, 0.010040406449519054, -0.07767875517497022, 0.03543191386692624, -0.040351241656003, 0.00866539258925298, -0.010412986986078766, -0.05715774032840661, 0.006737468882264399, 0.007429608930051792, -0.01619421458348547, -0.051307722162781406, 0.002108999099760159, 0.00030272093680629413, 0.014500705793164972, 0.009985738833555005, 0.004682768056750766, 0.005702072175474165, -0.038122318352519835, 0.007669855924572261, 0.0007966269396763405, 0.021725215594008872, 0.0133976911975737, -0.03896089858814818, 0.0028576880832906393, 0.09980085028351031, -0.062036519580422916, -0.07189711110817261, 0.04450582352411383, -0.008288184934278867, -0.006054702036248374, -0.01893900353661235, -0.02018495246811756, 0.00717451119109138, 0.0033487702498999497, -0.04497465512157977, 0.033200086107939106, 0.004295912483265819, -0.011895813502394983, 0.004581416759001609, 0.013622328742105397, 0.007887390332867865, 0.005324073800812979, -0.011578272458215078, 0.011020796301394584, 0.004883379897425762, -0.0314357523289286, 0.005775389617364693, -0.02545276074893558, 0.010900578106091623, 0.038206222172099645, 0.0043559558449804475, -0.0754569743325329, 0.05533741322848014, -0.09220214938513122, 0.0016051328372393404, 0.007697324502463716, -0.007352646869911282, 0.0011520924538333244, 0.0004381867888578073, -0.0018190558827166816, -0.013892304727296502, 0.0038350888971752845, 0.003495207351653293, 0.004926557429402141, 0.0029725531282689035, 0.004592003097416274, 0.005981064079949929, 0.0068158056937729925, 0.0076635195558362994, 0.0010906640449630028, 0.0035304974101105736, 0.004671153746415899, 0.008731873480449986, 0.0069718718468636505, 0.008304596004153245, 0.006646285875119489, 0.005890723621707047, 0.005427811481049747, 0.006646167220956161, 0.009189336199913729, 0.005437972075632777, 0.002445758493268608, 0.0019020078215529368, 0.0024722610805240322, 0.004467573472652248, 0.009822654735120643, 0.009868325869020091, 0.004453342371325181, 0.0004707624139510787, 0.00017118167191077256, 0.0009939923572120117, 0.0028717731869661216, 0.6435926655120138, 0.1006239622777214, -0.014710951807178994, 0.1642514338322167, 0.007558500251274046, -0.24409519030092447, 0.007292039132243071, 0.003080951585670169, 0.005870130648248904, -0.2373681467196006, -0.14074441295119056, -0.19029819172114812, -0.08609411199661542, 0.008796099149803784, 0.008869286782767993, 0.0025051746604263588, 0.0039280539186470195, 0.0018577506655465242, -0.15525714432175733, 0.003335269057745475, 0.0012267515624583545, 0.006995309375089368, 0.0034502503570292636, -0.020595608107374916, 0.007194377806760256, 0.17742831527768738, 0.03261430843345685, -0.003768752867136964, 0.2024184864404885, 0.026804973286003893, -0.07580094003341778, 0.008474065333269687, -0.04371366464944917, 0.009752901436158532, -0.15799488271513026, -0.24096314282911127, -0.14339044719588737, 0.0035687326481492793, -0.1573061617615368, -0.009225736022193804, 0.005338914342825822, 0.005375915352562565, 0.0012490529137142955, 0.24573776835142894, 0.0071532899465563205, 0.009268844018525122, 0.007289079599508472, 0.006723854280298106, 0.001541425624993148, 0.002217754485827151, 0.05329139723097603, 0.0021736427051504107, -0.06721567485945937, 0.08894585999883071, 0.007259301325801823, -0.09375281308514563, 0.00589401897080715, 0.19826661339609147, 0.042366007950841444, -0.09156574611513747, 0.005148690205604038, 0.009671643613441474, -0.02427196807990152, -0.06669222670000349, -0.010131473908573949, 0.0013125923193580602, 0.002216143923671729, 0.0034059684491198026, -0.17255270972402037, 0.002053026892593318, 0.0057026781761903966, -0.028518700813833824, 0.006407962977757682, 0.009961750339383678, 0.004212980170311916, 0.02613649766757947, 0.0036502581619866315, 0.006605516749436822, 0.024542544232921706, 0.0073631693994624554, -0.015595361528981617, 0.007948523966053507, 0.19391598820856654, 0.009560041978855136, 0.03264005397277262, -0.1395071192672322, -0.0120912524583579, -0.05976208676953966, -0.1427049426336806, 0.008588143165506844, -0.014248665727432915, 0.007881612829741435, -0.018594144177451494, -0.040901267682780074, 0.005613491053244373, 0.004095530637281437, 0.0020432841291947355, 0.0021441502653188086, 0.0014415531471452072, 0.008967798472404016, -0.2305294533949233, -0.041455233027393505, -0.010847663684963071, -0.11341238843840964, 0.01919412831052807, 0.00040510537472080284, 0.009437844413721736, 0.3997932243401359, 0.0998183909400564, -0.07553126824233697, -0.043696927181421166, -0.07700642486176038, -0.05086988721521766, 0.0021784518136775473, 0.0018861025244744309, 0.006945162383577983, 0.0070684447222352205, 0.00117518152466676, 0.005981278876058627, 0.0016651591021951827, 0.003743980097546905, -0.019839952407721382, 0.003109529809252149, 0.009128405992823895, 0.0022949689245068856, -0.06783717890138828, 0.0034628619007693296, 0.00032941496209982373, -0.0864225595464214, 0.0162946104055506, -0.017722930751790916, 0.008480207393880699, 0.268347517983916, 0.012391064234075289, 0.022122061460053126, -0.057137937846613286, -0.1638985634250876, 0.006542351892653029, -0.030597020359529756, -0.02410404955438638, 0.006136095623021462, 0.003303231943385129, 0.010071110108731915, -0.037475755289208754, 0.005767818160072362, -0.021948488807138174, 0.002729098236933202, 0.03980966097809148, 0.003397520061323097, 0.0072936950639529655, 0.0011662584788320498, 0.008484138516565178, 0.007044246386429696, 0.0528633611777748, 0.008311708900714044, -0.046482908941592786, 0.04325564379669262, 0.2860206016608297, -0.030879153189057724, -0.15729832383576808, -0.02276995735847765, -0.11110795614851479, 0.0028381465896968397, -0.0276186094415882, 0.05834687235990453, 0.008639854589415335, 0.00586741447964195, -0.02159914508180592, -0.2165181110711363, 0.006388540426983641, 0.0035672887155582507, 0.00573870792557962, 0.040681862799861246, 0.005375765940714042, 0.003560350117601857, -0.015031737758867875, 0.007817073144038266, 0.002799062754072145, 0.015952111248075156, 0.009129732376212302, -0.05991989395748141, 0.033792023686435774, 0.26665841069386786, 0.023959396814223818, -0.308375064320861, 0.08272095189268149, 0.015601138635779426, 6.512668469421631e-05, -0.02625820433743556, -0.02549455090137748, 0.0023481260943949925, 0.006219612163721357, -0.001434080525604977, -0.14946248135198595, 0.0042094131348221755, 0.006959952791029462, 0.003850731934588872, 0.005641882526550592, 0.009007928147913655, 0.009828121512456685, -0.06357529357748723, 0.0030978910204085093, 0.006135486606377375, -0.058680094017958, 0.02888658470028101, -0.10145580984167739, 5.3776717387192234e-05, 0.1667026231796769, -0.06662810200711017, 0.06296767745010613, 0.007322843359266246, -0.13469919753916115, 0.0026875526323904618, 0.004851186242765334, -0.050933104123706226, 0.006815795714662392, 0.005823891983829385, 0.0065356481753149984, 0.06162361992617529, 0.004374054199880172, -0.020380163825547574, 0.002291402578387442, 0.0020996353449432123, 0.0005596124529218955, 0.0041132515193376025, -0.009250204385530984, 0.000528951268693795, 0.0011778660940132898, 0.010911065815515004, -0.037300627597557715, -0.09570346697530754, 0.004606597399218951, 0.04772959513069692, -0.02270385602821597, -0.11333843670865491, 0.06371016352831484, 0.08535378953399161, 0.005629820903914509, 0.0018021854183555997, -0.044201260693430285, 0.007617587271576163, 0.007967312654156948, -0.03002106844349195, -0.05326453398964871, 0.0030494545588785524, 0.006584146026158728, 0.0018065652344320937, 0.056060957559020054, 0.007148095685199665, 0.0036260163527081597, 0.007960420473203294, 0.06462001745831786, 0.0056181150511108455, 0.04222931161160899, 0.021913179564514624, -0.01548590755766629, 0.0042148546494047935, 0.20366594784223385, -0.0003318163486980245, -0.21233535824475447, 0.010966002647342842, 0.1301117131119265, -0.012363402876275072, -0.06493514862456295, -0.08247752799602462, 0.006956905130458348, 0.002898840331932388, -0.11145047925950641, -0.14609997287739368, 0.004669143035256774, 0.039440758014049206, 0.00658101696542574, -0.004761240718407731, 0.008785287520184547, 0.005536900171514771, -0.045943568232177254, 0.0040615076097996325, 0.007868545278853214, 0.08598075841220694, 0.002877881036897568, -0.06982729438900477, 0.002920503520989671, 0.2722819767761822, -0.03503812422454101, -0.04756803056516585, 0.03435835056012359, -0.1607047019338939, 0.010002151071279379, -0.055552327159217096, -0.039855741292387115, 0.0040290329618636635, 0.03822128826816893, -0.07012899333636619, -0.1064034944732816, 0.007534132029155553, 0.03470465578682594, 0.008208380648321923, 0.007974450616105553, 0.009307140432683868, 0.008083861804998163, -0.11758470663904921, 0.0017435039788193905, 0.000646377055518042, 0.1395758188291883, 0.005965647323063107, -0.08598687231360648, -0.035775409476611, 0.30497550326163236, -0.0532399271954199, -0.08013425814203064, -0.05014327123539218, -0.22472698173667593, 0.008499301658097997, -0.04591606657770383, 0.04303525237072076, 0.038680569788236585, 0.0024059059748186297, 0.003288399858078278, -0.01024987510124954, 0.0016584232691999193, 0.0013331291624219337, 0.0038273762569228462, 0.02575183801039625, 0.001119935889198329, 0.009083105219818989, -0.09929663780183565, 0.002003001653438124, 0.0019746991667138935, 0.08061224249992618, -0.07271201305966621, 0.048067185304566294, 0.0011979695913334476, 0.3210250698113958, 0.10016413510869492, -0.1234043725784261, -0.1324699973787649, -0.15095058385812019, 0.008404595269260597, 0.00021989135885819313, -0.022583839409714396, 0.007633026586819189, 0.002605354657786617, -0.020901342008180505, -0.09512397324606503, 0.0068569568642240465, 0.008330484605320331, 0.003004371595493874, -0.0035596140255215658, 0.0019545166958000915, 0.005995096814086587, -0.13300230390469656, 0.04085563600907822, 0.009464197311407822, 0.10813969786593863, 0.005154478142306334, -0.1571051283019937, 0.040591199512907405, 0.2804871748441798, -0.05419296496711844, -0.14955976422118064, -0.003384086836517459, 0.10837488903010967, -0.08829619797988862, -0.04542193638740699, 0.03319273742625313, -0.03310660209602535, 0.005866608295841485, -0.036578271972586826, -0.09362947140505325, 0.006119255033860019, 0.003968308796771804, 0.0016806544973941302, 0.04624069763501806, 0.008482757107630806, 0.005218807038221318, 0.05852026843906744, 0.009503118218212547, 0.0038222065561694363, -0.1348905586126893, 0.019475080370805618, -0.0095465640904332, 0.008235237709229576, 0.15133326186486934, -0.024337363104196107, -0.05114617739960481, -0.05897150338921438, 0.03250920444810473, -0.011486209259266968, -0.02798532590914954, -0.037490823156640304, 0.00804688241982629, 0.003541659418793752, -0.008962165354226018, -0.06525913434940456, 0.0011585155690304238, 0.002205358618500405, 0.0043392402310174485, 0.00594549934833925, 0.0033507268207163977, 0.008255651193797262, 0.0886899381278568, 0.008087468650734243, -0.02582332488788675, 0.12678705054276193, 0.00609102066075379, -0.11486525311238387, -0.036513851155918466, 0.2362625787377126, -0.0023347429688260744, -0.16299258351212947, -0.06809388348980851, 0.015131662178680186, -0.024229589219985855, -0.03703499221430202, -0.0543951564776446, 0.003601122389972949, 0.002595563699231089, 0.003957681841717499, -0.10811849842614908, 0.0012173859978411546, 0.002417398722594932, 0.0035074925051180052, 0.0310199800978948, 0.0035936887633123238, 0.0015047154083605648, 0.05452922528183746, 0.002027386303351574, 0.00851037197767955, -0.07327531237373917, 0.027197604537795322, 0.0017385671870992826, 0.002543851189258153, 0.23743041425520645, -0.003853466862657248, -0.14336884965924176, 0.0738883555384569, -0.025746692891624484, -0.021659517355380038, -0.14783274059620166, -0.005398966682141668, 0.0010624577473010814, 0.006638225598707133, 0.004367094947325217, -0.16019196582916503, 0.0014746358258462865, -0.008573501820520779, 0.008302512832904826, 0.03047783176684558, 5.360407104716613e-05, 0.009318021460606868, -0.013448499053060895, 0.022957139364838428, -0.035531366926793075, 0.09118079892582641, 0.0174058276486543, -0.10964261675295561, 0.009515113324307177, 0.2375631059585296, 0.026948137690662937, -0.13521127710954653, 0.0760949909574196, -0.03953117510597475, -0.0307790134321847, -0.04025817019176453, -0.11263722781015427, 0.009647008773035618, 0.0015146865845496987, 0.0012868477735899647, -0.08860166066980997, 0.008622888236491875, 0.015933009800667954, -0.026949237191128676, 0.01279638072466096, 0.008929143850140762, 0.00019804966627006164, -0.08838829709161238, 0.008793222091710953, -0.013231652327790342, 0.023648720097651788, 0.014185913981959997, -0.04451616863251256, 0.04026613350392958, 0.25714774270995744, 0.0015648153454580222, -0.02630331332209953, -0.13287299505011152, -0.11770747141738101, 0.009814374764231902, 0.023152817623853322, 0.03862877722110595, 0.006682560778600914, 0.005133598410110021, 0.009725575132418148, -0.10068802774156106, 0.008031950676000842, -0.017090772872653592, 0.004873485605360127, -0.003092032450129557, 0.008272228004070977, 0.0011488557182441788, -0.05120670094514895, 0.005502018033048641, 0.008150521278972818, 0.08856186577377362, -0.039988025616285866, 0.12453771596097882, 0.00918497745557804, 0.3161354236982251, -0.03145521968815429, -0.17189764669853402, -0.041980925655753454, -0.037927377620090484, 0.00685131247078727, -0.09972532695849937, -0.08507351392794842, 0.006596905810893288, 0.004440925099435805, 0.0030971899562299864, -0.14530933879652447, 0.00011074020985676684, 0.005377936098025268, 0.00703405144254897, 0.022091245087445165, 0.0055800518248305, 0.008920331801014267, 0.07467738992988743, 0.02432264696735154, 0.00796227041089257, 0.06045463522671962, 0.00697755877508273, -0.1157709225048751, 0.009520122249673128, 0.18462628928068783, -0.017004092849465077, -0.03543705602086513, -0.06568695850887576, -0.06240760217411091, 0.005808252833309636, -0.003791051075444369, -0.04145496328302474, 0.009985554244472701, 0.0012147627247261485, -0.014704702904693787, -0.1364722432742275, 0.004862500344817327, -0.01364053572113045, 0.00626939258636367, 0.011551853166570881, 0.009971346347565203, 0.00783992612294339, -0.05825716934272957, 0.00762736507937248, -0.018176591466416463, 0.06044498686953256, 0.02915099339830151, 0.014753757483262336, -0.011097620445537009, 0.19159653600200724, 0.012515442045147266, -0.130970973301231, 0.08294582725369821, -0.07507182528724406, 0.0037854817747367676, -0.023500392367126838, -0.11825658135375688, 0.0037750853961734834, 0.0027077123904010797, -0.03834307648326961, -0.10254117572086169, 0.002295523220726119, 0.008734794127598419, 0.01926719313936621, 0.024557950955724547, 0.0027756769196962887, 0.004857648105105873, -0.05187204899642576, 0.006034241756245092, -0.014755660755171623, 0.04326699293351919, 0.02946407158350757, -0.053689435187766414, 0.0025115692082133723, 0.21680167286012586, -0.13727727907454673, -0.13939686340602056, 0.12023314944775815, -0.011227905719138584, -0.00941974229808289, -0.05009785135284966, -0.04224152491075369, 0.002807195517158566, 0.0059572221049261, -0.08209334245919955, 0.07304347488328884, 0.005723110887179473, -0.03525068764891714, 0.000986184301488729, 0.006042119688847811, 0.0008275766700623228, 0.0039898663382874925, 0.030001132628734377, 0.025552807330852776, 0.009915248680918254, -0.07113120537135746, 0.003630340585841764, -0.03824982341988428, 0.006059077673352917, 0.08571917656107625, -0.007531453480279202, -0.13040734293310974, 0.10312165352790137, -0.1626951756634777, 0.003024359257874935, 0.0006579780291517059, -0.004286916567823328, 0.005263254222646705, 0.0013251841574138704, -0.0023173555173267085, 0.010815050811949504, 0.005632027338950413, 0.008134064410074617, 0.000791755114717856, -0.004667680127943349, 0.0030283538609314443, 0.004168573184389763, 0.00752396793010852, 0.0029175308697571233, 0.001403113878066466, 0.007806601198073071, 0.002405107817046883, 0.0007663156295908427, 0.002657219677757145, 0.0074785210980185205, 0.0026805699733869967, 0.009086703446960468, 0.008529809044808816, 0.009079609699656007, 0.009845009111541441, 0.010064206818593187, 0.0021353933917581617, 0.004428745911994981, 0.007083015553058191, 0.005055107249608829, 0.0038210923133363134, 0.003848189723203735, 0.005230168610824971, 0.0049480055112939795, 0.003513599498969985, 0.004697477217856223, 0.0006300950406514203, 0.37358342118386195, 0.049357081594214314, -0.004365416954468623, 0.08114953008803678, 0.009497020505238755, -0.16531566722020702, 0.0013055190337444124, 0.007860054267412308, 0.00978795878043487, -0.13499463751020715, -0.08882798314890372, -0.11703396842656828, -0.04889981397807132, 0.0010849418042802425, 0.009051554375749652, 0.009139049413098569, 0.0072287843477735975, 0.008434122259673481, -0.1003216626865089, 0.005465478210113166, 0.000888234344661336, 0.004928672446996489, 0.0011092431102216096, -0.005488725412417721, 0.006960637477358786, 0.0888064854431386, 0.01792402282453136, -0.0008121909293691407, 0.1039416455422234, 0.018325329860767643, -0.052339051294621596, 0.005766753261274192, -0.023429845854664982, 0.006170298445186828, -0.11109861507903894, -0.15757179662390536, -0.07967591467159833, 0.0056515683016221405, -0.09380289410466705, -0.0033073397462329893, 0.007196623215747261, 0.010031827348051917, 0.0072419831329270145, 0.14498466696772724, 0.007780796164479713, 0.008441493365165939, 0.00630151113654084, 0.0053157622118735455, 0.007124181089489272, 0.0004447039793712047, 0.025288452495636164, 0.004416636144653821, -0.03644102311470597, 0.05117184873867548, 0.0025158208558767776, -0.07307085506420406, 0.00990380866239113, 0.11255590473891072, 0.026399284319897652, -0.05074246472526283, -0.00271892844265752, -0.0033601641509674552, -0.01273744238290573, -0.03943912049218952, -0.007875312724611304, 0.00209000594192307, 0.0089458240830999, 0.004494643219333624, -0.1152370062739735, 0.0009714514544842497, 0.0037097381497774853, -0.007861015532004153, 0.008391698373737636, 0.0034030484008512473, 0.0017836892325901396, -0.004098250155674335, 0.00151730477208888, 0.008453440960601275, 0.012075158876108074, 0.004303721302034709, -0.014350752583930237, 0.0037851196662902977, 0.11395502470468757, 0.006792445642061236, -0.0013561470284435635, -0.08830942710154029, -0.009941641899750192, -0.032411054547493066, -0.07782082594285544, 0.012394391068978721, -0.0073939466198683235, 0.005341936130048136, -0.008975680032201684, -0.03325414019517298, 0.0024344497585276734, 0.006572688352214177, 0.006903579573477159, 0.008612222085518413, 0.006566406712190766, 0.0012016883113739932, -0.1442412381330105, -0.02475102833956491, -0.002009058095492494, -0.07557855960483437, 0.018880141063038997, -0.006026208896641947, 0.0013731813236783103, 0.2176554369623881, 0.051134154166984254, -0.0432107042197709, -0.028327374255191044, -0.05061153400193388, -0.0221364449434952, 0.009292670114257513, 0.002087847047278326, 0.004755745746774819, 0.002959400939835298, 0.007331325931311283, -0.0037397233310258278, 0.0003890512893652968, 0.005523258767820885, -0.008032841960086969, 0.0020868639150525047, 0.007947062988696458, 0.0025673362806844322, -0.053922008471336685, 0.008394408352900859, 0.005267536093382343, -0.06285929221884241, 0.015265565341087292, -0.015375237144382489, 0.0032438843391868065, 0.15635322101783347, 0.008871722895627125, -0.003833277929184676, -0.03583675860667694, -0.10410417689636565, 0.0009906118320901142, -0.010270934779264038, -0.017043507287902226, 0.0004691732721836521, 0.006476923901230531, 0.002783998839712014, -0.03164813741561335, 0.0035321002129465656, -0.008718153905194133, 0.0036526624160125305, 0.02410673482929746, 0.0010569592484960025, 0.006987780582826623, -0.004453583819572467, 0.006121082854255249, 0.006184013570613446, 0.02444091378325337, 0.0020328328429808453, -0.04792814964291634, 0.022831579064622097, 0.17177847309278158, -0.02046999623807691, -0.09662612211527578, -0.018816550881153023, -0.07145905381834453, 0.004092797901629175, -0.01341574605733643, 0.03965669207319904, 0.006377927553907514, 0.006933808424828036, -0.014175774262562278, -0.13885313882208747, 0.0006337490730694079, 0.006171299540500662, 0.00019465016578123947, 0.027194944313718796, 0.005294429052453403, 0.008863742440548572, -0.008681317610659286, 0.0006496167713134801, 0.0037909954397985055, 0.003246390064240972, 0.005085808325293531, -0.0453608638246191, 0.023405037719038114, 0.1347100089210269, 0.0217073491693183, -0.18250651546591254, 0.03958184849552287, 0.002652592802097031, 0.006893430596122592, -0.018971033118958806, -0.01510863324864005, 0.005363554089977439, 0.007204012411234745, -0.003479083224495812, -0.09943158053403225, 0.00022750755126325567, 0.0029694774645863445, 0.00878857740760314, 0.0050844854613699845, 0.005773481407632318, 0.00043886628344210073, -0.04563890151520857, 0.007300941182493304, 0.003892967071338096, -0.040655508005052854, 0.015864551344256364, -0.07693342741553653, 0.0013291063940946448, 0.09033539579909215, -0.03512499196055065, 0.02107720750465343, 0.0009078441446411612, -0.0835049100317803, 0.003527324453890471, 0.009647265014035582, -0.0327061646210716, 0.00944803517036228, 0.008609160732481896, 0.0016255693408148643, 0.043711733859747005, 0.009709676154741175, -0.010884340030080559, 0.008474013330962617, 8.448261928511747e-05, 0.0008463782128755886, 0.008864302529314886, -0.01785375464087081, 0.00807410185514185, 0.009986909682934064, 0.010265146937342325, -0.01793145365927197, -0.06098357380579904, 0.009057486907301389, 0.018742122344234443, -0.012345825489254225, -0.0802856382776468, 0.028403012511262784, 0.036604009679564155, 0.003379553824691103, 0.008561830681899531, -0.02697376638688457, 0.005535394029237773, 0.004125255829486947, -0.011680568196070091, -0.034335102927914245, 0.0009634599657890204, 0.0026025993567722998, 0.0006663700933375177, 0.040122134234005596, 0.00023819381289031275, 0.008568353105974516, -0.012450861148173396, 0.04147128254748519, 0.006526794643540006, 0.015931951650128964, 0.008941821924540794, -0.020624842322132048, 0.005941323901796966, 0.11498260197399893, 0.0021995670008947477, -0.12236925946825285, 0.0077718003956179236, 0.07312228458486437, -0.0062844822684725325, -0.032340371833310705, -0.04938521364007964, 0.006813369070540154, 0.0027022788935010117, -0.06642561722573259, -0.10381803738280347, 0.007680870298542662, 0.022889999498772007, 0.006698762620016993, -0.0001680249219773441, 0.010008679378637916, 0.0003521241008476273, -0.03656610903739859, 0.009657337187783159, 0.005887273687251948, 0.02645482808832036, 0.004616077341377503, -0.04586364520840095, 0.0036370238732784796, 0.15977772100428086, -0.018359799806598576, -0.03371558201887981, 0.01908280178613413, -0.09510408387497396, 0.006249661426954511, -0.030297182046419586, -0.01725774831987376, 6.826517612840956e-05, 0.021041927503592715, -0.03547352324736868, -0.0706710058906147, 0.006279425826451527, 0.026315917198446233, 0.007668644190326426, 0.009689834532056563, 0.007039760587707156, 0.0024259147202062635, -0.07943504721271251, 0.00952811968676246, 0.007394754588186723, 0.06958763997002977, 0.006062132645619802, -0.060726113070811896, -0.018874270349324405, 0.17912364181194085, -0.028395972174808666, -0.044348176534712416, -0.021513977702566987, -0.14739694108451107, 0.004607210879784895, -0.02950971651089251, 0.018916652285260266, 0.017435770949449068, 0.00919915881797376, -0.0005553667135885375, -0.022015540294638078, 0.0008147603161887055, 0.000397836774014005, 0.0020887460553711086, 0.015760096416875074, 0.008820112436658152, 0.00046563610795195625, -0.061712830642410316, 0.0014197220421209382, 0.00394350491545492, 0.028334615844949573, -0.038450123995346426, 0.01971152694379347, 0.004049290149951402, 0.1880753237511071, 0.061214886920381156, -0.07528118150845874, -0.06896482489242095, -0.09318805514274071, 0.007853722937507163, 0.005309675730295651, -0.007627156289611951, 0.008846131878480976, 0.007700424923111079, -0.017277914190449946, -0.06323358602025325, 0.0024674285473178298, 0.007073513297956888, 0.0072492807527573784, 0.0021470742264017677, 0.004424616238275558, 0.00809473824838726, -0.07428119132768103, 0.021403452843557016, 0.004364985139631257, 0.060794718235383516, 0.0037964411020729124, -0.09994600269283369, 0.026846580001388533, 0.14593836996062895, -0.03341741489843397, -0.09321767101141543, -0.010179871693141742, 0.05611099798632639, -0.04913357110885508, -0.026385509422217797, 0.017335321193740583, -0.024082797566227613, 0.0027994440963260486, -0.015691682781069773, -0.05906016102263904, 0.005395003599631411, 0.00645543951187434, 0.0027753841355347216, 0.03131490704822332, 0.009221300354822512, 0.0004548855101748306, 0.027242053606987865, 0.009897678898840842, 0.0034791178190847084, -0.08138841011015509, 0.016354642058254053, -0.01969389569345627, 0.007669430774573854, 0.0791565070541074, -0.008338014962223382, -0.04132462822395895, -0.03480506664360596, 0.01359995997147009, -0.00447420792106498, -0.012940131514194732, -0.02080356883428563, 0.002278739457951741, 0.0054588376573872725, -0.004855187686204942, -0.04313645084697785, 0.00823063617093391, 0.009923099647128767, 0.007773666946022499, 0.007446731155791799, 0.0018729665137435672, 0.010065212785772833, 0.03437508309047948, 0.003082825223689072, -0.011551972958908929, 0.07140422259255051, 0.0076091537807801025, -0.08458016482289209, -0.014544486874320695, 0.1258284760470491, 0.0012639280257221162, -0.09767615023866577, -0.04014465138749205, -0.0011611230192010913, -0.010931418413741976, -0.025674926909958075, -0.03099316735894828, 0.005850941526678891, 0.0068082861317524355, 6.841469827427529e-06, -0.0719832240314258, 0.007439506917062883, 0.0016297481539259294, 0.0016281343659170656, 0.020287549444419288, 0.0033818029514036535, 0.005624767945840832, 0.01732113378221519, 0.0029310110457124346, 0.00816912647723763, -0.04360507762406919, 0.020584902814276277, -0.01066056600548179, 0.0005545371705643646, 0.1326991649213932, 0.000412410480822723, -0.07766035032262883, 0.03929715089322516, -0.024807904942468956, -0.013735446978642174, -0.08066916859869655, -0.005954003184839034, 0.0058422842601333095, 0.005046623969319507, 0.0061170743911576515, -0.09706295307726982, 0.0034901756328403147, -0.0037594349733499543, 0.007788699327080481, 0.019363900991827276, 0.007966705393017585, 0.008406187459210157, -0.015413708868984369, 0.021338190298408007, -0.019648216612592466, 0.04635826694410993, 0.01684848099100716, -0.06877970084601578, 0.0016477933338376134, 0.13441475592336627, 0.015914255622638346, -0.08525875365556797, 0.03971083322331169, -0.02220756779853247, -0.022520820828127803, -0.02363889140587555, -0.06538732477223079, 0.0003683738862415261, 0.004311905378603143, 0.00796195195662411, -0.0705028530047125, 0.004370503206126717, 0.01468458744142611, -0.018140187794416722, 0.006175051897007364, 0.0013684406709627006, 0.00281910855452291, -0.057743831620548275, 0.0011794521054979243, -0.0026743321783149897, -0.003863679150858745, 0.010627159959145711, -0.03306695616833831, 0.027032403599845035, 0.15007701361779607, 0.001577384272658482, -0.016858512056863558, -0.0750641040355502, -0.07914805848499841, 0.0008523665926808605, 0.010778272303293606, 0.01576010759705854, 0.00888461760520582, 0.005960195934500482, 0.008449811668454238, -0.07170972702954552, 0.005570318262038588, -0.005950588516255667, 0.0016201989850897342, -0.004232593513012436, 0.0034223723787136693, 0.007423187870806704, -0.03225783562485272, 0.011675479106179656, 0.005658666167007369, 0.037621723428472476, -0.016528419316635505, 0.062050309279498436, 0.004022426852954548, 0.18696911378425218, -0.012709977921000239, -0.10602510386317798, -0.03465786191634323, -0.028416470620873786, 0.0017586020544489921, -0.05178291054377042, -0.05467388987257515, 0.008232005250249221, 0.00861571329360169, 0.004332048249088827, -0.10046723000019998, 0.0013148753114548676, 0.00045104868596698136, 0.008249979205451933, 0.017157682915884393, 0.008450472722560574, 0.0011019721642204097, 0.04399943738242102, 0.015764245105394738, 0.00928046167782521, 0.015858910289121172, 0.005220783846817103, -0.08165267731245611, 0.00792146457618512, 0.10632937577179738, -0.009475045048185506, -0.028862920099245386, -0.037192920886687464, -0.03489804559648969, 0.008874346700996984, -0.0041081756113317235, -0.018357520231776694, 0.005302660413703685, 0.009547998890226003, -0.009873284847539255, -0.09109690932525621, 0.0065816945207072515, -0.009703800359433521, 0.0035406076051052713, 0.01277799629317567, 0.008562519416290505, 0.006037762524139178, -0.0364287297179773, 0.0019566578979316757, -0.007969118633086171, 0.038146130089735525, 0.016622599518534505, -0.01850627866946128, -0.004115711253446318, 0.11127452115367006, 0.0019529008679064195, -0.08950002594035204, 0.04657727289170707, -0.03952592900773043, 0.0023103673541981693, -0.009148989984312171, -0.0637535915039907, 0.0032355862677874627, 0.005589480718175174, -0.021663400844044833, -0.05895193687668144, 0.002975340595952093, 0.0026072706106537733, 0.017289458406433082, 0.012875624065901106, 0.008483861839854528, 0.0013234444487106327, -0.046655656980194006, 0.003664858412506305, -0.005791829808557325, 0.021364312980240847, 0.017822854571285494, -0.03748268965389977, 0.00017102548223033937, 0.1214602963024502, -0.07648136472433607, -0.08295854574754878, 0.05716362059819495, -0.013632326466550654, -0.011169700782678147, -0.02057563135277813, -0.02401629788950094, 0.0035884295146405153, 0.008858434485172593, -0.04927875277481076, 0.042267477495227475, 0.007289815516132544, -0.020108386039131995, 0.0028839996583469208, 0.011408207348883348, 0.0026390564007200902, 0.005346298377211504, -0.0010546064786679415, 0.017711213202660798, 0.002462483061907223, -0.04281388781292468, 0.0075515120143754165, -0.03148731116718001, 0.009199267027309417, 0.04624525429512857, -0.00023166449814383637, -0.08418976830655746, 0.058393007067067494, -0.10557426480574937, 0.008391467755983619, 0.009112342164645928, -0.0036799247920039496, 0.0012161544380322649, 0.005161049167776346, -0.004844684047186297, -0.009842876246533997, 0.001999432082422922, 0.010667213158219372, 0.0001870487686879516, -0.0027608992579204526, 0.00022632323484429555, 0.0075450569659784835, 0.00025532555584685535, 0.0023296124919956157, 0.007235442227768874, 0.005996307459283462, 0.006932623221063873, 0.0007817145715989888, 0.0027671681756754407, 0.005966192775257269, 5.160483829739219e-05, 0.004947560444503359, 0.0023869502077011905, 0.001263098865601908, 0.0023363124573351213, 0.008262530707582604, 0.00713383534959986, 0.005461109953305246, 0.0017341036878241107, 0.002492071433612908, 0.003097958883852756, 0.0006083428060077071, 0.0026467014202439924, 0.0039372788775581865, 0.01003649381321102, 